booster[0]:
0:[f1840<-0.628035] yes=1,no=2,missing=1
	1:[f923<-0.0781963] yes=3,no=4,missing=3
		3:[f1840<-0.800393] yes=7,no=8,missing=7
			7:[f927<0.239239] yes=15,no=16,missing=15
				15:[f1453<0.204678] yes=31,no=32,missing=31
					31:[f559<-0.789469] yes=63,no=64,missing=63
						63:leaf=0.00440391
						64:leaf=-0.05
					32:[f1823<-0.334015] yes=65,no=66,missing=65
						65:leaf=-0.0338488
						66:leaf=-0.00207693
				16:[f348<0.0615441] yes=33,no=34,missing=33
					33:[f300<-0.682526] yes=67,no=68,missing=67
						67:leaf=0.00598352
						68:leaf=-0.0248261
					34:[f1020<-0.184027] yes=69,no=70,missing=69
						69:leaf=0.0189626
						70:leaf=-0.00876302
			8:[f934<-0.223223] yes=17,no=18,missing=17
				17:[f1831<-0.1565] yes=35,no=36,missing=35
					35:[f869<-0.79447] yes=71,no=72,missing=71
						71:leaf=0.00391206
						72:leaf=-0.0470702
					36:[f171<-0.0903518] yes=73,no=74,missing=73
						73:leaf=-0.0165285
						74:leaf=0.0133161
				18:[f131<-0.226818] yes=37,no=38,missing=37
					37:[f440<-0.600803] yes=75,no=76,missing=75
						75:leaf=-0.0151257
						76:leaf=0.0145928
					38:[f1025<-0.243761] yes=77,no=78,missing=77
						77:leaf=0.00569349
						78:leaf=-0.0314794
		4:[f261<0.324966] yes=9,no=10,missing=9
			9:[f1816<-0.415119] yes=19,no=20,missing=19
				19:[f156<-0.355788] yes=39,no=40,missing=39
					39:[f497<-0.698118] yes=79,no=80,missing=79
						79:leaf=0.00453967
						80:leaf=-0.0251907
					40:[f1829<0.0257426] yes=81,no=82,missing=81
						81:leaf=0.0233123
						82:leaf=-0.00836942
				20:[f148<-0.70222] yes=41,no=42,missing=41
					41:[f984<-0.0275608] yes=83,no=84,missing=83
						83:leaf=-0.00975756
						84:leaf=0.0158071
					42:[f679<-0.606746] yes=85,no=86,missing=85
						85:leaf=0.00353746
						86:leaf=-0.0419674
			10:[f1227<-0.150619] yes=21,no=22,missing=21
				21:[f686<-0.476272] yes=43,no=44,missing=43
					43:leaf=0.00838795
					44:[f1148<1.40071] yes=89,no=90,missing=89
						89:leaf=-0.0336083
						90:leaf=0.00453967
				22:[f1401<0.0604281] yes=45,no=46,missing=45
					45:[f73<2.0335] yes=91,no=92,missing=91
						91:leaf=0.0277898
						92:leaf=-0.0122483
					46:[f29<3.45005] yes=93,no=94,missing=93
						93:leaf=-0.0215127
						94:leaf=0.0105928
	2:[f840<-0.590133] yes=5,no=6,missing=5
		5:[f927<-0.196691] yes=11,no=12,missing=11
			11:[f21<-0.160273] yes=23,no=24,missing=23
				23:[f507<-0.648002] yes=47,no=48,missing=47
					47:[f532<-0.521491] yes=95,no=96,missing=95
						95:leaf=-0.015322
						96:leaf=0.0166034
					48:[f920<-0.16156] yes=97,no=98,missing=97
						97:leaf=-0.0283013
						98:leaf=0.00196146
				24:[f343<-0.348463] yes=49,no=50,missing=49
					49:[f319<-0.633425] yes=99,no=100,missing=99
						99:leaf=-0.0136106
						100:leaf=0.0212641
					50:[f1395<-0.0431345] yes=101,no=102,missing=101
						101:leaf=-0.0231434
						102:leaf=0.00928841
			12:[f1809<-0.575129] yes=25,no=26,missing=25
				25:[f825<-0.786167] yes=51,no=52,missing=51
					51:[f102<-0.550959] yes=103,no=104,missing=103
						103:leaf=0.0194076
						104:leaf=-0.0131279
					52:[f157<-0.769274] yes=105,no=106,missing=105
						105:leaf=0.0083721
						106:leaf=-0.0318594
				26:[f7<-0.673201] yes=53,no=54,missing=53
					53:[f1734<-0.20314] yes=107,no=108,missing=107
						107:leaf=0.0161416
						108:leaf=-0.0163955
					54:[f334<-0.683629] yes=109,no=110,missing=109
						109:leaf=-0.0077343
						110:leaf=0.0222328
		6:[f1739<-0.433691] yes=13,no=14,missing=13
			13:[f903<1.2784] yes=27,no=28,missing=27
				27:[f1822<-0.443055] yes=55,no=56,missing=55
					55:[f1442<-0.055319] yes=111,no=112,missing=111
						111:leaf=0.00624183
						112:leaf=-0.019385
					56:[f299<-0.4662] yes=113,no=114,missing=113
						113:leaf=-0.0142508
						114:leaf=0.0199176
				28:[f791<-0.417365] yes=57,no=58,missing=57
					57:[f1586<-0.167733] yes=115,no=116,missing=115
						115:leaf=0.015438
						116:leaf=-0.00957898
					58:[f723<0.39746] yes=117,no=118,missing=117
						117:leaf=-0.040003
						118:leaf=0.000841774
			14:[f1840<0.0777351] yes=29,no=30,missing=29
				29:[f912<0.10441] yes=59,no=60,missing=59
					59:[f1660<-0.247028] yes=119,no=120,missing=119
						119:leaf=-0.00595941
						120:leaf=0.023809
					60:[f1229<-0.0669307] yes=121,no=122,missing=121
						121:leaf=-0.0183199
						122:leaf=0.0141095
				30:[f1259<1.29121] yes=61,no=62,missing=61
					61:[f792<-0.507133] yes=123,no=124,missing=123
						123:leaf=-0.0128834
						124:leaf=0.0301275
					62:[f1753<0.421204] yes=125,no=126,missing=125
						125:leaf=-0.020984
						126:leaf=0.00709418
booster[1]:
0:[f1840<-0.633802] yes=1,no=2,missing=1
	1:[f945<-0.154078] yes=3,no=4,missing=3
		3:[f992<-0.163661] yes=7,no=8,missing=7
			7:[f934<0.03432] yes=15,no=16,missing=15
				15:[f1828<1.54863] yes=31,no=32,missing=31
					31:[f1359<0.769379] yes=63,no=64,missing=63
						63:leaf=-0.05
						64:leaf=0.00549102
					32:[f1345<-0.0350531] yes=65,no=66,missing=65
						65:leaf=-0.00745593
						66:leaf=0.0149963
				16:[f699<-0.105019] yes=33,no=34,missing=33
					33:[f1192<-0.095465] yes=67,no=68,missing=67
						67:leaf=-0.00708562
						68:leaf=0.0189045
					34:leaf=-0.0162457
			8:[f1824<-0.253688] yes=17,no=18,missing=17
				17:[f1841<-0.0670614] yes=35,no=36,missing=35
					35:[f143<-0.476816] yes=69,no=70,missing=69
						69:leaf=0.00529745
						70:leaf=-0.0471866
					36:leaf=0.0064952
				18:[f888<-0.656366] yes=37,no=38,missing=37
					37:[f861<-0.132171] yes=71,no=72,missing=71
						71:leaf=0.0221519
						72:leaf=-0.00549563
					38:[f1618<-0.0799419] yes=73,no=74,missing=73
						73:leaf=-0.0293901
						74:leaf=0.00317871
		4:[f1841<-0.748208] yes=9,no=10,missing=9
			9:[f1364<0.211538] yes=19,no=20,missing=19
				19:[f464<-0.735442] yes=39,no=40,missing=39
					39:leaf=0.00443046
					40:[f150<-0.838175] yes=77,no=78,missing=77
						77:leaf=0.00593681
						78:leaf=-0.05
				20:[f877<0.17324] yes=41,no=42,missing=41
					41:[f1250<-0.134685] yes=79,no=80,missing=79
						79:leaf=-0.00953322
						80:leaf=0.0202933
					42:[f1168<-0.118361] yes=81,no=82,missing=81
						81:leaf=0.004571
						82:leaf=-0.0235109
			10:[f469<0.0463524] yes=21,no=22,missing=21
				21:[f388<-0.290357] yes=43,no=44,missing=43
					43:[f1223<-0.193375] yes=83,no=84,missing=83
						83:leaf=0.00755049
						84:leaf=-0.0204923
					44:[f840<0.404274] yes=85,no=86,missing=85
						85:leaf=-0.0414518
						86:leaf=-0.00346157
				22:[f186<0.0299925] yes=45,no=46,missing=45
					45:[f1097<-0.223412] yes=87,no=88,missing=87
						87:leaf=-0.0117391
						88:leaf=0.021494
					46:[f1739<0.224918] yes=89,no=90,missing=89
						89:leaf=-0.0258152
						90:leaf=0.00951921
	2:[f840<-0.606782] yes=5,no=6,missing=5
		5:[f950<-0.163397] yes=11,no=12,missing=11
			11:[f1840<0.161031] yes=23,no=24,missing=23
				23:[f216<0.0505668] yes=47,no=48,missing=47
					47:[f519<0.0956175] yes=91,no=92,missing=91
						91:leaf=-0.0392825
						92:leaf=0.00234767
					48:[f544<-0.27438] yes=93,no=94,missing=93
						93:leaf=0.0152168
						94:leaf=-0.0173044
				24:[f651<-0.290547] yes=49,no=50,missing=49
					49:[f436<-0.716571] yes=95,no=96,missing=95
						95:leaf=-0.0210642
						96:leaf=0.0127621
					50:[f1321<-0.0790316] yes=97,no=98,missing=97
						97:leaf=-0.0221704
						98:leaf=0.0118316
			12:[f1764<-0.585541] yes=25,no=26,missing=25
				25:[f21<-0.0552932] yes=51,no=52,missing=51
					51:[f828<-1.15025] yes=99,no=100,missing=99
						99:leaf=0.00697141
						100:leaf=-0.0374127
					52:[f166<-0.348991] yes=101,no=102,missing=101
						101:leaf=0.0139243
						102:leaf=-0.00982255
				26:[f7<-0.71414] yes=53,no=54,missing=53
					53:[f1823<-0.37377] yes=103,no=104,missing=103
						103:leaf=-0.0288872
						104:leaf=0.00467923
					54:[f774<-0.539397] yes=105,no=106,missing=105
						105:leaf=-0.0119145
						106:leaf=0.0194057
		6:[f1736<-0.410221] yes=13,no=14,missing=13
			13:[f946<-0.25128] yes=27,no=28,missing=27
				27:[f885<-0.738629] yes=55,no=56,missing=55
					55:[f1503<-0.194794] yes=107,no=108,missing=107
						107:leaf=0.0204676
						108:leaf=-0.0120775
					56:[f41<-0.748346] yes=109,no=110,missing=109
						109:leaf=0.0111939
						110:leaf=-0.0220584
				28:[f692<0.0667399] yes=57,no=58,missing=57
					57:[f237<-0.644306] yes=111,no=112,missing=111
						111:leaf=-0.00655248
						112:leaf=0.0247208
					58:[f1775<-0.0773632] yes=113,no=114,missing=113
						113:leaf=-0.017335
						114:leaf=0.0119006
			14:[f1840<-0.27467] yes=29,no=30,missing=29
				29:[f1163<-0.0931955] yes=59,no=60,missing=59
					59:[f903<0.0866246] yes=115,no=116,missing=115
						115:leaf=0.0192809
						116:leaf=-0.00765871
					60:[f844<-0.824374] yes=117,no=118,missing=117
						117:leaf=0.00801978
						118:leaf=-0.0263698
				30:[f1762<-0.426423] yes=61,no=62,missing=61
					61:[f931<-0.211942] yes=119,no=120,missing=119
						119:leaf=-0.00435504
						120:leaf=0.0204591
					62:[f244<3.44717] yes=121,no=122,missing=121
						121:leaf=0.0289605
						122:leaf=-0.0114746
booster[2]:
0:[f1840<-0.633802] yes=1,no=2,missing=1
	1:[f934<-0.172613] yes=3,no=4,missing=3
		3:[f920<-0.206658] yes=7,no=8,missing=7
			7:[f1636<0.426904] yes=15,no=16,missing=15
				15:[f1453<-0.00221219] yes=31,no=32,missing=31
					31:[f1359<0.188321] yes=63,no=64,missing=63
						63:leaf=-0.05
						64:leaf=-0.00319893
					32:[f888<-0.442526] yes=65,no=66,missing=65
						65:leaf=-0.00285559
						66:leaf=-0.0379472
				16:[f545<-0.41348] yes=33,no=34,missing=33
					33:leaf=0.0138652
					34:leaf=-0.0101114
			8:[f961<-0.23269] yes=17,no=18,missing=17
				17:[f1325<-0.115622] yes=35,no=36,missing=35
					35:leaf=-0.0105985
					36:leaf=0.0211764
				18:[f150<-0.793468] yes=37,no=38,missing=37
					37:[f194<-0.389718] yes=71,no=72,missing=71
						71:leaf=-0.0102751
						72:leaf=0.0189294
					38:[f1745<-0.233334] yes=73,no=74,missing=73
						73:leaf=-0.0419398
						74:leaf=-0.0088878
		4:[f1840<-1.08744] yes=9,no=10,missing=9
			9:[f1448<-0.0257469] yes=19,no=20,missing=19
				19:[f587<-0.478357] yes=39,no=40,missing=39
					39:leaf=0.00710387
					40:[f515<-0.886408] yes=77,no=78,missing=77
						77:leaf=0.00467391
						78:leaf=-0.05
				20:[f1273<-0.198566] yes=41,no=42,missing=41
					41:leaf=0.0137273
					42:[f1411<1.56267] yes=81,no=82,missing=81
						81:leaf=-0.0222245
						82:leaf=0.0054568
			10:[f1787<-0.395581] yes=21,no=22,missing=21
				21:[f636<-0.064736] yes=43,no=44,missing=43
					43:[f400<-0.649838] yes=83,no=84,missing=83
						83:leaf=0.00662197
						84:leaf=-0.0461622
					44:[f1554<-0.0751718] yes=85,no=86,missing=85
						85:leaf=-0.0163929
						86:leaf=0.0149942
				22:[f28<-0.220833] yes=45,no=46,missing=45
					45:[f37<-0.501867] yes=87,no=88,missing=87
						87:leaf=-0.00805177
						88:leaf=0.0212377
					46:[f243<-0.0209923] yes=89,no=90,missing=89
						89:leaf=-0.026048
						90:leaf=0.00504778
	2:[f1739<-0.370437] yes=5,no=6,missing=5
		5:[f1572<0.219588] yes=11,no=12,missing=11
			11:[f760<-0.474289] yes=23,no=24,missing=23
				23:[f743<-0.32519] yes=47,no=48,missing=47
					47:[f1840<0.795359] yes=91,no=92,missing=91
						91:leaf=-0.0284166
						92:leaf=0.00115599
					48:[f1078<-0.0879531] yes=93,no=94,missing=93
						93:leaf=0.0110016
						94:leaf=-0.0176801
				24:[f912<1.19091] yes=49,no=50,missing=49
					49:[f1828<-0.338266] yes=95,no=96,missing=95
						95:leaf=0.00111016
						96:leaf=0.0180131
					50:[f512<0.497899] yes=97,no=98,missing=97
						97:leaf=-0.0319826
						98:leaf=0.00828029
			12:[f746<-0.0305511] yes=25,no=26,missing=25
				25:[f471<-0.501988] yes=51,no=52,missing=51
					51:[f1451<-0.0928868] yes=99,no=100,missing=99
						99:leaf=-0.0193952
						100:leaf=0.0123457
					52:[f155<-0.876228] yes=101,no=102,missing=101
						101:leaf=0.00449463
						102:leaf=-0.05
				26:[f1795<-0.264535] yes=53,no=54,missing=53
					53:[f505<-0.61297] yes=103,no=104,missing=103
						103:leaf=0.00660061
						104:leaf=-0.0234718
					54:[f845<1.74571] yes=105,no=106,missing=105
						105:leaf=0.0200884
						106:leaf=-0.0112443
		6:[f840<-0.474589] yes=13,no=14,missing=13
			13:[f1840<0.52625] yes=27,no=28,missing=27
				27:[f6<-0.477033] yes=55,no=56,missing=55
					55:[f330<-0.694241] yes=107,no=108,missing=107
						107:leaf=-0.0124762
						108:leaf=0.0187824
					56:[f1272<-0.135293] yes=109,no=110,missing=109
						109:leaf=-0.0186354
						110:leaf=0.00471276
				28:[f417<-0.0338039] yes=57,no=58,missing=57
					57:[f1098<-0.0766187] yes=111,no=112,missing=111
						111:leaf=0.0154742
						112:leaf=-0.0095558
					58:[f547<-0.654914] yes=113,no=114,missing=113
						113:leaf=-0.00949159
						114:leaf=0.0287604
			14:[f1840<-0.24904] yes=29,no=30,missing=29
				29:[f329<0.772994] yes=59,no=60,missing=59
					59:[f637<-0.563006] yes=115,no=116,missing=115
						115:leaf=-0.0147106
						116:leaf=0.0174888
					60:[f849<2.01756] yes=117,no=118,missing=117
						117:leaf=-0.0269414
						118:leaf=0.00847079
				30:[f150<3.04461] yes=61,no=62,missing=61
					61:[f454<-0.686253] yes=119,no=120,missing=119
						119:leaf=0.00663864
						120:leaf=0.0278579
					62:[f196<5.64151] yes=121,no=122,missing=121
						121:leaf=-0.022157
						122:leaf=0.0131326
booster[3]:
0:[f1840<-0.528721] yes=1,no=2,missing=1
	1:[f945<-0.15521] yes=3,no=4,missing=3
		3:[f992<-0.177573] yes=7,no=8,missing=7
			7:[f1822<-0.0214833] yes=15,no=16,missing=15
				15:[f555<-0.81957] yes=31,no=32,missing=31
					31:[f1355<-0.095078] yes=63,no=64,missing=63
						63:leaf=-0.00878849
						64:leaf=0.0128791
					32:[f932<0.372011] yes=65,no=66,missing=65
						65:leaf=-0.05
						66:leaf=0.00312672
				16:[f1590<-0.0653771] yes=33,no=34,missing=33
					33:[f73<-0.357205] yes=67,no=68,missing=67
						67:leaf=0.0181824
						68:leaf=-0.0140533
					34:[f520<-0.648419] yes=69,no=70,missing=69
						69:leaf=0.00770044
						70:leaf=-0.0426954
			8:[f913<-0.761227] yes=17,no=18,missing=17
				17:[f695<-0.351472] yes=35,no=36,missing=35
					35:[f185<-0.578425] yes=71,no=72,missing=71
						71:leaf=0.00589924
						72:leaf=-0.0235647
					36:[f1038<-0.0266874] yes=73,no=74,missing=73
						73:leaf=0.0246468
						74:leaf=-0.0102503
				18:[f70<-0.790156] yes=37,no=38,missing=37
					37:[f653<-0.337339] yes=75,no=76,missing=75
						75:leaf=-0.00671357
						76:leaf=0.0170736
					38:[f815<1.49152] yes=77,no=78,missing=77
						77:leaf=-0.0402832
						78:leaf=-0.000600993
		4:[f1840<-1.08168] yes=9,no=10,missing=9
			9:[f99<-0.752446] yes=19,no=20,missing=19
				19:leaf=0.00842791
				20:[f471<2.04841] yes=41,no=42,missing=41
					41:[f858<-0.59956] yes=79,no=80,missing=79
						79:leaf=-0.0068215
						80:leaf=-0.05
					42:[f673<-0.0376073] yes=81,no=82,missing=81
						81:leaf=0.0130633
						82:leaf=-0.00938534
			10:[f1748<-0.0617643] yes=21,no=22,missing=21
				21:[f451<-0.509023] yes=43,no=44,missing=43
					43:[f201<0.220746] yes=83,no=84,missing=83
						83:leaf=-0.009564
						84:leaf=0.0201615
					44:[f1828<0.370772] yes=85,no=86,missing=85
						85:leaf=-0.0314208
						86:leaf=0.00127883
				22:[f702<0.19831] yes=45,no=46,missing=45
					45:[f682<-0.473873] yes=87,no=88,missing=87
						87:leaf=0.016921
						88:leaf=-0.0196865
					46:[f147<2.20468] yes=89,no=90,missing=89
						89:leaf=0.0227454
						90:leaf=-0.0122816
	2:[f1736<-0.420008] yes=5,no=6,missing=5
		5:[f1821<-0.325284] yes=11,no=12,missing=11
			11:[f21<-0.195788] yes=23,no=24,missing=23
				23:[f154<-0.504153] yes=47,no=48,missing=47
					47:[f972<-0.290348] yes=91,no=92,missing=91
						91:leaf=-0.0184133
						92:leaf=0.0121284
					48:[f756<-0.0284499] yes=93,no=94,missing=93
						93:leaf=-0.0380557
						94:leaf=-0.00190388
				24:[f887<0.361617] yes=49,no=50,missing=49
					49:[f457<-0.581064] yes=95,no=96,missing=95
						95:leaf=-0.0143269
						96:leaf=0.0156877
					50:[f1834<-0.179684] yes=97,no=98,missing=97
						97:leaf=-0.0302738
						98:leaf=0.00365151
			12:[f607<-0.476575] yes=25,no=26,missing=25
				25:[f530<-0.547316] yes=51,no=52,missing=51
					51:leaf=0.0137488
					52:[f269<0.251961] yes=101,no=102,missing=101
						101:leaf=-0.0248309
						102:leaf=0.0113012
				26:[f560<0.119825] yes=53,no=54,missing=53
					53:[f152<-0.822985] yes=103,no=104,missing=103
						103:leaf=-0.0130393
						104:leaf=0.0288669
					54:[f1470<-0.0984947] yes=105,no=106,missing=105
						105:leaf=-0.0180294
						106:leaf=0.0115778
		6:[f840<-0.892194] yes=13,no=14,missing=13
			13:[f1235<-0.179625] yes=27,no=28,missing=27
				27:[f399<-0.260863] yes=55,no=56,missing=55
					55:[f603<-0.627323] yes=107,no=108,missing=107
						107:leaf=0.00876782
						108:leaf=-0.0418291
					56:[f1186<-0.0814248] yes=109,no=110,missing=109
						109:leaf=0.0145292
						110:leaf=-0.0170114
				28:[f1787<-0.505003] yes=57,no=58,missing=57
					57:[f358<-0.174535] yes=111,no=112,missing=111
						111:leaf=-0.0258821
						112:leaf=0.00732651
					58:[f982<-0.241013] yes=113,no=114,missing=113
						113:leaf=-0.00856669
						114:leaf=0.0180565
			14:[f1840<0.359659] yes=29,no=30,missing=29
				29:[f867<0.365472] yes=59,no=60,missing=59
					59:[f1570<-0.266864] yes=115,no=116,missing=115
						115:leaf=0.00468962
						116:leaf=0.020363
					60:[f555<-0.341294] yes=117,no=118,missing=117
						117:leaf=-0.0219126
						118:leaf=0.00764286
				30:[f81<-0.741758] yes=61,no=62,missing=61
					61:[f621<-0.50146] yes=119,no=120,missing=119
						119:leaf=0.0150804
						120:leaf=-0.0217636
					62:[f1453<3.70038] yes=121,no=122,missing=121
						121:leaf=0.025383
						122:leaf=-0.0149237
booster[4]:
0:[f1840<-0.801034] yes=1,no=2,missing=1
	1:[f945<-0.135962] yes=3,no=4,missing=3
		3:[f1804<2.255] yes=7,no=8,missing=7
			7:[f1547<-0.00249686] yes=15,no=16,missing=15
				15:[f934<-0.129848] yes=31,no=32,missing=31
					31:[f1039<0.43173] yes=63,no=64,missing=63
						63:leaf=-0.05
						64:leaf=0.00380292
					32:[f1786<0.0655686] yes=65,no=66,missing=65
						65:leaf=-0.0309172
						66:leaf=0.00478524
				16:[f30<-0.58062] yes=33,no=34,missing=33
					33:[f1445<-0.148197] yes=67,no=68,missing=67
						67:leaf=0.0202245
						68:leaf=-0.00723025
					34:[f314<-0.660292] yes=69,no=70,missing=69
						69:leaf=0.00717059
						70:leaf=-0.0307783
			8:[f799<-0.390849] yes=17,no=18,missing=17
				17:leaf=0.0143716
				18:[f1101<-0.131997] yes=37,no=38,missing=37
					37:[f14<-0.744495] yes=71,no=72,missing=71
						71:leaf=0.00480793
						72:leaf=-0.031548
					38:leaf=0.0065801
		4:[f1840<-1.01953] yes=9,no=10,missing=9
			9:[f1211<0.00729923] yes=19,no=20,missing=19
				19:[f559<-0.775385] yes=39,no=40,missing=39
					39:leaf=0.0114842
					40:[f659<1.63324] yes=77,no=78,missing=77
						77:leaf=-0.047383
						78:leaf=0.000606861
				20:[f853<-0.394729] yes=41,no=42,missing=41
					41:[f182<-0.627245] yes=79,no=80,missing=79
						79:leaf=-0.00929424
						80:leaf=0.0213673
					42:[f1739<1.1531] yes=81,no=82,missing=81
						81:leaf=-0.0270277
						82:leaf=0.00576835
			10:[f724<-0.30333] yes=21,no=22,missing=21
				21:[f756<-0.427938] yes=43,no=44,missing=43
					43:[f769<-0.33041] yes=83,no=84,missing=83
						83:leaf=-0.0143478
						84:leaf=0.018146
					44:[f824<-1.13581] yes=85,no=86,missing=85
						85:leaf=0.00549587
						86:leaf=-0.035956
				22:[f1172<-0.0873696] yes=45,no=46,missing=45
					45:[f736<-0.437326] yes=87,no=88,missing=87
						87:leaf=-0.0110801
						88:leaf=0.0255788
					46:[f240<-0.413838] yes=89,no=90,missing=89
						89:leaf=0.00981036
						90:leaf=-0.0285923
	2:[f1840<0.372474] yes=5,no=6,missing=5
		5:[f1820<-0.376381] yes=11,no=12,missing=11
			11:[f1752<-0.267795] yes=23,no=24,missing=23
				23:[f538<-0.742361] yes=47,no=48,missing=47
					47:[f1773<-0.390757] yes=91,no=92,missing=91
						91:leaf=-0.0116275
						92:leaf=0.0174426
					48:[f525<0.61631] yes=93,no=94,missing=93
						93:leaf=-0.043526
						94:leaf=0.00097035
				24:[f304<-0.433836] yes=49,no=50,missing=49
					49:[f470<-0.69536] yes=95,no=96,missing=95
						95:leaf=0.00530935
						96:leaf=-0.0291463
					50:[f887<-0.487008] yes=97,no=98,missing=97
						97:leaf=0.0180579
						98:leaf=-0.00974755
			12:[f878<0.544325] yes=25,no=26,missing=25
				25:[f1798<-0.374182] yes=51,no=52,missing=51
					51:[f264<-0.553489] yes=99,no=100,missing=99
						99:leaf=-0.0203556
						100:leaf=0.00448206
					52:[f703<-0.713895] yes=101,no=102,missing=101
						101:leaf=-0.00782313
						102:leaf=0.0170459
				26:[f1490<-0.0648371] yes=53,no=54,missing=53
					53:[f555<0.559721] yes=103,no=104,missing=103
						103:leaf=-0.0260984
						104:leaf=0.00219143
					54:[f1291<-0.112919] yes=105,no=106,missing=105
						105:leaf=0.0237699
						106:leaf=-0.0117777
		6:[f1739<-0.419531] yes=13,no=14,missing=13
			13:[f515<-0.217506] yes=27,no=28,missing=27
				27:[f1828<-0.338708] yes=55,no=56,missing=55
					55:[f710<-0.281399] yes=107,no=108,missing=107
						107:leaf=-0.0293626
						108:leaf=0.00202096
					56:[f842<-0.219113] yes=109,no=110,missing=109
						109:leaf=0.0112517
						110:leaf=-0.0112281
				28:[f1120<-0.00912953] yes=57,no=58,missing=57
					57:[f1833<-0.394824] yes=111,no=112,missing=111
						111:leaf=-0.00382979
						112:leaf=0.0267013
					58:[f1601<0.000241293] yes=113,no=114,missing=113
						113:leaf=-0.0217197
						114:leaf=0.0103511
			14:[f1669<0.00852212] yes=29,no=30,missing=29
				29:[f398<-0.825475] yes=59,no=60,missing=59
					59:[f580<-0.502104] yes=115,no=116,missing=115
						115:leaf=0.00593898
						116:leaf=-0.0219848
					60:[f1517<0.100209] yes=117,no=118,missing=117
						117:leaf=0.0255405
						118:leaf=-0.00578236
				30:[f1596<-0.0800339] yes=61,no=62,missing=61
					61:[f70<-0.778611] yes=119,no=120,missing=119
						119:leaf=0.011083
						120:leaf=-0.0269713
					62:[f1412<1.00735] yes=121,no=122,missing=121
						121:leaf=0.017669
						122:leaf=-0.0147978
booster[5]:
0:[f1840<-0.727349] yes=1,no=2,missing=1
	1:[f945<-0.129608] yes=3,no=4,missing=3
		3:[f1305<-0.244927] yes=7,no=8,missing=7
			7:[f1763<0.142274] yes=15,no=16,missing=15
				15:[f1315<1.76409] yes=31,no=32,missing=31
					31:[f629<-0.738514] yes=63,no=64,missing=63
						63:leaf=0.000411511
						64:leaf=-0.05
					32:[f687<-0.45748] yes=65,no=66,missing=65
						65:leaf=0.0124464
						66:leaf=-0.0129807
				16:[f362<-0.530679] yes=33,no=34,missing=33
					33:[f1770<-0.0779022] yes=67,no=68,missing=67
						67:leaf=0.0194254
						68:leaf=-0.00954478
					34:[f191<-0.593327] yes=69,no=70,missing=69
						69:leaf=0.00622359
						70:leaf=-0.0313619
			8:[f818<0.357012] yes=17,no=18,missing=17
				17:[f119<-0.80109] yes=35,no=36,missing=35
					35:[f1084<-0.118025] yes=71,no=72,missing=71
						71:leaf=-0.0135837
						72:leaf=0.0170701
					36:[f1359<0.484891] yes=73,no=74,missing=73
						73:leaf=-0.045278
						74:leaf=0.00650634
				18:[f1521<-0.101151] yes=37,no=38,missing=37
					37:[f636<-0.558032] yes=75,no=76,missing=75
						75:leaf=0.00693356
						76:leaf=-0.0285791
					38:[f1042<-0.164401] yes=77,no=78,missing=77
						77:leaf=0.0253187
						78:leaf=-0.00752119
		4:[f1841<-0.696007] yes=9,no=10,missing=9
			9:[f295<0.754183] yes=19,no=20,missing=19
				19:[f1802<0.935854] yes=39,no=40,missing=39
					39:[f905<-0.930401] yes=79,no=80,missing=79
						79:leaf=0.00489264
						80:leaf=-0.0481512
					40:[f393<-0.229743] yes=81,no=82,missing=81
						81:leaf=0.0131586
						82:leaf=-0.0169688
				20:[f1074<-0.10014] yes=41,no=42,missing=41
					41:[f856<-0.273908] yes=83,no=84,missing=83
						83:leaf=-0.0058513
						84:leaf=0.0220563
					42:leaf=-0.0185937
			10:[f495<-0.275853] yes=21,no=22,missing=21
				21:[f736<-0.437074] yes=43,no=44,missing=43
					43:[f431<-0.398572] yes=87,no=88,missing=87
						87:leaf=0.00712568
						88:leaf=-0.0269167
					44:[f1491<-0.239068] yes=89,no=90,missing=89
						89:leaf=-0.00927944
						90:leaf=0.0291578
				22:[f1069<0.0967024] yes=45,no=46,missing=45
					45:[f193<-0.452664] yes=91,no=92,missing=91
						91:leaf=0.0084875
						92:leaf=-0.0325096
					46:[f160<-0.137405] yes=93,no=94,missing=93
						93:leaf=-0.0118623
						94:leaf=0.0173541
	2:[f840<-0.564898] yes=5,no=6,missing=5
		5:[f1764<-0.481286] yes=11,no=12,missing=11
			11:[f1816<-0.21626] yes=23,no=24,missing=23
				23:[f1840<0.974765] yes=47,no=48,missing=47
					47:[f189<-0.801058] yes=95,no=96,missing=95
						95:leaf=0.00954882
						96:leaf=-0.0330046
					48:[f32<0.0426317] yes=97,no=98,missing=97
						97:leaf=-0.0139447
						98:leaf=0.0143204
				24:[f1598<-0.0409569] yes=49,no=50,missing=49
					49:[f819<-0.563247] yes=99,no=100,missing=99
						99:leaf=0.0213087
						100:leaf=-0.00574284
					50:[f828<-0.990815] yes=101,no=102,missing=101
						101:leaf=0.0069333
						102:leaf=-0.0283887
			12:[f1517<-0.00422379] yes=25,no=26,missing=25
				25:[f1840<0.603139] yes=51,no=52,missing=51
					51:[f1057<-0.213131] yes=103,no=104,missing=103
						103:leaf=-0.011392
						104:leaf=0.00883398
					52:[f1837<-0.25692] yes=105,no=106,missing=105
						105:leaf=0.022659
						106:leaf=0.00362695
				26:[f275<0.147288] yes=53,no=54,missing=53
					53:[f507<-0.711475] yes=107,no=108,missing=107
						107:leaf=0.00734655
						108:leaf=-0.0409013
					54:[f1182<-0.12756] yes=109,no=110,missing=109
						109:leaf=0.0167774
						110:leaf=-0.0147355
		6:[f1840<-0.0824488] yes=13,no=14,missing=13
			13:[f912<0.107408] yes=27,no=28,missing=27
				27:[f1036<-0.178736] yes=55,no=56,missing=55
					55:[f1770<-0.351375] yes=111,no=112,missing=111
						111:leaf=-0.00498246
						112:leaf=0.0227918
					56:[f380<-0.496998] yes=113,no=114,missing=113
						113:leaf=0.0116586
						114:leaf=-0.020429
				28:[f1738<0.136467] yes=57,no=58,missing=57
					57:[f891<-0.399532] yes=115,no=116,missing=115
						115:leaf=0.00102324
						116:leaf=-0.0319689
					58:[f746<-0.0935846] yes=117,no=118,missing=117
						117:leaf=0.0214472
						118:leaf=-0.00980041
			14:[f1763<-0.048472] yes=29,no=30,missing=29
				29:[f1465<-0.0724041] yes=59,no=60,missing=59
					59:[f874<1.41835] yes=119,no=120,missing=119
						119:leaf=0.0234054
						120:leaf=-0.00798959
					60:[f744<-0.70026] yes=121,no=122,missing=121
						121:leaf=-0.0131698
						122:leaf=0.0117964
				30:[f1041<1.12534] yes=61,no=62,missing=61
					61:[f851<-1.06877] yes=123,no=124,missing=123
						123:leaf=-0.00258247
						124:leaf=0.0313051
					62:[f362<-0.054556] yes=125,no=126,missing=125
						125:leaf=-0.0132848
						126:leaf=0.0126429
booster[6]:
0:[f1840<-0.632521] yes=1,no=2,missing=1
	1:[f1798<-0.300521] yes=3,no=4,missing=3
		3:[f946<-0.212221] yes=7,no=8,missing=7
			7:[f1336<1.1464] yes=15,no=16,missing=15
				15:[f922<0.243583] yes=31,no=32,missing=31
					31:[f880<-0.938832] yes=63,no=64,missing=63
						63:leaf=-0.000199456
						64:leaf=-0.05
					32:leaf=0.00420784
				16:[f737<-0.228595] yes=33,no=34,missing=33
					33:leaf=0.0127487
					34:leaf=-0.0123818
			8:[f283<-0.664571] yes=17,no=18,missing=17
				17:[f840<-0.0240083] yes=35,no=36,missing=35
					35:[f1572<-0.109482] yes=69,no=70,missing=69
						69:leaf=0.0115303
						70:leaf=-0.0252391
					36:[f1350<-0.157671] yes=71,no=72,missing=71
						71:leaf=0.0236011
						72:leaf=-0.00546393
				18:[f277<-0.768651] yes=37,no=38,missing=37
					37:[f27<-0.0276647] yes=73,no=74,missing=73
						73:leaf=0.0144739
						74:leaf=-0.0148317
					38:[f733<-0.844391] yes=75,no=76,missing=75
						75:leaf=0.00825569
						76:leaf=-0.0373858
		4:[f945<-0.179073] yes=9,no=10,missing=9
			9:[f1463<-0.0400532] yes=19,no=20,missing=19
				19:[f429<-0.709343] yes=39,no=40,missing=39
					39:[f696<-0.528784] yes=77,no=78,missing=77
						77:leaf=0.0135235
						78:leaf=-0.0154063
					40:[f799<-0.460746] yes=79,no=80,missing=79
						79:leaf=0.000995041
						80:leaf=-0.0473993
				20:[f31<-0.169532] yes=41,no=42,missing=41
					41:[f389<0.0306713] yes=81,no=82,missing=81
						81:leaf=0.0232607
						82:leaf=-0.0103422
					42:[f217<-0.674739] yes=83,no=84,missing=83
						83:leaf=0.00530377
						84:leaf=-0.0243132
			10:[f1097<-0.188057] yes=21,no=22,missing=21
				21:[f73<-0.368771] yes=43,no=44,missing=43
					43:[f1841<-0.743779] yes=85,no=86,missing=85
						85:leaf=-0.0229966
						86:leaf=0.00964605
					44:[f1345<-0.00227472] yes=87,no=88,missing=87
						87:leaf=-0.0389546
						88:leaf=0.00772275
				22:[f142<-0.0821048] yes=45,no=46,missing=45
					45:[f1272<-0.116902] yes=89,no=90,missing=89
						89:leaf=0.0254704
						90:leaf=-0.0114178
					46:[f238<1.07919] yes=91,no=92,missing=91
						91:leaf=-0.0239377
						92:leaf=0.0120186
	2:[f840<-0.382124] yes=5,no=6,missing=5
		5:[f934<-0.199603] yes=11,no=12,missing=11
			11:[f1002<-0.234337] yes=23,no=24,missing=23
				23:[f913<-0.907132] yes=47,no=48,missing=47
					47:[f1577<-0.138986] yes=93,no=94,missing=93
						93:leaf=-0.012999
						94:leaf=0.0203459
					48:[f607<-0.618249] yes=95,no=96,missing=95
						95:leaf=0.00680713
						96:leaf=-0.0274609
				24:[f1060<-0.0805651] yes=49,no=50,missing=49
					49:[f152<-0.533251] yes=97,no=98,missing=97
						97:leaf=-0.00750373
						98:leaf=0.0203314
					50:[f1462<0.028431] yes=99,no=100,missing=99
						99:leaf=-0.0237151
						100:leaf=0.0143535
			12:[f8<-0.897156] yes=25,no=26,missing=25
				25:[f979<-0.212265] yes=51,no=52,missing=51
					51:[f363<-0.75503] yes=101,no=102,missing=101
						101:leaf=-0.0188022
						102:leaf=0.0149522
					52:[f172<-0.931698] yes=103,no=104,missing=103
						103:leaf=0.0111224
						104:leaf=-0.0295334
				26:[f1577<0.0640275] yes=53,no=54,missing=53
					53:[f836<0.664532] yes=105,no=106,missing=105
						105:leaf=0.0159571
						106:leaf=-0.010361
					54:[f1672<-0.0887743] yes=107,no=108,missing=107
						107:leaf=0.0142242
						108:leaf=-0.0209699
		6:[f1517<0.0938129] yes=13,no=14,missing=13
			13:[f945<-0.127538] yes=27,no=28,missing=27
				27:[f1840<-0.0696341] yes=55,no=56,missing=55
					55:[f49<0.244616] yes=109,no=110,missing=109
						109:leaf=0.00602164
						110:leaf=-0.0255725
					56:[f1450<0.172109] yes=111,no=112,missing=111
						111:leaf=0.0181276
						112:leaf=-0.0105754
				28:[f897<1.96367] yes=57,no=58,missing=57
					57:[f1825<-0.585173] yes=113,no=114,missing=113
						113:leaf=0.00411241
						114:leaf=0.0273724
					58:[f227<1.23185] yes=115,no=116,missing=115
						115:leaf=-0.0206825
						116:leaf=0.0113972
			14:[f1489<-0.158095] yes=29,no=30,missing=29
				29:[f904<1.54757] yes=59,no=60,missing=59
					59:[f426<-0.562295] yes=117,no=118,missing=117
						117:leaf=0.0025306
						118:leaf=-0.0394483
					60:[f1688<-0.0783921] yes=119,no=120,missing=119
						119:leaf=0.0174092
						120:leaf=-0.00935925
				30:[f891<0.240875] yes=61,no=62,missing=61
					61:[f349<-0.413995] yes=121,no=122,missing=121
						121:leaf=-0.0103797
						122:leaf=0.0216842
					62:[f1120<0.552993] yes=123,no=124,missing=123
						123:leaf=-0.0215756
						124:leaf=0.00884283
booster[7]:
0:[f1840<-0.804879] yes=1,no=2,missing=1
	1:[f1797<-0.293234] yes=3,no=4,missing=3
		3:[f1503<0.364295] yes=7,no=8,missing=7
			7:[f1351<0.370386] yes=15,no=16,missing=15
				15:[f1461<0.167761] yes=31,no=32,missing=31
					31:[f781<-0.491635] yes=63,no=64,missing=63
						63:leaf=0.00212742
						64:leaf=-0.05
					32:leaf=0.000524541
				16:[f574<-0.470723] yes=33,no=34,missing=33
					33:leaf=0.0134627
					34:leaf=-0.0105603
			8:[f474<-0.311363] yes=17,no=18,missing=17
				17:[f1705<-0.0810069] yes=35,no=36,missing=35
					35:leaf=0.0205245
					36:leaf=-0.00562696
				18:leaf=-0.0140591
		4:[f1638<-0.0943832] yes=9,no=10,missing=9
			9:[f1841<-0.564713] yes=19,no=20,missing=19
				19:[f1497<0.0269418] yes=39,no=40,missing=39
					39:[f259<-0.785575] yes=73,no=74,missing=73
						73:leaf=-0.00171109
						74:leaf=-0.0451477
					40:[f762<0.218022] yes=75,no=76,missing=75
						75:leaf=0.00947286
						76:leaf=-0.024278
				20:[f802<-0.399223] yes=41,no=42,missing=41
					41:[f1290<-0.0835872] yes=77,no=78,missing=77
						77:leaf=0.0225363
						78:leaf=-0.0100009
					42:[f1596<0.0205734] yes=79,no=80,missing=79
						79:leaf=-0.0254749
						80:leaf=0.0127439
			10:[f1558<-0.0447983] yes=21,no=22,missing=21
				21:[f845<-0.0553249] yes=43,no=44,missing=43
					43:[f1836<-0.611664] yes=81,no=82,missing=81
						81:leaf=-0.01
						82:leaf=0.0281775
					44:[f575<0.503126] yes=83,no=84,missing=83
						83:leaf=-0.0207364
						84:leaf=0.00791842
				22:[f9<-0.411989] yes=45,no=46,missing=45
					45:[f1335<-0.0668466] yes=85,no=86,missing=85
						85:leaf=-0.0115966
						86:leaf=0.0175195
					46:[f1770<-0.354418] yes=87,no=88,missing=87
						87:leaf=0.0122854
						88:leaf=-0.0363781
	2:[f1815<-0.298524] yes=5,no=6,missing=5
		5:[f1840<-0.0760415] yes=11,no=12,missing=11
			11:[f950<-0.163558] yes=23,no=24,missing=23
				23:[f1798<0.0145458] yes=47,no=48,missing=47
					47:[f887<-0.904184] yes=89,no=90,missing=89
						89:leaf=0.00309834
						90:leaf=-0.0351076
					48:[f194<-0.293305] yes=91,no=92,missing=91
						91:leaf=0.0175923
						92:leaf=-0.0174634
				24:[f320<-0.132484] yes=49,no=50,missing=49
					49:[f519<-0.272044] yes=93,no=94,missing=93
						93:leaf=-0.0067144
						94:leaf=0.0258745
					50:[f1756<-0.443012] yes=95,no=96,missing=95
						95:leaf=0.0100994
						96:leaf=-0.0254433
			12:[f840<-0.592103] yes=25,no=26,missing=25
				25:[f802<-0.19048] yes=51,no=52,missing=51
					51:[f482<-0.476884] yes=97,no=98,missing=97
						97:leaf=-0.000730374
						98:leaf=-0.0253337
					52:[f1109<-0.113792] yes=99,no=100,missing=99
						99:leaf=-0.00852617
						100:leaf=0.0156478
				26:[f1598<-0.00639115] yes=53,no=54,missing=53
					53:[f1407<0.0889702] yes=101,no=102,missing=101
						101:leaf=0.0167764
						102:leaf=-0.00788531
					54:[f198<-0.309288] yes=103,no=104,missing=103
						103:leaf=-0.0209402
						104:leaf=0.00631092
		6:[f1840<0.513435] yes=13,no=14,missing=13
			13:[f168<1.20802] yes=27,no=28,missing=27
				27:[f874<1.79405] yes=55,no=56,missing=55
					55:[f12<-0.84466] yes=105,no=106,missing=105
						105:leaf=-0.00600972
						106:leaf=0.0150422
					56:[f470<-0.747418] yes=107,no=108,missing=107
						107:leaf=0.00808948
						108:leaf=-0.0295309
				28:[f1262<-0.0187069] yes=57,no=58,missing=57
					57:[f445<-0.408767] yes=109,no=110,missing=109
						109:leaf=0.00584812
						110:leaf=-0.0343762
					58:[f917<-0.154205] yes=111,no=112,missing=111
						111:leaf=-0.0113629
						112:leaf=0.0164724
			14:[f840<-0.686519] yes=29,no=30,missing=29
				29:[f824<0.75671] yes=59,no=60,missing=59
					59:[f339<-0.519441] yes=113,no=114,missing=113
						113:leaf=-0.0138857
						114:leaf=0.0178864
					60:[f795<0.327304] yes=115,no=116,missing=115
						115:leaf=-0.0282756
						116:leaf=0.00938574
				30:[f852<1.48674] yes=61,no=62,missing=61
					61:[f829<-1.15935] yes=117,no=118,missing=117
						117:leaf=-0.000353762
						118:leaf=0.0273345
					62:[f238<-0.176549] yes=119,no=120,missing=119
						119:leaf=-0.0197225
						120:leaf=0.0128239
booster[8]:
0:[f1840<-0.755542] yes=1,no=2,missing=1
	1:[f992<-0.221869] yes=3,no=4,missing=3
		3:[f945<-0.0666537] yes=7,no=8,missing=7
			7:[f1631<-0.0803918] yes=15,no=16,missing=15
				15:[f1799<0.936754] yes=31,no=32,missing=31
					31:[f627<-0.732833] yes=63,no=64,missing=63
						63:leaf=0.00116068
						64:leaf=-0.05
					32:[f47<-0.549447] yes=65,no=66,missing=65
						65:leaf=0.0146418
						66:leaf=-0.0132717
				16:[f1837<-0.0639649] yes=33,no=34,missing=33
					33:[f273<-0.901311] yes=67,no=68,missing=67
						67:leaf=0.00823848
						68:leaf=-0.0375547
					34:[f646<-0.270892] yes=69,no=70,missing=69
						69:leaf=0.0175658
						70:leaf=-0.0178563
			8:[f980<-0.240456] yes=17,no=18,missing=17
				17:[f543<-0.284934] yes=35,no=36,missing=35
					35:[f224<-0.652871] yes=71,no=72,missing=71
						71:leaf=-0.00744309
						72:leaf=0.0260901
					36:[f981<0.540934] yes=73,no=74,missing=73
						73:leaf=-0.0184659
						74:leaf=0.0104571
				18:[f1677<-0.172047] yes=37,no=38,missing=37
					37:[f1813<-0.344232] yes=75,no=76,missing=75
						75:leaf=-0.0138733
						76:leaf=0.0153071
					38:[f1069<1.22519] yes=77,no=78,missing=77
						77:leaf=-0.0402485
						78:leaf=0.00158133
		4:[f1840<-1.08424] yes=9,no=10,missing=9
			9:[f222<-0.666529] yes=19,no=20,missing=19
				19:[f1574<-0.054164] yes=39,no=40,missing=39
					39:leaf=-0.0115255
					40:leaf=0.0170904
				20:[f379<-0.762818] yes=41,no=42,missing=41
					41:leaf=0.00944936
					42:[f129<0.889984] yes=83,no=84,missing=83
						83:leaf=-0.0464698
						84:leaf=-0.00518342
			10:[f855<-0.571819] yes=21,no=22,missing=21
				21:[f131<-0.467292] yes=43,no=44,missing=43
					43:[f246<0.348721] yes=85,no=86,missing=85
						85:leaf=-0.0233328
						86:leaf=0.00695314
					44:[f1021<-0.1625] yes=87,no=88,missing=87
						87:leaf=0.0300158
						88:leaf=-0.00320843
				22:[f1826<-0.242397] yes=45,no=46,missing=45
					45:[f1355<-0.0971439] yes=89,no=90,missing=89
						89:leaf=0.00120874
						90:leaf=-0.0396386
					46:[f630<-0.292364] yes=91,no=92,missing=91
						91:leaf=-0.0200144
						92:leaf=0.00712921
	2:[f840<-0.606336] yes=5,no=6,missing=5
		5:[f934<-0.163359] yes=11,no=12,missing=11
			11:[f869<0.161401] yes=23,no=24,missing=23
				23:[f3<-0.44592] yes=47,no=48,missing=47
					47:[f840<-0.859099] yes=93,no=94,missing=93
						93:leaf=-0.0253237
						94:leaf=0.0027444
					48:[f1840<-0.332336] yes=95,no=96,missing=95
						95:leaf=-0.0147416
						96:leaf=0.0120188
				24:[f384<0.681439] yes=49,no=50,missing=49
					49:[f592<-0.622748] yes=97,no=98,missing=97
						97:leaf=0.00442611
						98:leaf=-0.0444189
					50:[f511<-0.493643] yes=99,no=100,missing=99
						99:leaf=0.0153079
						100:leaf=-0.0106899
			12:[f1224<0.332859] yes=25,no=26,missing=25
				25:[f851<-0.695482] yes=51,no=52,missing=51
					51:[f653<-0.576884] yes=101,no=102,missing=101
						101:leaf=-0.00569216
						102:leaf=0.023031
					52:[f453<-0.461796] yes=103,no=104,missing=103
						103:leaf=-0.00962098
						104:leaf=0.0113974
				26:[f267<1.39796] yes=53,no=54,missing=53
					53:[f286<-0.493073] yes=105,no=106,missing=105
						105:leaf=0.00344311
						106:leaf=-0.0356878
					54:leaf=0.0127185
		6:[f1367<0.27307] yes=13,no=14,missing=13
			13:[f1840<-0.27467] yes=27,no=28,missing=27
				27:[f874<0.967198] yes=55,no=56,missing=55
					55:[f316<-0.507986] yes=109,no=110,missing=109
						109:leaf=-0.0124548
						110:leaf=0.0135515
					56:[f461<-0.627122] yes=111,no=112,missing=111
						111:leaf=0.00692365
						112:leaf=-0.0291902
				28:[f830<2.14806] yes=57,no=58,missing=57
					57:[f1057<0.0313182] yes=113,no=114,missing=113
						113:leaf=0.017075
						114:leaf=0.0280888
					58:[f585<0.465854] yes=115,no=116,missing=115
						115:leaf=-0.0227526
						116:leaf=0.0116931
			14:[f295<-0.148359] yes=29,no=30,missing=29
				29:[f502<-0.573404] yes=59,no=60,missing=59
					59:[f1384<-0.13865] yes=117,no=118,missing=117
						117:leaf=-0.0104392
						118:leaf=0.014631
					60:[f680<-0.644263] yes=119,no=120,missing=119
						119:leaf=0.00243068
						120:leaf=-0.0439732
				30:[f1840<0.731286] yes=61,no=62,missing=61
					61:[f358<0.343968] yes=121,no=122,missing=121
						121:leaf=-0.0201032
						122:leaf=0.00620619
					62:[f790<0.457477] yes=123,no=124,missing=123
						123:leaf=0.0237905
						124:leaf=-0.00779327
booster[9]:
0:[f1840<-0.749134] yes=1,no=2,missing=1
	1:[f1828<-0.276944] yes=3,no=4,missing=3
		3:[f992<-0.224747] yes=7,no=8,missing=7
			7:[f1763<0.735493] yes=15,no=16,missing=15
				15:[f881<-0.963887] yes=31,no=32,missing=31
					31:leaf=0.00402577
					32:[f1508<0.306615] yes=65,no=66,missing=65
						65:leaf=-0.05
						66:leaf=0.000601942
				16:[f322<-0.674855] yes=33,no=34,missing=33
					33:leaf=0.0160468
					34:[f172<0.591875] yes=69,no=70,missing=69
						69:leaf=-0.0211864
						70:leaf=0.00502312
			8:[f76<-0.544412] yes=17,no=18,missing=17
				17:[f887<-0.63722] yes=35,no=36,missing=35
					35:[f487<-0.754129] yes=71,no=72,missing=71
						71:leaf=0.00534497
						72:leaf=-0.0284571
					36:[f1807<-0.0467254] yes=73,no=74,missing=73
						73:leaf=0.021544
						74:leaf=-0.0129394
				18:[f459<-0.783944] yes=37,no=38,missing=37
					37:[f260<-0.385897] yes=75,no=76,missing=75
						75:leaf=0.0168757
						76:leaf=-0.0083885
					38:[f1808<0.400199] yes=77,no=78,missing=77
						77:leaf=-0.0391992
						78:leaf=-0.000703715
		4:[f1305<-0.268899] yes=9,no=10,missing=9
			9:[f1841<-0.528014] yes=19,no=20,missing=19
				19:[f455<-0.823741] yes=39,no=40,missing=39
					39:leaf=0.00705544
					40:[f617<-0.658281] yes=81,no=82,missing=81
						81:leaf=-0.00333104
						82:leaf=-0.0415001
				20:[f1277<-0.0314453] yes=41,no=42,missing=41
					41:[f321<-0.568474] yes=83,no=84,missing=83
						83:leaf=0.00843773
						84:leaf=-0.0277918
					42:[f219<-0.428491] yes=85,no=86,missing=85
						85:leaf=-0.00509881
						86:leaf=0.0264645
			10:[f1804<-0.142089] yes=21,no=22,missing=21
				21:[f835<-0.559486] yes=43,no=44,missing=43
					43:[f498<-0.651371] yes=87,no=88,missing=87
						87:leaf=0.0088768
						88:leaf=-0.0271466
					44:[f1308<-0.129454] yes=89,no=90,missing=89
						89:leaf=-0.0182333
						90:leaf=0.0215199
				22:[f636<-0.567699] yes=45,no=46,missing=45
					45:[f263<-0.215739] yes=91,no=92,missing=91
						91:leaf=0.0196197
						92:leaf=-0.0109625
					46:[f301<-0.639042] yes=93,no=94,missing=93
						93:leaf=0.00734401
						94:leaf=-0.0297758
	2:[f840<-0.43211] yes=5,no=6,missing=5
		5:[f1815<-0.43026] yes=11,no=12,missing=11
			11:[f21<-0.415688] yes=23,no=24,missing=23
				23:[f672<-0.71105] yes=47,no=48,missing=47
					47:[f404<-0.58035] yes=95,no=96,missing=95
						95:leaf=-0.0089974
						96:leaf=0.0195531
					48:[f151<0.459671] yes=97,no=98,missing=97
						97:leaf=-0.0306136
						98:leaf=0.00786218
				24:[f427<-0.468635] yes=49,no=50,missing=49
					49:[f648<-0.607522] yes=99,no=100,missing=99
						99:leaf=0.00856625
						100:leaf=-0.0284617
					50:[f1838<-0.382246] yes=101,no=102,missing=101
						101:leaf=-0.00529634
						102:leaf=0.021734
			12:[f1840<0.410918] yes=25,no=26,missing=25
				25:[f1569<-0.0819287] yes=51,no=52,missing=51
					51:[f306<-0.633161] yes=103,no=104,missing=103
						103:leaf=-0.0307878
						104:leaf=-0.00386317
					52:[f598<0.0212422] yes=105,no=106,missing=105
						105:leaf=0.0166554
						106:leaf=-0.0107075
				26:[f826<-1.05814] yes=53,no=54,missing=53
					53:[f534<-0.672223] yes=107,no=108,missing=107
						107:leaf=0.00757174
						108:leaf=-0.0272971
					54:[f967<1.1668] yes=109,no=110,missing=109
						109:leaf=0.0157636
						110:leaf=-0.00670288
		6:[f1840<-0.261855] yes=13,no=14,missing=13
			13:[f946<-0.232403] yes=27,no=28,missing=27
				27:[f466<-0.131047] yes=55,no=56,missing=55
					55:[f576<-0.498609] yes=111,no=112,missing=111
						111:leaf=-0.0195077
						112:leaf=0.00862957
					56:[f944<-0.0221644] yes=113,no=114,missing=113
						113:leaf=-0.0404747
						114:leaf=0.00754815
				28:[f970<-0.160453] yes=57,no=58,missing=57
					57:[f368<-0.389393] yes=115,no=116,missing=115
						115:leaf=-0.00683411
						116:leaf=0.0243234
					58:[f1192<-0.0501278] yes=117,no=118,missing=117
						117:leaf=-0.0216843
						118:leaf=0.0118028
			14:[f1748<-0.197693] yes=29,no=30,missing=29
				29:[f903<1.01447] yes=59,no=60,missing=59
					59:[f212<-0.914729] yes=119,no=120,missing=119
						119:leaf=-0.0201053
						120:leaf=0.0144024
					60:[f312<-0.00999096] yes=121,no=122,missing=121
						121:leaf=-0.0210411
						122:leaf=0.0056823
				30:[f1259<1.16643] yes=61,no=62,missing=61
					61:[f604<1.36995] yes=123,no=124,missing=123
						123:leaf=0.0238467
						124:leaf=0.00651088
					62:[f827<-0.642086] yes=125,no=126,missing=125
						125:leaf=0.0076699
						126:leaf=-0.0264878
booster[10]:
0:[f1840<-0.560117] yes=1,no=2,missing=1
	1:[f945<-0.119875] yes=3,no=4,missing=3
		3:[f1590<-0.0444758] yes=7,no=8,missing=7
			7:[f1840<-1.05989] yes=15,no=16,missing=15
				15:[f1800<-0.327375] yes=31,no=32,missing=31
					31:[f461<-0.778376] yes=63,no=64,missing=63
						63:leaf=0.00877834
						64:leaf=-0.05
					32:[f1785<-0.351481] yes=65,no=66,missing=65
						65:leaf=0.0131492
						66:leaf=-0.0255111
				16:[f840<0.421128] yes=33,no=34,missing=33
					33:[f436<-0.632603] yes=67,no=68,missing=67
						67:leaf=-0.00505293
						68:leaf=-0.0306684
					34:[f473<-0.41724] yes=69,no=70,missing=69
						69:leaf=0.0166941
						70:leaf=-0.0118729
			8:[f1765<3.11417] yes=17,no=18,missing=17
				17:[f99<-0.767792] yes=35,no=36,missing=35
					35:[f1002<-0.251078] yes=71,no=72,missing=71
						71:leaf=-0.0124349
						72:leaf=0.0118601
					36:[f12<-0.966662] yes=73,no=74,missing=73
						73:leaf=0.00365055
						74:leaf=-0.05
				18:leaf=0.00479241
		4:[f1101<-0.0715292] yes=9,no=10,missing=9
			9:[f938<-0.200003] yes=19,no=20,missing=19
				19:[f1805<-0.342325] yes=39,no=40,missing=39
					39:[f114<0.475842] yes=75,no=76,missing=75
						75:leaf=-0.0246639
						76:leaf=0.00993824
					40:[f219<-0.623495] yes=77,no=78,missing=77
						77:leaf=-0.0137411
						78:leaf=0.0205862
				20:[f467<-0.596206] yes=41,no=42,missing=41
					41:[f768<-0.179151] yes=79,no=80,missing=79
						79:leaf=0.0138231
						80:leaf=-0.0183599
					42:[f344<0.67984] yes=81,no=82,missing=81
						81:leaf=-0.0380101
						82:leaf=0.0018998
			10:[f853<-0.168346] yes=21,no=22,missing=21
				21:[f150<-0.572769] yes=43,no=44,missing=43
					43:[f920<-0.221906] yes=83,no=84,missing=83
						83:leaf=0.0112444
						84:leaf=-0.0196023
					44:[f1514<-0.0356727] yes=85,no=86,missing=85
						85:leaf=0.0324593
						86:leaf=-0.00256345
				22:[f466<0.645129] yes=45,no=46,missing=45
					45:[f775<-0.449788] yes=87,no=88,missing=87
						87:leaf=0.00768436
						88:leaf=-0.0307782
					46:[f1764<0.376781] yes=89,no=90,missing=89
						89:leaf=-0.0082869
						90:leaf=0.0197766
	2:[f840<-0.387662] yes=5,no=6,missing=5
		5:[f1815<-0.383098] yes=11,no=12,missing=11
			11:[f700<0.841877] yes=23,no=24,missing=23
				23:[f1598<0.0434772] yes=47,no=48,missing=47
					47:[f844<-0.590605] yes=91,no=92,missing=91
						91:leaf=-0.0146101
						92:leaf=0.00361275
					48:[f171<-0.675111] yes=93,no=94,missing=93
						93:leaf=0.00620023
						94:leaf=-0.0347739
				24:[f1788<-0.394517] yes=49,no=50,missing=49
					49:leaf=-0.00661335
					50:[f1606<0.0872723] yes=97,no=98,missing=97
						97:leaf=0.0300072
						98:leaf=-0.00633132
			12:[f1517<-0.0402469] yes=25,no=26,missing=25
				25:[f10<-0.53328] yes=51,no=52,missing=51
					51:[f1295<-0.111446] yes=99,no=100,missing=99
						99:leaf=0.0130915
						100:leaf=-0.0114455
					52:[f853<0.128018] yes=101,no=102,missing=101
						101:leaf=0.0193253
						102:leaf=0.000120141
				26:[f1578<0.00211392] yes=53,no=54,missing=53
					53:[f881<-0.290708] yes=103,no=104,missing=103
						103:leaf=0.000600716
						104:leaf=-0.0341669
					54:[f1760<1.5297] yes=105,no=106,missing=105
						105:leaf=0.0198937
						106:leaf=-0.00632345
		6:[f1739<-0.273383] yes=13,no=14,missing=13
			13:[f903<1.13614] yes=27,no=28,missing=27
				27:[f1420<1.16292] yes=55,no=56,missing=55
					55:[f614<-0.646772] yes=107,no=108,missing=107
						107:leaf=-0.0145431
						108:leaf=0.0144799
					56:[f1016<-0.190345] yes=109,no=110,missing=109
						109:leaf=-0.0291394
						110:leaf=0.00485772
				28:[f1827<-0.00566774] yes=57,no=58,missing=57
					57:[f1057<-0.297054] yes=111,no=112,missing=111
						111:leaf=0.00918705
						112:leaf=-0.0283378
					58:[f1121<-0.178605] yes=113,no=114,missing=113
						113:leaf=-0.00829703
						114:leaf=0.0193122
			14:[f340<2.38405] yes=29,no=30,missing=29
				29:[f319<-0.77371] yes=59,no=60,missing=59
					59:[f1459<-0.126746] yes=115,no=116,missing=115
						115:leaf=0.0126684
						116:leaf=-0.018963
					60:[f139<-0.45765] yes=117,no=118,missing=117
						117:leaf=0.00114162
						118:leaf=0.023552
				30:[f1330<-0.0243288] yes=61,no=62,missing=61
					61:[f610<1.3321] yes=119,no=120,missing=119
						119:leaf=0.00861185
						120:leaf=-0.0256331
					62:[f677<0.381011] yes=121,no=122,missing=121
						121:leaf=-0.00657731
						122:leaf=0.0202547
booster[11]:
0:[f1840<-0.587028] yes=1,no=2,missing=1
	1:[f934<-0.173134] yes=3,no=4,missing=3
		3:[f946<-0.204454] yes=7,no=8,missing=7
			7:[f1804<0.18704] yes=15,no=16,missing=15
				15:[f1763<0.146234] yes=31,no=32,missing=31
					31:[f920<-0.143934] yes=63,no=64,missing=63
						63:leaf=-0.0492741
						64:leaf=0.00581619
					32:[f904<-0.650114] yes=65,no=66,missing=65
						65:leaf=0.014776
						66:leaf=-0.0196326
				16:[f259<-0.78056] yes=33,no=34,missing=33
					33:[f1614<-0.285914] yes=67,no=68,missing=67
						67:leaf=-0.00977196
						68:leaf=0.0268062
					34:[f1839<-0.409171] yes=69,no=70,missing=69
						69:leaf=-0.0305266
						70:leaf=-0.00141792
			8:[f702<-0.399816] yes=17,no=18,missing=17
				17:[f1829<-0.354553] yes=35,no=36,missing=35
					35:[f638<-0.685698] yes=71,no=72,missing=71
						71:leaf=0.00669687
						72:leaf=-0.0252323
					36:[f181<-0.510255] yes=73,no=74,missing=73
						73:leaf=-0.00969457
						74:leaf=0.0271637
				18:[f1772<-0.037146] yes=37,no=38,missing=37
					37:[f855<-0.62414] yes=75,no=76,missing=75
						75:leaf=0.00191451
						76:leaf=-0.0377931
					38:[f693<0.00913844] yes=77,no=78,missing=77
						77:leaf=-0.0141117
						78:leaf=0.0202218
		4:[f1841<-0.693793] yes=9,no=10,missing=9
			9:[f888<-0.38548] yes=19,no=20,missing=19
				19:[f1290<-0.0877774] yes=39,no=40,missing=39
					39:[f178<-0.627023] yes=79,no=80,missing=79
						79:leaf=-0.00950288
						80:leaf=0.0246384
					40:[f1129<-0.0702916] yes=81,no=82,missing=81
						81:leaf=-0.026677
						82:leaf=0.00995541
				20:[f404<-0.714664] yes=41,no=42,missing=41
					41:[f341<-0.0515221] yes=83,no=84,missing=83
						83:leaf=-0.0108611
						84:leaf=0.0136232
					42:[f99<-0.7541] yes=85,no=86,missing=85
						85:leaf=0.00704526
						86:leaf=-0.0398563
			10:[f999<-0.0741903] yes=21,no=22,missing=21
				21:[f731<-0.318972] yes=43,no=44,missing=43
					43:[f1797<-0.249844] yes=87,no=88,missing=87
						87:leaf=0.0097217
						88:leaf=-0.0206798
					44:[f1453<-0.131982] yes=89,no=90,missing=89
						89:leaf=0.0233139
						90:leaf=-0.00917844
				22:[f633<-0.542881] yes=45,no=46,missing=45
					45:[f1175<-0.12527] yes=91,no=92,missing=91
						91:leaf=-0.0114901
						92:leaf=0.0158763
					46:[f689<-0.56211] yes=93,no=94,missing=93
						93:leaf=0.00581007
						94:leaf=-0.0297842
	2:[f1840<0.468584] yes=5,no=6,missing=5
		5:[f840<-0.450209] yes=11,no=12,missing=11
			11:[f1820<-0.378314] yes=23,no=24,missing=23
				23:[f191<-0.629132] yes=47,no=48,missing=47
					47:[f151<-0.675894] yes=95,no=96,missing=95
						95:leaf=0.0168142
						96:leaf=-0.0124743
					48:[f361<1.22796] yes=97,no=98,missing=97
						97:leaf=-0.0353279
						98:leaf=0.00873544
				24:[f342<0.758732] yes=49,no=50,missing=49
					49:[f585<-0.411948] yes=99,no=100,missing=99
						99:leaf=0.00742962
						100:leaf=-0.0144787
					50:[f1110<-0.163648] yes=101,no=102,missing=101
						101:leaf=-0.00883336
						102:leaf=0.0249595
			12:[f867<0.682594] yes=25,no=26,missing=25
				25:[f593<-0.655531] yes=51,no=52,missing=51
					51:[f787<-0.406313] yes=103,no=104,missing=103
						103:leaf=0.0141956
						104:leaf=-0.0147914
					52:[f627<1.53964] yes=105,no=106,missing=105
						105:leaf=0.0160889
						106:leaf=-0.0134898
				26:[f564<-0.172076] yes=53,no=54,missing=53
					53:[f770<0.206886] yes=107,no=108,missing=107
						107:leaf=-0.0339935
						108:leaf=0.0104927
					54:[f1276<-0.098447] yes=109,no=110,missing=109
						109:leaf=0.0159742
						110:leaf=-0.0164872
		6:[f1736<-0.432693] yes=13,no=14,missing=13
			13:[f1747<-0.455345] yes=27,no=28,missing=27
				27:[f466<-0.381723] yes=55,no=56,missing=55
					55:[f411<-0.725467] yes=111,no=112,missing=111
						111:leaf=0.00775476
						112:leaf=-0.0305156
					56:[f803<-0.319805] yes=113,no=114,missing=113
						113:leaf=0.0171489
						114:leaf=-0.00993161
				28:[f447<-0.554891] yes=57,no=58,missing=57
					57:[f1005<-0.222746] yes=115,no=116,missing=115
						115:leaf=0.00801062
						116:leaf=-0.027381
					58:[f1618<0.284939] yes=117,no=118,missing=117
						117:leaf=0.0219019
						118:leaf=-0.0137674
			14:[f967<1.44505] yes=29,no=30,missing=29
				29:[f695<-0.606793] yes=59,no=60,missing=59
					59:[f671<-0.600572] yes=119,no=120,missing=119
						119:leaf=-0.00646279
						120:leaf=0.0146032
					60:[f945<-0.161507] yes=121,no=122,missing=121
						121:leaf=0.0122813
						122:leaf=0.0235574
				30:[f854<-0.427271] yes=61,no=62,missing=61
					61:[f843<-0.568463] yes=123,no=124,missing=123
						123:leaf=-0.0115537
						124:leaf=0.0185413
					62:[f635<-0.499276] yes=125,no=126,missing=125
						125:leaf=0.00830567
						126:leaf=-0.0260938
booster[12]:
0:[f1840<-0.82346] yes=1,no=2,missing=1
	1:[f946<-0.217638] yes=3,no=4,missing=3
		3:[f992<-0.197515] yes=7,no=8,missing=7
			7:[f1645<-0.0509722] yes=15,no=16,missing=15
				15:[f934<-0.0568159] yes=31,no=32,missing=31
					31:[f1574<0.178981] yes=63,no=64,missing=63
						63:leaf=-0.05
						64:leaf=-0.00063426
					32:[f1393<-0.0736256] yes=65,no=66,missing=65
						65:leaf=0.0137688
						66:leaf=-0.0194095
				16:[f392<-0.409596] yes=33,no=34,missing=33
					33:[f121<-0.236956] yes=67,no=68,missing=67
						67:leaf=-0.00588995
						68:leaf=0.0215351
					34:[f696<-0.683784] yes=69,no=70,missing=69
						69:leaf=0.00801149
						70:leaf=-0.0255907
			8:[f20<0.541538] yes=17,no=18,missing=17
				17:[f1331<0.00617692] yes=35,no=36,missing=35
					35:[f853<-0.790671] yes=71,no=72,missing=71
						71:leaf=0.0031357
						72:leaf=-0.0347229
					36:[f797<-0.298459] yes=73,no=74,missing=73
						73:leaf=0.0191651
						74:leaf=-0.00855213
				18:[f1759<-0.507067] yes=37,no=38,missing=37
					37:[f1519<-0.143234] yes=75,no=76,missing=75
						75:leaf=-0.00517842
						76:leaf=0.0244158
					38:leaf=-0.010764
		4:[f1801<-0.130372] yes=9,no=10,missing=9
			9:[f638<-0.525078] yes=19,no=20,missing=19
				19:[f280<-0.174466] yes=39,no=40,missing=39
					39:[f251<-0.482227] yes=77,no=78,missing=77
						77:leaf=0.0103337
						78:leaf=-0.0249002
					40:[f1386<-0.0542503] yes=79,no=80,missing=79
						79:leaf=0.025373
						80:leaf=-0.00938703
				20:[f353<-0.584317] yes=41,no=42,missing=41
					41:[f1345<-0.0337731] yes=81,no=82,missing=81
						81:leaf=-0.0137206
						82:leaf=0.0217567
					42:[f208<-0.801765] yes=83,no=84,missing=83
						83:leaf=0.00538599
						84:leaf=-0.0391965
			10:[f1050<-0.0695538] yes=21,no=22,missing=21
				21:[f554<-0.399566] yes=43,no=44,missing=43
					43:[f1220<0.0128104] yes=85,no=86,missing=85
						85:leaf=-0.0215478
						86:leaf=0.00769608
					44:[f1758<-0.293656] yes=87,no=88,missing=87
						87:leaf=-0.0108523
						88:leaf=0.0284754
				22:[f875<-0.552927] yes=45,no=46,missing=45
					45:[f1746<1.03798] yes=89,no=90,missing=89
						89:leaf=-0.0111323
						90:leaf=0.0187656
					46:[f1465<0.224758] yes=91,no=92,missing=91
						91:leaf=-0.0344829
						92:leaf=0.00768998
	2:[f1840<-0.24904] yes=5,no=6,missing=5
		5:[f934<-0.234355] yes=11,no=12,missing=11
			11:[f1827<-0.155027] yes=23,no=24,missing=23
				23:[f876<-0.881573] yes=47,no=48,missing=47
					47:[f126<-0.595848] yes=93,no=94,missing=93
						93:leaf=-0.0148575
						94:leaf=0.0170012
					48:[f943<-0.206925] yes=95,no=96,missing=95
						95:leaf=-0.0415326
						96:leaf=0.000643968
				24:[f1032<-0.226048] yes=49,no=50,missing=49
					49:[f352<0.34288] yes=97,no=98,missing=97
						97:leaf=0.0221397
						98:leaf=-0.0118953
					50:[f1099<-0.0533067] yes=99,no=100,missing=99
						99:leaf=-0.0306621
						100:leaf=0.00720894
			12:[f997<-0.212739] yes=25,no=26,missing=25
				25:[f499<-0.449864] yes=51,no=52,missing=51
					51:[f965<-0.240789] yes=101,no=102,missing=101
						101:leaf=0.00821323
						102:leaf=-0.0221296
					52:[f1558<-0.0396664] yes=103,no=104,missing=103
						103:leaf=0.0274564
						104:leaf=-0.000386678
				26:[f928<-0.163222] yes=53,no=54,missing=53
					53:[f90<0.709513] yes=105,no=106,missing=105
						105:leaf=-0.0344705
						106:leaf=0.00279485
					54:[f189<-0.469787] yes=107,no=108,missing=107
						107:leaf=0.0145218
						108:leaf=-0.00918605
		6:[f1739<-0.391305] yes=13,no=14,missing=13
			13:[f1572<0.0289103] yes=27,no=28,missing=27
				27:[f370<-0.747544] yes=55,no=56,missing=55
					55:[f485<-0.22599] yes=109,no=110,missing=109
						109:leaf=-0.0263849
						110:leaf=0.00745805
					56:[f1799<-0.516143] yes=111,no=112,missing=111
						111:leaf=-0.0137608
						112:leaf=0.011894
				28:[f525<-0.484914] yes=57,no=58,missing=57
					57:[f635<-0.243757] yes=113,no=114,missing=113
						113:leaf=0.0135718
						114:leaf=-0.0193113
					58:[f21<1.02253] yes=115,no=116,missing=115
						115:leaf=-0.0250158
						116:leaf=0.00735403
			14:[f940<0.283918] yes=29,no=30,missing=29
				29:[f1148<-0.144873] yes=59,no=60,missing=59
					59:[f792<-0.465933] yes=117,no=118,missing=117
						117:leaf=-0.00931052
						118:leaf=0.0129596
					60:[f753<-0.696915] yes=119,no=120,missing=119
						119:leaf=-0.00919399
						120:leaf=0.021551
				30:[f298<-0.114013] yes=61,no=62,missing=61
					61:[f680<-0.47556] yes=121,no=122,missing=121
						121:leaf=0.0100455
						122:leaf=-0.0185624
					62:[f955<-0.15694] yes=123,no=124,missing=123
						123:leaf=-0.0171583
						124:leaf=0.0165479
booster[13]:
0:[f1840<-0.800393] yes=1,no=2,missing=1
	1:[f934<-0.173266] yes=3,no=4,missing=3
		3:[f992<-0.200949] yes=7,no=8,missing=7
			7:[f945<-0.060471] yes=15,no=16,missing=15
				15:[f1615<0.615837] yes=31,no=32,missing=31
					31:[f343<-0.78234] yes=63,no=64,missing=63
						63:leaf=-0.00969547
						64:leaf=-0.05
					32:[f358<0.124228] yes=65,no=66,missing=65
						65:leaf=-0.021752
						66:leaf=0.0108631
				16:[f1264<-0.102669] yes=33,no=34,missing=33
					33:[f223<-0.203931] yes=67,no=68,missing=67
						67:leaf=0.0219335
						68:leaf=-0.00930062
					34:[f7<0.28907] yes=69,no=70,missing=69
						69:leaf=-0.0285827
						70:leaf=0.0050285
			8:[f1519<-0.115451] yes=17,no=18,missing=17
				17:[f502<-0.585993] yes=35,no=36,missing=35
					35:[f1419<-0.0254223] yes=71,no=72,missing=71
						71:leaf=-0.0131899
						72:leaf=0.0197233
					36:[f1331<-5.16267e-05] yes=73,no=74,missing=73
						73:leaf=-0.0417511
						74:leaf=0.00715749
				18:[f476<-0.36815] yes=37,no=38,missing=37
					37:[f559<-0.704948] yes=75,no=76,missing=75
						75:leaf=0.00773944
						76:leaf=-0.023934
					38:[f829<-0.765181] yes=77,no=78,missing=77
						77:leaf=-0.0148726
						78:leaf=0.019326
		4:[f1840<-1.14078] yes=9,no=10,missing=9
			9:[f529<1.44573] yes=19,no=20,missing=19
				19:[f686<-0.613963] yes=39,no=40,missing=39
					39:[f1580<-0.0669133] yes=79,no=80,missing=79
						79:leaf=-0.00829006
						80:leaf=0.0133535
					40:[f150<-0.841321] yes=81,no=82,missing=81
						81:leaf=0.00570027
						82:leaf=-0.0497331
				20:[f3<1.25157] yes=41,no=42,missing=41
					41:leaf=-0.00891992
					42:leaf=0.0160423
			10:[f15<0.432014] yes=21,no=22,missing=21
				21:[f1068<-0.0746378] yes=43,no=44,missing=43
					43:[f1232<-0.0515712] yes=85,no=86,missing=85
						85:leaf=0.0265855
						86:leaf=-0.00386571
					44:[f469<0.645488] yes=87,no=88,missing=87
						87:leaf=-0.0272263
						88:leaf=0.0121803
				22:[f1237<-0.0146947] yes=45,no=46,missing=45
					45:[f622<-0.604867] yes=89,no=90,missing=89
						89:leaf=0.00871594
						90:leaf=-0.0312924
					46:[f887<-0.134372] yes=91,no=92,missing=91
						91:leaf=0.0178351
						92:leaf=-0.0121002
	2:[f840<-0.862388] yes=5,no=6,missing=5
		5:[f233<-0.487723] yes=11,no=12,missing=11
			11:[f594<-0.632653] yes=23,no=24,missing=23
				23:[f634<-0.395027] yes=47,no=48,missing=47
					47:[f30<-0.719538] yes=93,no=94,missing=93
						93:leaf=0.00568809
						94:leaf=-0.0206027
					48:[f46<-0.487765] yes=95,no=96,missing=95
						95:leaf=0.0229175
						96:leaf=-0.0064056
				24:[f725<-0.794503] yes=49,no=50,missing=49
					49:[f365<-0.478085] yes=97,no=98,missing=97
						97:leaf=-0.00971915
						98:leaf=0.0161801
					50:[f887<-1.02912] yes=99,no=100,missing=99
						99:leaf=0.00994683
						100:leaf=-0.0348071
			12:[f1420<0.259733] yes=25,no=26,missing=25
				25:[f7<-0.702975] yes=51,no=52,missing=51
					51:[f460<-0.655059] yes=101,no=102,missing=101
						101:leaf=0.00958399
						102:leaf=-0.0201996
					52:[f741<-0.324439] yes=103,no=104,missing=103
						103:leaf=0.0159922
						104:leaf=-0.00201182
				26:[f1472<-0.0492333] yes=53,no=54,missing=53
					53:[f615<-0.662933] yes=105,no=106,missing=105
						105:leaf=0.00438067
						106:leaf=-0.0363677
					54:[f312<-0.231376] yes=107,no=108,missing=107
						107:leaf=0.0130947
						108:leaf=-0.0109814
		6:[f1736<-0.402548] yes=13,no=14,missing=13
			13:[f878<0.83888] yes=27,no=28,missing=27
				27:[f245<-0.336543] yes=55,no=56,missing=55
					55:[f153<-0.54347] yes=109,no=110,missing=109
						109:leaf=0.00506816
						110:leaf=-0.015562
					56:[f232<0.0585761] yes=111,no=112,missing=111
						111:leaf=0.0202313
						112:leaf=-0.00727525
				28:[f1491<-0.00276011] yes=57,no=58,missing=57
					57:[f321<-0.684459] yes=113,no=114,missing=113
						113:leaf=0.0104067
						114:leaf=-0.0352593
					58:[f297<-0.218443] yes=115,no=116,missing=115
						115:leaf=-0.0128461
						116:leaf=0.0142427
			14:[f1840<0.545472] yes=29,no=30,missing=29
				29:[f911<-0.390391] yes=59,no=60,missing=59
					59:[f256<-0.779675] yes=117,no=118,missing=117
						117:leaf=-0.0182062
						118:leaf=0.0165017
					60:[f718<-0.374468] yes=119,no=120,missing=119
						119:leaf=-0.0126199
						120:leaf=0.007057
				30:[f446<-0.821627] yes=61,no=62,missing=61
					61:[f203<-0.539213] yes=121,no=122,missing=121
						121:leaf=0.0131329
						122:leaf=-0.013613
					62:[f660<-0.531047] yes=123,no=124,missing=123
						123:leaf=-0.00993514
						124:leaf=0.0189271
booster[14]:
0:[f1840<-0.820256] yes=1,no=2,missing=1
	1:[f946<-0.209841] yes=3,no=4,missing=3
		3:[f992<-0.197611] yes=7,no=8,missing=7
			7:[f934<-0.16983] yes=15,no=16,missing=15
				15:[f673<-0.782589] yes=31,no=32,missing=31
					31:[f572<-0.0660513] yes=63,no=64,missing=63
						63:leaf=-0.0260105
						64:leaf=0.0161397
					32:[f1473<-0.026236] yes=65,no=66,missing=65
						65:leaf=-0.0494768
						66:leaf=0.00368332
				16:[f1840<-1.05989] yes=33,no=34,missing=33
					33:[f511<-0.714576] yes=67,no=68,missing=67
						67:leaf=0.00743851
						68:leaf=-0.0340188
					34:[f292<-0.51851] yes=69,no=70,missing=69
						69:leaf=0.0223846
						70:leaf=-0.0116613
			8:[f1549<-0.113048] yes=17,no=18,missing=17
				17:[f916<-0.80836] yes=35,no=36,missing=35
					35:[f647<-0.191931] yes=71,no=72,missing=71
						71:leaf=-0.0101598
						72:leaf=0.0180824
					36:[f808<0.511656] yes=73,no=74,missing=73
						73:leaf=-0.0367303
						74:leaf=0.00625692
				18:[f200<-0.0747775] yes=37,no=38,missing=37
					37:[f1274<-0.120048] yes=75,no=76,missing=75
						75:leaf=0.0249702
						76:leaf=-0.00938776
					38:[f410<1.66069] yes=77,no=78,missing=77
						77:leaf=-0.0226957
						78:leaf=0.00888322
		4:[f73<-0.559584] yes=9,no=10,missing=9
			9:[f1741<-0.131432] yes=19,no=20,missing=19
				19:[f400<-0.442829] yes=39,no=40,missing=39
					39:[f1369<-0.189823] yes=79,no=80,missing=79
						79:leaf=0.0175803
						80:leaf=-0.0104872
					40:[f781<-0.450896] yes=81,no=82,missing=81
						81:leaf=0.00368226
						82:leaf=-0.0274416
				20:[f622<0.112775] yes=41,no=42,missing=41
					41:[f587<-0.273989] yes=83,no=84,missing=83
						83:leaf=0.0404093
						84:leaf=-0.00341922
					42:leaf=-0.00662233
			10:[f1101<0.188598] yes=21,no=22,missing=21
				21:[f495<-0.650605] yes=43,no=44,missing=43
					43:[f548<-0.296857] yes=87,no=88,missing=87
						87:leaf=-0.0102307
						88:leaf=0.0208012
					44:[f167<-0.42259] yes=89,no=90,missing=89
						89:leaf=0.00504477
						90:leaf=-0.029436
				22:[f1828<-0.291314] yes=45,no=46,missing=45
					45:[f1359<-0.169257] yes=91,no=92,missing=91
						91:leaf=0.00523821
						92:leaf=-0.0200435
					46:[f1363<-0.0822361] yes=93,no=94,missing=93
						93:leaf=-0.00905004
						94:leaf=0.0260286
	2:[f1840<-0.24904] yes=5,no=6,missing=5
		5:[f1786<-0.400022] yes=11,no=12,missing=11
			11:[f237<-0.740849] yes=23,no=24,missing=23
				23:[f507<-0.450103] yes=47,no=48,missing=47
					47:leaf=-0.0131223
					48:[f193<-0.18978] yes=97,no=98,missing=97
						97:leaf=0.0233985
						98:leaf=-0.00656549
				24:[f1770<0.179249] yes=49,no=50,missing=49
					49:[f1454<0.0046364] yes=99,no=100,missing=99
						99:leaf=-0.0423982
						100:leaf=0.0051142
					50:[f1497<-0.179103] yes=101,no=102,missing=101
						101:leaf=0.0168072
						102:leaf=-0.0120352
			12:[f1205<-0.0644075] yes=25,no=26,missing=25
				25:[f1761<-0.0146141] yes=51,no=52,missing=51
					51:[f887<-0.763517] yes=103,no=104,missing=103
						103:leaf=0.0131909
						104:leaf=-0.00744595
					52:[f501<-0.456291] yes=105,no=106,missing=105
						105:leaf=-0.0155473
						106:leaf=0.0218489
				26:[f908<1.3676] yes=53,no=54,missing=53
					53:[f676<-0.735989] yes=107,no=108,missing=107
						107:leaf=0.011489
						108:leaf=-0.0335896
					54:[f885<1.64804] yes=109,no=110,missing=109
						109:leaf=0.0177218
						110:leaf=-0.0090944
		6:[f1739<-0.394106] yes=13,no=14,missing=13
			13:[f874<1.49471] yes=27,no=28,missing=27
				27:[f21<-0.352901] yes=55,no=56,missing=55
					55:[f671<-0.761192] yes=111,no=112,missing=111
						111:leaf=-0.0198119
						112:leaf=0.000948824
					56:[f172<-0.686431] yes=113,no=114,missing=113
						113:leaf=-0.00503631
						114:leaf=0.0132799
				28:[f1737<-0.472481] yes=57,no=58,missing=57
					57:[f528<-0.668501] yes=115,no=116,missing=115
						115:leaf=0.0018784
						116:leaf=-0.043548
					58:[f361<0.481811] yes=117,no=118,missing=117
						117:leaf=-0.0152649
						118:leaf=0.012908
			14:[f840<-0.707089] yes=29,no=30,missing=29
				29:[f149<-0.422072] yes=59,no=60,missing=59
					59:[f626<-0.404723] yes=119,no=120,missing=119
						119:leaf=-0.0295556
						120:leaf=0.0017432
					60:[f1806<0.605471] yes=121,no=122,missing=121
						121:leaf=0.0118783
						122:leaf=-0.0132563
				30:[f852<1.15135] yes=61,no=62,missing=61
					61:[f767<-0.49367] yes=123,no=124,missing=123
						123:leaf=-0.0190474
						124:leaf=0.0170515
					62:[f587<-0.0031672] yes=125,no=126,missing=125
						125:leaf=-0.0119158
						126:leaf=0.0101644
booster[15]:
0:[f1840<-0.804879] yes=1,no=2,missing=1
	1:[f948<-0.141708] yes=3,no=4,missing=3
		3:[f834<0.514522] yes=7,no=8,missing=7
			7:[f786<-0.469151] yes=15,no=16,missing=15
				15:[f1038<-0.273578] yes=31,no=32,missing=31
					31:leaf=-0.0130475
					32:leaf=0.0201049
				16:[f1478<-0.0138655] yes=33,no=34,missing=33
					33:[f881<-0.967742] yes=65,no=66,missing=65
						65:leaf=0.00926484
						66:leaf=-0.0441652
					34:[f351<-0.354364] yes=67,no=68,missing=67
						67:leaf=0.0140564
						68:leaf=-0.0209836
			8:[f676<-0.529044] yes=17,no=18,missing=17
				17:[f725<-0.61103] yes=35,no=36,missing=35
					35:[f80<-0.40476] yes=69,no=70,missing=69
						69:leaf=-0.00894492
						70:leaf=0.0306118
					36:[f1188<-0.0709555] yes=71,no=72,missing=71
						71:leaf=-0.0236858
						72:leaf=0.0151153
				18:[f202<-0.565595] yes=37,no=38,missing=37
					37:[f321<0.185768] yes=73,no=74,missing=73
						73:leaf=-0.0135783
						74:leaf=0.0188761
					38:[f1331<0.113044] yes=75,no=76,missing=75
						75:leaf=-0.0422513
						76:leaf=0.00761786
		4:[f891<-0.254195] yes=9,no=10,missing=9
			9:[f753<-0.371121] yes=19,no=20,missing=19
				19:[f999<-0.161887] yes=39,no=40,missing=39
					39:[f13<-0.558975] yes=77,no=78,missing=77
						77:leaf=-0.0100568
						78:leaf=0.0160166
					40:[f881<-0.870901] yes=79,no=80,missing=79
						79:leaf=0.00397466
						80:leaf=-0.0293776
				20:[f1487<-0.118278] yes=41,no=42,missing=41
					41:[f834<1.20164] yes=81,no=82,missing=81
						81:leaf=-0.0187194
						82:leaf=0.00773153
					42:[f1284<-0.0771454] yes=83,no=84,missing=83
						83:leaf=0.0304481
						84:leaf=-0.00768055
			10:[f54<0.0845095] yes=21,no=22,missing=21
				21:[f472<0.402148] yes=43,no=44,missing=43
					43:[f1782<-0.497098] yes=85,no=86,missing=85
						85:leaf=0.00509789
						86:leaf=-0.0463836
					44:[f1827<0.0813747] yes=87,no=88,missing=87
						87:leaf=-0.0129719
						88:leaf=0.0121344
				22:[f739<0.27196] yes=45,no=46,missing=45
					45:[f220<0.727034] yes=89,no=90,missing=89
						89:leaf=0.0178522
						90:leaf=-0.0167566
					46:[f1825<4.32164] yes=91,no=92,missing=91
						91:leaf=-0.0299548
						92:leaf=0.0085416
	2:[f1840<0.712064] yes=5,no=6,missing=5
		5:[f1763<-0.33497] yes=11,no=12,missing=11
			11:[f21<-0.468671] yes=23,no=24,missing=23
				23:[f840<-0.200539] yes=47,no=48,missing=47
					47:[f945<-0.202395] yes=93,no=94,missing=93
						93:leaf=-0.0347643
						94:leaf=-0.00853183
					48:[f1830<-0.296894] yes=95,no=96,missing=95
						95:leaf=-0.0130037
						96:leaf=0.0113541
				24:[f1153<-0.246574] yes=49,no=50,missing=49
					49:[f154<0.122174] yes=97,no=98,missing=97
						97:leaf=0.0123435
						98:leaf=-0.00997417
					50:[f257<0.140517] yes=99,no=100,missing=99
						99:leaf=-0.0198469
						100:leaf=0.00343807
			12:[f712<-0.495108] yes=25,no=26,missing=25
				25:[f1194<-0.090006] yes=51,no=52,missing=51
					51:[f57<-0.535957] yes=101,no=102,missing=101
						101:leaf=-0.0133074
						102:leaf=0.0119622
					52:[f1312<0.092689] yes=103,no=104,missing=103
						103:leaf=-0.026363
						104:leaf=0.00892496
				26:[f856<0.952956] yes=53,no=54,missing=53
					53:[f997<-0.193809] yes=105,no=106,missing=105
						105:leaf=0.019142
						106:leaf=0.00802668
					54:[f1744<-0.204929] yes=107,no=108,missing=107
						107:leaf=0.0122777
						108:leaf=-0.0168968
		6:[f447<-0.40863] yes=13,no=14,missing=13
			13:[f1669<0.0973688] yes=27,no=28,missing=27
				27:[f984<-0.277409] yes=55,no=56,missing=55
					55:[f717<-0.558841] yes=109,no=110,missing=109
						109:leaf=0.0116789
						110:leaf=-0.0163081
					56:[f279<-0.665662] yes=111,no=112,missing=111
						111:leaf=-0.00999154
						112:leaf=0.015369
				28:[f830<-1.0921] yes=57,no=58,missing=57
					57:leaf=0.00889541
					58:[f1839<2.43567] yes=115,no=116,missing=115
						115:leaf=-0.0372948
						116:leaf=0.00463677
			14:[f619<-0.680846] yes=29,no=30,missing=29
				29:[f778<-0.392827] yes=59,no=60,missing=59
					59:[f463<0.0116565] yes=117,no=118,missing=117
						117:leaf=-0.0317949
						118:leaf=0.00497265
					60:[f1242<-0.151446] yes=119,no=120,missing=119
						119:leaf=-0.0173573
						120:leaf=0.0159944
				30:[f1776<-0.754892] yes=61,no=62,missing=61
					61:[f670<-0.685965] yes=121,no=122,missing=121
						121:leaf=0.0137008
						122:leaf=-0.0158365
					62:[f485<1.64617] yes=123,no=124,missing=123
						123:leaf=0.021007
						124:leaf=-0.00172526
booster[16]:
0:[f1840<-0.82346] yes=1,no=2,missing=1
	1:[f1799<-0.432512] yes=3,no=4,missing=3
		3:[f1448<-0.097625] yes=7,no=8,missing=7
			7:[f82<-0.851749] yes=15,no=16,missing=15
				15:[f335<-0.289529] yes=31,no=32,missing=31
					31:leaf=-0.013638
					32:[f1355<-0.0991892] yes=63,no=64,missing=63
						63:leaf=0.022155
						64:leaf=-0.00421614
				16:[f1570<0.177922] yes=33,no=34,missing=33
					33:[f201<-0.872845] yes=65,no=66,missing=65
						65:leaf=0.00288715
						66:leaf=-0.0479012
					34:[f529<-0.425488] yes=67,no=68,missing=67
						67:leaf=0.00910911
						68:leaf=-0.0226481
			8:[f27<-0.477394] yes=17,no=18,missing=17
				17:[f584<-0.23149] yes=35,no=36,missing=35
					35:[f664<-0.510542] yes=69,no=70,missing=69
						69:leaf=-0.00922271
						70:leaf=0.0275544
					36:[f876<-0.907264] yes=71,no=72,missing=71
						71:leaf=0.00609043
						72:leaf=-0.0195796
				18:[f1317<0.213486] yes=37,no=38,missing=37
					37:[f507<-0.665315] yes=73,no=74,missing=73
						73:leaf=0.00496785
						74:leaf=-0.0373864
					38:[f379<-0.0945695] yes=75,no=76,missing=75
						75:leaf=0.0163163
						76:leaf=-0.00859342
		4:[f945<-0.178832] yes=9,no=10,missing=9
			9:[f1453<-0.193201] yes=19,no=20,missing=19
				19:[f73<-0.653003] yes=39,no=40,missing=39
					39:[f1289<-0.149407] yes=77,no=78,missing=77
						77:leaf=0.0173527
						78:leaf=-0.0175863
					40:[f903<-0.70948] yes=79,no=80,missing=79
						79:leaf=-0.00178593
						80:leaf=-0.0460903
				20:[f441<-0.374919] yes=41,no=42,missing=41
					41:[f199<-0.255878] yes=81,no=82,missing=81
						81:leaf=0.022118
						82:leaf=-0.00849936
					42:[f658<-0.676926] yes=83,no=84,missing=83
						83:leaf=0.00910221
						84:leaf=-0.0285852
			10:[f1412<-0.0769098] yes=21,no=22,missing=21
				21:[f484<-0.328527] yes=43,no=44,missing=43
					43:[f1774<0.333903] yes=85,no=86,missing=85
						85:leaf=-0.0233708
						86:leaf=0.0119288
					44:[f909<1.01798] yes=87,no=88,missing=87
						87:leaf=0.0218189
						88:leaf=-0.0105034
				22:[f750<0.912467] yes=45,no=46,missing=45
					45:[f129<-0.792355] yes=89,no=90,missing=89
						89:leaf=0.00758404
						90:leaf=-0.0348604
					46:[f1654<0.0717341] yes=91,no=92,missing=91
						91:leaf=0.018774
						92:leaf=-0.0151809
	2:[f840<-0.454743] yes=5,no=6,missing=5
		5:[f1821<-0.315332] yes=11,no=12,missing=11
			11:[f1840<0.0136615] yes=23,no=24,missing=23
				23:[f1793<-0.18965] yes=47,no=48,missing=47
					47:[f660<-0.507741] yes=93,no=94,missing=93
						93:leaf=0.0034726
						94:leaf=-0.0364155
					48:[f154<-0.145346] yes=95,no=96,missing=95
						95:leaf=0.0140434
						96:leaf=-0.0182419
				24:[f911<-0.370528] yes=49,no=50,missing=49
					49:[f1736<-0.422393] yes=97,no=98,missing=97
						97:leaf=-0.00759526
						98:leaf=0.0147607
					50:[f1365<-0.108487] yes=99,no=100,missing=99
						99:leaf=-0.0255321
						100:leaf=-0.000574469
			12:[f879<-0.199272] yes=25,no=26,missing=25
				25:[f566<-0.690671] yes=51,no=52,missing=51
					51:[f1288<-0.0808679] yes=101,no=102,missing=101
						101:leaf=-0.020937
						102:leaf=0.0101805
					52:[f1385<-0.0545247] yes=103,no=104,missing=103
						103:leaf=0.0207091
						104:leaf=-0.00289093
				26:[f1776<1.11005] yes=53,no=54,missing=53
					53:[f255<-0.321909] yes=105,no=106,missing=105
						105:leaf=-0.024506
						106:leaf=-0.00135349
					54:[f629<-0.601136] yes=107,no=108,missing=107
						107:leaf=-0.0159454
						108:leaf=0.0163253
		6:[f1465<0.206385] yes=13,no=14,missing=13
			13:[f1353<0.0779926] yes=27,no=28,missing=27
				27:[f830<2.14958] yes=55,no=56,missing=55
					55:[f254<-0.893027] yes=109,no=110,missing=109
						109:leaf=-0.00646065
						110:leaf=0.0150222
					56:[f586<0.649375] yes=111,no=112,missing=111
						111:leaf=-0.0284589
						112:leaf=0.00533078
				28:[f48<-0.911549] yes=57,no=58,missing=57
					57:leaf=0.0123498
					58:[f1420<2.87485] yes=115,no=116,missing=115
						115:leaf=-0.0318341
						116:leaf=0.0055169
			14:[f1497<0.00272098] yes=29,no=30,missing=29
				29:[f1838<-0.430291] yes=59,no=60,missing=59
					59:[f302<-0.659592] yes=117,no=118,missing=117
						117:leaf=0.00772152
						118:leaf=-0.032886
					60:[f1549<-0.117389] yes=119,no=120,missing=119
						119:leaf=0.0155888
						120:leaf=-0.0102771
				30:[f1466<-0.170359] yes=61,no=62,missing=61
					61:leaf=-0.0153685
					62:[f863<1.48467] yes=123,no=124,missing=123
						123:leaf=0.0221187
						124:leaf=-0.0100361
booster[17]:
0:[f1840<-0.633802] yes=1,no=2,missing=1
	1:[f1797<-0.313521] yes=3,no=4,missing=3
		3:[f992<-0.176797] yes=7,no=8,missing=7
			7:[f923<-0.0804922] yes=15,no=16,missing=15
				15:[f619<-0.855918] yes=31,no=32,missing=31
					31:[f1770<-0.348446] yes=63,no=64,missing=63
						63:leaf=-0.0164933
						64:leaf=0.0188906
					32:[f867<-0.958953] yes=65,no=66,missing=65
						65:leaf=0.00201149
						66:leaf=-0.0457592
				16:[f334<-0.257126] yes=33,no=34,missing=33
					33:[f1736<-0.38965] yes=67,no=68,missing=67
						67:leaf=-0.00821757
						68:leaf=0.023417
					34:leaf=-0.0169251
			8:[f854<-0.0217553] yes=17,no=18,missing=17
				17:[f637<-0.521025] yes=35,no=36,missing=35
					35:[f630<-0.510042] yes=69,no=70,missing=69
						69:leaf=-0.0150984
						70:leaf=0.0166185
					36:[f223<1.55269] yes=71,no=72,missing=71
						71:leaf=-0.0326745
						72:leaf=0.00582708
				18:[f718<-0.158407] yes=37,no=38,missing=37
					37:[f336<0.117558] yes=73,no=74,missing=73
						73:leaf=0.0302352
						74:leaf=-0.00509896
					38:[f342<-0.00310543] yes=75,no=76,missing=75
						75:leaf=0.00753863
						76:leaf=-0.0222513
		4:[f1840<-1.14078] yes=9,no=10,missing=9
			9:[f21<0.967679] yes=19,no=20,missing=19
				19:[f1340<0.0706458] yes=39,no=40,missing=39
					39:[f703<-0.787624] yes=77,no=78,missing=77
						77:leaf=0.00690935
						78:leaf=-0.05
					40:leaf=0.00427022
				20:[f1438<-0.0555804] yes=41,no=42,missing=41
					41:[f588<-0.421315] yes=81,no=82,missing=81
						81:leaf=0.0101355
						82:leaf=-0.0237213
					42:leaf=0.0207728
			10:[f112<-0.589563] yes=21,no=22,missing=21
				21:[f762<0.0120441] yes=43,no=44,missing=43
					43:[f382<-0.634526] yes=85,no=86,missing=85
						85:leaf=-0.00855551
						86:leaf=0.027582
					44:[f874<0.601097] yes=87,no=88,missing=87
						87:leaf=-0.020003
						88:leaf=0.0107532
				22:[f177<-0.310027] yes=45,no=46,missing=45
					45:[f770<-0.459908] yes=89,no=90,missing=89
						89:leaf=0.0120436
						90:leaf=-0.0285205
					46:[f887<1.2468] yes=91,no=92,missing=91
						91:leaf=0.00153158
						92:leaf=-0.0263286
	2:[f1809<-0.511226] yes=5,no=6,missing=5
		5:[f890<-0.65653] yes=11,no=12,missing=11
			11:[f565<-0.576124] yes=23,no=24,missing=23
				23:[f847<-0.733907] yes=47,no=48,missing=47
					47:[f185<-0.664024] yes=93,no=94,missing=93
						93:leaf=0.0044161
						94:leaf=-0.0325338
					48:[f268<-0.553327] yes=95,no=96,missing=95
						95:leaf=0.0146228
						96:leaf=-0.0137435
				24:[f1353<-0.00364418] yes=49,no=50,missing=49
					49:[f1201<0.122663] yes=97,no=98,missing=97
						97:leaf=0.0143481
						98:leaf=-0.0115939
					50:[f1508<-0.0748014] yes=99,no=100,missing=99
						99:leaf=-0.0254324
						100:leaf=0.00469165
			12:[f33<-0.127165] yes=25,no=26,missing=25
				25:[f124<-0.686965] yes=51,no=52,missing=51
					51:[f242<-0.689047] yes=101,no=102,missing=101
						101:leaf=0.0182089
						102:leaf=-0.0109726
					52:[f739<-0.722253] yes=103,no=104,missing=103
						103:leaf=0.00449427
						104:leaf=-0.0371537
				26:[f46<-0.0042209] yes=53,no=54,missing=53
					53:[f21<-0.569655] yes=105,no=106,missing=105
						105:leaf=-0.0122403
						106:leaf=0.0197184
					54:[f672<-0.603128] yes=107,no=108,missing=107
						107:leaf=0.0131511
						108:leaf=-0.0226923
		6:[f1840<1.05165] yes=13,no=14,missing=13
			13:[f876<1.07856] yes=27,no=28,missing=27
				27:[f840<-0.0810928] yes=55,no=56,missing=55
					55:[f418<-0.395008] yes=109,no=110,missing=109
						109:leaf=-0.00490984
						110:leaf=0.0090867
					56:[f1831<-0.358146] yes=111,no=112,missing=111
						111:leaf=0.00357638
						112:leaf=0.0171822
				28:[f1801<0.00239243] yes=57,no=58,missing=57
					57:[f142<-0.514154] yes=113,no=114,missing=113
						113:leaf=0.00431317
						114:leaf=-0.0251375
					58:[f321<-0.419211] yes=115,no=116,missing=115
						115:leaf=-0.0167902
						116:leaf=0.0123533
			14:[f58<-0.744769] yes=29,no=30,missing=29
				29:[f417<-0.418834] yes=59,no=60,missing=59
					59:[f1325<-0.140386] yes=117,no=118,missing=117
						117:leaf=-0.0124389
						118:leaf=0.0175187
					60:[f232<0.381897] yes=119,no=120,missing=119
						119:leaf=-0.0276164
						120:leaf=0.00698695
				30:[f792<-0.467204] yes=61,no=62,missing=61
					61:[f317<-0.282182] yes=121,no=122,missing=121
						121:leaf=-0.0175407
						122:leaf=0.0127847
					62:[f286<1.22281] yes=123,no=124,missing=123
						123:leaf=0.021974
						124:leaf=-0.0039878
booster[18]:
0:[f1840<-0.86703] yes=1,no=2,missing=1
	1:[f1242<-0.0760152] yes=3,no=4,missing=3
		3:[f1465<-0.0596671] yes=7,no=8,missing=7
			7:[f946<-0.233492] yes=15,no=16,missing=15
				15:[f46<-0.970697] yes=31,no=32,missing=31
					31:[f1460<-0.0834049] yes=63,no=64,missing=63
						63:leaf=-0.0136795
						64:leaf=0.0173055
					32:[f673<-0.8201] yes=65,no=66,missing=65
						65:leaf=0.00252718
						66:leaf=-0.0458194
				16:[f102<-0.755107] yes=33,no=34,missing=33
					33:[f697<-0.256479] yes=67,no=68,missing=67
						67:leaf=-0.00781239
						68:leaf=0.0241116
					34:[f27<-0.173678] yes=69,no=70,missing=69
						69:leaf=-0.00553332
						70:leaf=-0.038633
			8:[f827<-0.0704501] yes=17,no=18,missing=17
				17:[f253<-0.601143] yes=35,no=36,missing=35
					35:[f284<-0.47854] yes=71,no=72,missing=71
						71:leaf=-0.0236455
						72:leaf=0.0189409
					36:[f831<-1.1141] yes=73,no=74,missing=73
						73:leaf=0.00612616
						74:leaf=-0.0419384
				18:[f406<-0.28634] yes=37,no=38,missing=37
					37:[f540<-0.490155] yes=75,no=76,missing=75
						75:leaf=-0.0108944
						76:leaf=0.0237119
					38:[f1516<-0.0875419] yes=77,no=78,missing=77
						77:leaf=-0.0218426
						78:leaf=0.016164
		4:[f414<-0.302595] yes=9,no=10,missing=9
			9:[f1047<-0.106823] yes=19,no=20,missing=19
				19:[f760<-0.344626] yes=39,no=40,missing=39
					39:[f57<-0.390218] yes=79,no=80,missing=79
						79:leaf=-0.0136355
						80:leaf=0.020905
					40:[f694<-0.615769] yes=81,no=82,missing=81
						81:leaf=0.00888632
						82:leaf=-0.030146
				20:[f94<-0.623428] yes=41,no=42,missing=41
					41:leaf=-0.0115714
					42:[f1022<-0.139152] yes=83,no=84,missing=83
						83:leaf=0.0367163
						84:leaf=-0.00258687
			10:[f776<0.457737] yes=21,no=22,missing=21
				21:[f1286<-0.158102] yes=43,no=44,missing=43
					43:[f412<-0.0586484] yes=85,no=86,missing=85
						85:leaf=-0.0134658
						86:leaf=0.0162331
					44:[f1741<0.74675] yes=87,no=88,missing=87
						87:leaf=-0.0417754
						88:leaf=0.0039407
				22:[f405<0.81067] yes=45,no=46,missing=45
					45:[f1239<-0.0180927] yes=89,no=90,missing=89
						89:leaf=0.0262041
						90:leaf=-0.00782612
					46:[f1127<-0.206901] yes=91,no=92,missing=91
						91:leaf=0.00469079
						92:leaf=-0.0253103
	2:[f1840<-0.0952636] yes=5,no=6,missing=5
		5:[f1738<-0.171354] yes=11,no=12,missing=11
			11:[f1786<-0.42815] yes=23,no=24,missing=23
				23:[f1831<-0.444844] yes=47,no=48,missing=47
					47:[f654<-0.489722] yes=93,no=94,missing=93
						93:leaf=0.0048836
						94:leaf=-0.0410883
					48:[f492<0.354377] yes=95,no=96,missing=95
						95:leaf=-0.0121613
						96:leaf=0.0161017
				24:[f15<0.28589] yes=49,no=50,missing=49
					49:[f876<0.782985] yes=97,no=98,missing=97
						97:leaf=0.00707403
						98:leaf=-0.0220482
					50:[f1828<0.261079] yes=99,no=100,missing=99
						99:leaf=-0.0299882
						100:leaf=0.00354887
			12:[f234<-0.588734] yes=25,no=26,missing=25
				25:[f1792<-0.309235] yes=51,no=52,missing=51
					51:[f694<-0.393301] yes=101,no=102,missing=101
						101:leaf=-0.013905
						102:leaf=0.0164815
					52:[f778<-0.44495] yes=103,no=104,missing=103
						103:leaf=0.00528989
						104:leaf=-0.0320507
				26:[f678<0.80453] yes=53,no=54,missing=53
					53:[f1698<0.0334215] yes=105,no=106,missing=105
						105:leaf=0.0196826
						106:leaf=-0.014907
					54:[f254<-0.36015] yes=107,no=108,missing=107
						107:leaf=0.0127231
						108:leaf=-0.0191071
		6:[f1820<-0.308262] yes=13,no=14,missing=13
			13:[f945<-0.184114] yes=27,no=28,missing=27
				27:[f827<-0.604965] yes=55,no=56,missing=55
					55:[f317<-0.677319] yes=109,no=110,missing=109
						109:leaf=0.000169821
						110:leaf=-0.0276208
					56:[f855<0.299649] yes=111,no=112,missing=111
						111:leaf=0.00957382
						112:leaf=-0.0109813
				28:[f73<-0.67976] yes=57,no=58,missing=57
					57:[f1107<-0.126316] yes=113,no=114,missing=113
						113:leaf=0.0105396
						114:leaf=-0.0224918
					58:[f887<1.56356] yes=115,no=116,missing=115
						115:leaf=0.0146634
						116:leaf=-0.0151115
			14:[f967<1.63896] yes=29,no=30,missing=29
				29:[f1051<0.014016] yes=59,no=60,missing=59
					59:[f1174<0.343289] yes=117,no=118,missing=117
						117:leaf=0.0131683
						118:leaf=0.0271572
					60:[f439<0.536374] yes=119,no=120,missing=119
						119:leaf=-0.0241347
						120:leaf=0.00825671
				30:[f1227<0.570171] yes=61,no=62,missing=61
					61:[f657<-0.662395] yes=121,no=122,missing=121
						121:leaf=0.00778804
						122:leaf=-0.0271255
					62:[f908<-0.342262] yes=123,no=124,missing=123
						123:leaf=0.0223936
						124:leaf=-0.00501544
booster[19]:
0:[f1840<-0.82346] yes=1,no=2,missing=1
	1:[f1798<-0.358379] yes=3,no=4,missing=3
		3:[f1797<-0.304811] yes=7,no=8,missing=7
			7:[f771<-0.492576] yes=15,no=16,missing=15
				15:[f1548<-0.0838878] yes=31,no=32,missing=31
					31:leaf=-0.0131393
					32:leaf=0.0171603
				16:[f644<-0.673073] yes=33,no=34,missing=33
					33:leaf=0.00726434
					34:[f71<-0.819685] yes=65,no=66,missing=65
						65:leaf=0.00505875
						66:leaf=-0.0472216
			8:[f869<-0.58986] yes=17,no=18,missing=17
				17:[f1569<-0.259891] yes=35,no=36,missing=35
					35:[f339<-0.551405] yes=67,no=68,missing=67
						67:leaf=0.0072332
						68:leaf=-0.0231105
					36:[f1810<-0.254554] yes=69,no=70,missing=69
						69:leaf=0.0237985
						70:leaf=-0.0122899
				18:[f1174<-0.121905] yes=37,no=38,missing=37
					37:[f690<1.3384] yes=71,no=72,missing=71
						71:leaf=-0.0380311
						72:leaf=0.00660416
					38:[f1591<-0.0644377] yes=73,no=74,missing=73
						73:leaf=0.0165654
						74:leaf=-0.0128051
		4:[f1761<-0.0272303] yes=9,no=10,missing=9
			9:[f466<-0.386638] yes=19,no=20,missing=19
				19:[f548<-0.408498] yes=39,no=40,missing=39
					39:[f913<-0.725343] yes=75,no=76,missing=75
						75:leaf=0.00763967
						76:leaf=-0.0283499
					40:[f287<-0.458492] yes=77,no=78,missing=77
						77:leaf=0.0225539
						78:leaf=-0.00810367
				20:[f1242<-0.0820893] yes=41,no=42,missing=41
					41:[f1453<0.311317] yes=79,no=80,missing=79
						79:leaf=-0.0426015
						80:leaf=0.00204309
					42:[f975<-0.193148] yes=81,no=82,missing=81
						81:leaf=0.014907
						82:leaf=-0.0142548
			10:[f172<0.0539036] yes=21,no=22,missing=21
				21:[f1837<-0.156082] yes=43,no=44,missing=43
					43:[f912<-0.358145] yes=83,no=84,missing=83
						83:leaf=0.0176263
						84:leaf=-0.0123439
					44:[f174<-0.432802] yes=85,no=86,missing=85
						85:leaf=0.00547521
						86:leaf=-0.0373664
				22:[f1308<-0.108994] yes=45,no=46,missing=45
					45:[f31<0.570432] yes=87,no=88,missing=87
						87:leaf=0.0322422
						88:leaf=-0.00779901
					46:[f1630<0.921961] yes=89,no=90,missing=89
						89:leaf=-0.019325
						90:leaf=0.0117089
	2:[f1840<0.564694] yes=5,no=6,missing=5
		5:[f1763<-0.434949] yes=11,no=12,missing=11
			11:[f1797<-0.283802] yes=23,no=24,missing=23
				23:[f159<-0.715485] yes=47,no=48,missing=47
					47:[f442<-0.622427] yes=91,no=92,missing=91
						91:leaf=-0.0143589
						92:leaf=0.0168081
					48:[f197<-0.442047] yes=93,no=94,missing=93
						93:leaf=0.0075546
						94:leaf=-0.0255012
				24:[f379<0.0261563] yes=49,no=50,missing=49
					49:[f762<-0.388531] yes=95,no=96,missing=95
						95:leaf=-0.0033703
						96:leaf=0.0250211
					50:[f365<-0.548676] yes=97,no=98,missing=97
						97:leaf=0.00990393
						98:leaf=-0.0236084
			12:[f878<0.551877] yes=25,no=26,missing=25
				25:[f235<-0.631854] yes=51,no=52,missing=51
					51:[f548<0.0950912] yes=99,no=100,missing=99
						99:leaf=0.00240303
						100:leaf=-0.0263269
					52:[f1672<0.108352] yes=101,no=102,missing=101
						101:leaf=0.0120999
						102:leaf=-0.00970157
				26:[f1805<-0.388342] yes=53,no=54,missing=53
					53:[f1230<-0.205784] yes=103,no=104,missing=103
						103:leaf=-0.012632
						104:leaf=0.0148018
					54:[f1509<-0.101156] yes=105,no=106,missing=105
						105:leaf=-0.0291388
						106:leaf=-0.000935913
		6:[f1051<0.0188179] yes=13,no=14,missing=13
			13:[f1149<-0.136022] yes=27,no=28,missing=27
				27:[f619<-0.523294] yes=55,no=56,missing=55
					55:[f531<-0.592469] yes=107,no=108,missing=107
						107:leaf=0.0132357
						108:leaf=-0.00406019
					56:[f221<-0.381541] yes=109,no=110,missing=109
						109:leaf=0.019525
						110:leaf=0.00772348
				28:[f967<1.80466] yes=57,no=58,missing=57
					57:[f352<-0.669795] yes=111,no=112,missing=111
						111:leaf=-0.0118726
						112:leaf=0.0222316
					58:[f81<-0.0675884] yes=113,no=114,missing=113
						113:leaf=-0.0210993
						114:leaf=0.0116758
			14:[f1777<0.00361157] yes=29,no=30,missing=29
				29:[f1261<0.973584] yes=59,no=60,missing=59
					59:[f375<-0.857027] yes=115,no=116,missing=115
						115:leaf=0.00565808
						116:leaf=-0.0196118
					60:leaf=0.0215581
				30:[f1824<-0.219099] yes=61,no=62,missing=61
					61:leaf=0.00579517
					62:[f626<-0.612599] yes=121,no=122,missing=121
						121:leaf=0.00254374
						122:leaf=-0.0380829
booster[20]:
0:[f1840<-0.861904] yes=1,no=2,missing=1
	1:[f946<-0.20984] yes=3,no=4,missing=3
		3:[f1411<-0.233442] yes=7,no=8,missing=7
			7:[f1482<-0.0979823] yes=15,no=16,missing=15
				15:[f360<-0.86198] yes=31,no=32,missing=31
					31:[f573<-0.385932] yes=63,no=64,missing=63
						63:leaf=-0.00890391
						64:leaf=0.015544
					32:[f1611<-0.0779617] yes=65,no=66,missing=65
						65:leaf=-0.0428323
						66:leaf=0.00173877
				16:[f816<0.63266] yes=33,no=34,missing=33
					33:[f1775<0.44632] yes=67,no=68,missing=67
						67:leaf=-0.0284838
						68:leaf=0.0129007
					34:[f512<-0.137796] yes=69,no=70,missing=69
						69:leaf=0.0232014
						70:leaf=-0.0148356
			8:[f80<-0.225531] yes=17,no=18,missing=17
				17:[f10<-0.673493] yes=35,no=36,missing=35
					35:[f502<-0.650195] yes=71,no=72,missing=71
						71:leaf=0.00696247
						72:leaf=-0.0267125
					36:[f203<-0.630591] yes=73,no=74,missing=73
						73:leaf=-0.0151125
						74:leaf=0.0179366
				18:[f1438<-0.0215186] yes=37,no=38,missing=37
					37:[f1753<-0.421981] yes=75,no=76,missing=75
						75:leaf=0.00769922
						76:leaf=-0.035549
					38:[f1399<-0.0863782] yes=77,no=78,missing=77
						77:leaf=-0.0080183
						78:leaf=0.0155959
		4:[f1006<-0.212379] yes=9,no=10,missing=9
			9:[f27<0.213015] yes=19,no=20,missing=19
				19:[f1744<0.18008] yes=39,no=40,missing=39
					39:[f1836<-0.526628] yes=79,no=80,missing=79
						79:leaf=-0.00607002
						80:leaf=0.0295123
					40:leaf=-0.0150804
				20:[f1192<-0.0489756] yes=41,no=42,missing=41
					41:[f122<-0.898951] yes=83,no=84,missing=83
						83:leaf=0.00443681
						84:leaf=-0.0314003
					42:[f1464<-0.245208] yes=85,no=86,missing=85
						85:leaf=0.0185577
						86:leaf=-0.0108907
			10:[f407<-0.523846] yes=21,no=22,missing=21
				21:[f179<-0.294659] yes=43,no=44,missing=43
					43:[f399<0.150404] yes=87,no=88,missing=87
						87:leaf=-0.0231634
						88:leaf=0.00591629
					44:[f488<0.892766] yes=89,no=90,missing=89
						89:leaf=0.0252011
						90:leaf=-0.0102767
				22:[f51<1.20819] yes=45,no=46,missing=45
					45:[f236<-0.752013] yes=91,no=92,missing=91
						91:leaf=0.0106663
						92:leaf=-0.0352844
					46:[f842<1.4868] yes=93,no=94,missing=93
						93:leaf=0.0139934
						94:leaf=-0.0165903
	2:[f1764<-0.338446] yes=5,no=6,missing=5
		5:[f845<-0.206573] yes=11,no=12,missing=11
			11:[f1797<-0.358011] yes=23,no=24,missing=23
				23:[f894<-0.49189] yes=47,no=48,missing=47
					47:[f1435<-0.0945943] yes=95,no=96,missing=95
						95:leaf=-0.0246749
						96:leaf=0.00750907
					48:[f682<-0.447981] yes=97,no=98,missing=97
						97:leaf=0.0187512
						98:leaf=-0.00610247
				24:[f1114<-0.0582752] yes=49,no=50,missing=49
					49:[f1251<0.192821] yes=99,no=100,missing=99
						99:leaf=0.0103718
						100:leaf=-0.0146247
					50:[f1069<0.175199] yes=101,no=102,missing=101
						101:leaf=-0.0155384
						102:leaf=0.0113093
			12:[f1840<1.85257] yes=25,no=26,missing=25
				25:[f1764<-0.47905] yes=51,no=52,missing=51
					51:[f380<2.6358] yes=103,no=104,missing=103
						103:leaf=-0.0322187
						104:leaf=0.0101084
					52:[f430<-0.421287] yes=105,no=106,missing=105
						105:leaf=-0.0189994
						106:leaf=0.0039339
				26:[f894<-0.347157] yes=53,no=54,missing=53
					53:leaf=-0.0098886
					54:[f869<-0.500206] yes=109,no=110,missing=109
						109:leaf=-0.00571411
						110:leaf=0.0294552
		6:[f840<-0.831738] yes=13,no=14,missing=13
			13:[f879<-0.260033] yes=27,no=28,missing=27
				27:[f1385<-0.0578615] yes=55,no=56,missing=55
					55:[f1775<-0.466516] yes=111,no=112,missing=111
						111:leaf=-0.0165777
						112:leaf=0.0182024
					56:[f140<-0.791822] yes=113,no=114,missing=113
						113:leaf=0.00884153
						114:leaf=-0.0254327
				28:[f1762<0.0205518] yes=57,no=58,missing=57
					57:[f405<-0.317844] yes=115,no=116,missing=115
						115:leaf=-0.0011712
						116:leaf=-0.0284491
					58:[f636<-0.413306] yes=117,no=118,missing=117
						117:leaf=-0.0159618
						118:leaf=0.014846
			14:[f483<1.74147] yes=29,no=30,missing=29
				29:[f874<1.84252] yes=59,no=60,missing=59
					59:[f945<-0.131892] yes=119,no=120,missing=119
						119:leaf=0.00918251
						120:leaf=0.0178452
					60:[f227<0.64397] yes=121,no=122,missing=121
						121:leaf=-0.0248777
						122:leaf=0.00947691
				30:[f1361<-0.00395105] yes=61,no=62,missing=61
					61:[f1763<0.497193] yes=123,no=124,missing=123
						123:leaf=-0.0331187
						124:leaf=0.00433889
					62:[f57<-0.200942] yes=125,no=126,missing=125
						125:leaf=-0.013587
						126:leaf=0.0164838
booster[21]:
0:[f1840<-0.560117] yes=1,no=2,missing=1
	1:[f934<-0.180688] yes=3,no=4,missing=3
		3:[f1590<-0.0383931] yes=7,no=8,missing=7
			7:[f1546<-0.116879] yes=15,no=16,missing=15
				15:[f1839<-0.719246] yes=31,no=32,missing=31
					31:[f1286<0.11079] yes=63,no=64,missing=63
						63:leaf=-0.0448924
						64:leaf=-0.00101221
					32:[f1544<-0.0377195] yes=65,no=66,missing=65
						65:leaf=-0.0201191
						66:leaf=0.0143679
				16:[f1819<-0.339044] yes=33,no=34,missing=33
					33:[f1783<-0.621353] yes=67,no=68,missing=67
						67:leaf=0.0105236
						68:leaf=-0.0233069
					34:[f1194<-0.0967373] yes=69,no=70,missing=69
						69:leaf=0.0196737
						70:leaf=-0.014051
			8:[f918<-0.757229] yes=17,no=18,missing=17
				17:[f1225<-0.135456] yes=35,no=36,missing=35
					35:[f889<-0.991077] yes=71,no=72,missing=71
						71:leaf=0.00775916
						72:leaf=-0.0280796
					36:[f640<-0.225976] yes=73,no=74,missing=73
						73:leaf=-0.00739755
						74:leaf=0.0239446
				18:[f60<-0.725435] yes=37,no=38,missing=37
					37:[f1146<-0.154449] yes=75,no=76,missing=75
						75:leaf=-0.0102231
						76:leaf=0.0125056
					38:[f548<-0.759212] yes=77,no=78,missing=77
						77:leaf=0.00528661
						78:leaf=-0.05
		4:[f1841<-0.812843] yes=9,no=10,missing=9
			9:[f286<0.265871] yes=19,no=20,missing=19
				19:[f213<-0.799049] yes=39,no=40,missing=39
					39:leaf=0.00885669
					40:[f62<-0.85638] yes=79,no=80,missing=79
						79:leaf=0.00372893
						80:leaf=-0.0455096
				20:[f1096<-0.111552] yes=41,no=42,missing=41
					41:[f172<-0.80399] yes=81,no=82,missing=81
						81:leaf=0.00613609
						82:leaf=-0.0184812
					42:[f1416<-0.0425499] yes=83,no=84,missing=83
						83:leaf=0.0208622
						84:leaf=-0.00456912
			10:[f840<-0.543027] yes=21,no=22,missing=21
				21:[f1764<-0.0158306] yes=43,no=44,missing=43
					43:[f574<1.27224] yes=85,no=86,missing=85
						85:leaf=-0.035452
						86:leaf=0.00574927
					44:[f1170<-0.168118] yes=87,no=88,missing=87
						87:leaf=-0.0156575
						88:leaf=0.0126556
				22:[f1734<-0.210308] yes=45,no=46,missing=45
					45:[f730<-0.476988] yes=89,no=90,missing=89
						89:leaf=-0.00823139
						90:leaf=0.0249655
					46:[f898<-0.665795] yes=91,no=92,missing=91
						91:leaf=0.0153026
						92:leaf=-0.0141743
	2:[f840<-0.127102] yes=5,no=6,missing=5
		5:[f1815<-0.390856] yes=11,no=12,missing=11
			11:[f685<-0.0581416] yes=23,no=24,missing=23
				23:[f479<-0.912864] yes=47,no=48,missing=47
					47:[f405<-0.327869] yes=93,no=94,missing=93
						93:leaf=0.0225856
						94:leaf=-0.00885786
					48:[f750<-0.696139] yes=95,no=96,missing=95
						95:leaf=-0.00606338
						96:leaf=-0.0256265
				24:[f1840<0.731286] yes=49,no=50,missing=49
					49:[f300<0.0233379] yes=97,no=98,missing=97
						97:leaf=-0.0228988
						98:leaf=0.0118602
					50:[f479<-0.139172] yes=99,no=100,missing=99
						99:leaf=0.0281402
						100:leaf=-0.0017669
			12:[f757<0.399217] yes=25,no=26,missing=25
				25:[f655<-0.70365] yes=51,no=52,missing=51
					51:[f535<-0.282943] yes=101,no=102,missing=101
						101:leaf=-0.0261334
						102:leaf=0.00811522
					52:[f918<0.131663] yes=103,no=104,missing=103
						103:leaf=0.0118228
						104:leaf=3.97269e-05
				26:[f1274<0.0144434] yes=53,no=54,missing=53
					53:[f258<-0.761489] yes=105,no=106,missing=105
						105:leaf=0.0148929
						106:leaf=-0.0231176
					54:[f351<0.401253] yes=107,no=108,missing=107
						107:leaf=0.0187623
						108:leaf=-0.00731658
		6:[f1809<-0.574495] yes=13,no=14,missing=13
			13:[f1572<0.0179833] yes=27,no=28,missing=27
				27:[f844<-0.295666] yes=55,no=56,missing=55
					55:[f184<-0.528136] yes=109,no=110,missing=109
						109:leaf=0.0145447
						110:leaf=-0.0231886
					56:[f894<0.043291] yes=111,no=112,missing=111
						111:leaf=0.0175899
						112:leaf=-0.012249
				28:[f790<-0.453462] yes=57,no=58,missing=57
					57:leaf=0.00612639
					58:[f196<-0.696932] yes=115,no=116,missing=115
						115:leaf=0.00317566
						116:leaf=-0.0368567
			14:[f830<2.17602] yes=29,no=30,missing=29
				29:[f1448<-0.00949692] yes=59,no=60,missing=59
					59:[f1200<1.14834] yes=117,no=118,missing=117
						117:leaf=0.0166156
						118:leaf=-0.0182134
					60:[f1750<-0.40309] yes=119,no=120,missing=119
						119:leaf=-0.0159782
						120:leaf=0.00941632
				30:[f608<0.0999683] yes=61,no=62,missing=61
					61:[f1574<-0.0728185] yes=121,no=122,missing=121
						121:leaf=0.00457049
						122:leaf=-0.031082
					62:[f1571<-0.0775842] yes=123,no=124,missing=123
						123:leaf=0.0143144
						124:leaf=-0.0172751
booster[22]:
0:[f1840<-0.862545] yes=1,no=2,missing=1
	1:[f1822<-0.361644] yes=3,no=4,missing=3
		3:[f1574<-0.0349136] yes=7,no=8,missing=7
			7:[f213<-0.762805] yes=15,no=16,missing=15
				15:[f1816<-0.282007] yes=31,no=32,missing=31
					31:[f285<-0.756646] yes=63,no=64,missing=63
						63:leaf=0.00489106
						64:leaf=-0.0279454
					32:[f1373<-0.138531] yes=65,no=66,missing=65
						65:leaf=0.0240014
						66:leaf=-0.0104365
				16:[f82<-0.851736] yes=33,no=34,missing=33
					33:[f227<-0.582731] yes=67,no=68,missing=67
						67:leaf=0.0196178
						68:leaf=-0.0120814
					34:[f1331<-0.0430622] yes=69,no=70,missing=69
						69:leaf=-0.0441511
						70:leaf=-0.00151678
			8:[f889<0.0034422] yes=17,no=18,missing=17
				17:[f1736<0.514265] yes=35,no=36,missing=35
					35:[f230<-0.702569] yes=71,no=72,missing=71
						71:leaf=-0.00250969
						72:leaf=-0.0399365
					36:leaf=0.00864399
				18:[f853<0.456786] yes=37,no=38,missing=37
					37:[f505<-0.091825] yes=75,no=76,missing=75
						75:leaf=0.0300019
						76:leaf=-0.00738621
					38:[f695<-0.565374] yes=77,no=78,missing=77
						77:leaf=0.0112086
						78:leaf=-0.0242829
		4:[f880<-0.13573] yes=9,no=10,missing=9
			9:[f822<-0.0895976] yes=19,no=20,missing=19
				19:[f685<-0.425388] yes=39,no=40,missing=39
					39:[f1211<-0.0875195] yes=79,no=80,missing=79
						79:leaf=-0.0163294
						80:leaf=0.0205066
					40:[f231<0.807073] yes=81,no=82,missing=81
						81:leaf=-0.0262713
						82:leaf=0.0117112
				20:[f750<-0.00878721] yes=41,no=42,missing=41
					41:[f877<-0.126097] yes=83,no=84,missing=83
						83:leaf=-0.0177029
						84:leaf=0.0150422
					42:[f1743<0.903937] yes=85,no=86,missing=85
						85:leaf=0.0364587
						86:leaf=-0.0062056
			10:[f1453<-0.0323426] yes=21,no=22,missing=21
				21:[f73<-0.591157] yes=43,no=44,missing=43
					43:[f1598<-0.11714] yes=87,no=88,missing=87
						87:leaf=-0.0124816
						88:leaf=0.0178136
					44:[f511<0.470865] yes=89,no=90,missing=89
						89:leaf=-0.0409989
						90:leaf=-0.00768154
				22:[f740<-0.0429498] yes=45,no=46,missing=45
					45:[f1599<-0.0519363] yes=91,no=92,missing=91
						91:leaf=-0.0100174
						92:leaf=0.0273948
					46:[f895<3.70233] yes=93,no=94,missing=93
						93:leaf=-0.0221509
						94:leaf=0.0107851
	2:[f840<-0.867208] yes=5,no=6,missing=5
		5:[f348<-0.129408] yes=11,no=12,missing=11
