booster[0]:
0:[f1840<-0.813559] yes=1,no=2,missing=1
	1:[f945<-0.161486] yes=3,no=4,missing=3
		3:[f934<-0.157959] yes=7,no=8,missing=7
			7:[f1798<0.000265238] yes=15,no=16,missing=15
				15:[f946<-0.011944] yes=31,no=32,missing=31
					31:[f1607<0.5903] yes=63,no=64,missing=63
						63:leaf=-0.05
						64:leaf=0.00623565
					32:[f655<-0.196048] yes=65,no=66,missing=65
						65:leaf=0.00673778
						66:leaf=-0.0286776
				16:[f880<0.358769] yes=33,no=34,missing=33
					33:[f1840<-1.00772] yes=67,no=68,missing=67
						67:leaf=-0.0196967
						68:leaf=0.00578215
					34:[f1553<0.535892] yes=69,no=70,missing=69
						69:leaf=-0.0486687
						70:leaf=0.00834418
			8:[f1840<-1.07867] yes=17,no=18,missing=17
				17:[f1402<-0.104848] yes=35,no=36,missing=35
					35:[f31<0.230834] yes=71,no=72,missing=71
						71:leaf=0.0165414
						72:leaf=-0.0135091
					36:[f591<-0.551437] yes=73,no=74,missing=73
						73:leaf=0.00254602
						74:leaf=-0.0386106
				18:[f867<-0.295206] yes=37,no=38,missing=37
					37:[f1041<-0.0964282] yes=75,no=76,missing=75
						75:leaf=0.0159953
						76:leaf=-0.0160617
					38:[f291<1.13369] yes=77,no=78,missing=77
						77:leaf=-0.0186242
						78:leaf=0.0160787
		4:[f1840<-1.09996] yes=9,no=10,missing=9
			9:[f1451<-0.0905733] yes=19,no=20,missing=19
				19:[f1315<-0.176686] yes=39,no=40,missing=39
					39:[f630<-0.670265] yes=79,no=80,missing=79
						79:leaf=-0.000422351
						80:leaf=-0.05
					40:[f266<-0.773553] yes=81,no=82,missing=81
						81:leaf=0.0124913
						82:leaf=-0.0261981
				20:[f1080<-0.0854776] yes=41,no=42,missing=41
					41:[f879<0.685613] yes=83,no=84,missing=83
						83:leaf=0.0113847
						84:leaf=-0.0183889
					42:[f559<-0.588063] yes=85,no=86,missing=85
						85:leaf=0.00631956
						86:leaf=-0.0392214
			10:[f1389<-0.0832984] yes=21,no=22,missing=21
				21:[f15<0.812629] yes=43,no=44,missing=43
					43:[f1509<-0.12991] yes=87,no=88,missing=87
						87:leaf=-0.00427469
						88:leaf=0.0203642
					44:[f934<-0.168459] yes=89,no=90,missing=89
						89:leaf=-0.05
						90:leaf=-0.00464814
				22:[f1798<1.10812] yes=45,no=46,missing=45
					45:[f868<0.647948] yes=91,no=92,missing=91
						91:leaf=-0.0131647
						92:leaf=-0.041848
					46:[f919<-0.140043] yes=93,no=94,missing=93
						93:leaf=-0.0166941
						94:leaf=0.0182142
	2:[f1772<-0.268701] yes=5,no=6,missing=5
		5:[f1821<-0.343216] yes=11,no=12,missing=11
			11:[f934<-0.190262] yes=23,no=24,missing=23
				23:[f918<0.612074] yes=47,no=48,missing=47
					47:[f1764<-0.483093] yes=95,no=96,missing=95
						95:leaf=-0.0216567
						96:leaf=-0.00143211
					48:[f948<-0.232008] yes=97,no=98,missing=97
						97:leaf=-0.05
						98:leaf=-0.0169552
				24:[f1575<-0.014756] yes=49,no=50,missing=49
					49:[f898<0.0747672] yes=99,no=100,missing=99
						99:leaf=0.0048205
						100:leaf=-0.0180283
					50:[f114<0.844728] yes=101,no=102,missing=101
						101:leaf=0.0334733
						102:leaf=-0.00645271
			12:[f853<-0.672086] yes=25,no=26,missing=25
				25:[f1783<-0.0910912] yes=51,no=52,missing=51
					51:[f1295<-0.0488449] yes=103,no=104,missing=103
						103:leaf=0.0186816
						104:leaf=-0.000580694
					52:[f849<0.494929] yes=105,no=106,missing=105
						105:leaf=0.0378429
						106:leaf=0.00563926
				26:[f853<0.541516] yes=53,no=54,missing=53
					53:[f1297<-0.0641074] yes=107,no=108,missing=107
						107:leaf=0.0114288
						108:leaf=-0.00616188
					54:[f1782<-0.430406] yes=109,no=110,missing=109
						109:leaf=0.00862833
						110:leaf=-0.0176371
		6:[f1817<0.42718] yes=13,no=14,missing=13
			13:[f845<0.354135] yes=27,no=28,missing=27
				27:[f1764<-0.0736707] yes=55,no=56,missing=55
					55:[f845<-0.800767] yes=111,no=112,missing=111
						111:leaf=0.0268028
						112:leaf=0.0104934
					56:[f845<-0.3427] yes=113,no=114,missing=113
						113:leaf=0.040886
						114:leaf=0.0254842
				28:[f1764<0.254561] yes=57,no=58,missing=57
					57:[f1578<0.0257326] yes=115,no=116,missing=115
						115:leaf=-0.0122081
						116:leaf=0.0166112
					58:[f1747<0.677671] yes=117,no=118,missing=117
						117:leaf=0.00983622
						118:leaf=0.027277
			14:[f967<0.363953] yes=29,no=30,missing=29
				29:[f1840<-0.634881] yes=59,no=60,missing=59
					59:[f1590<-0.0425217] yes=119,no=120,missing=119
						119:leaf=0.0227334
						120:leaf=-0.013973
					60:[f868<0.686318] yes=121,no=122,missing=121
						121:leaf=0.0454183
						122:leaf=0.0319948
				30:[f1057<0.0422897] yes=61,no=62,missing=61
					61:[f918<1.73183] yes=123,no=124,missing=123
						123:leaf=0.0318367
						124:leaf=-0.00801533
					62:[f819<-0.196349] yes=125,no=126,missing=125
						125:leaf=0.019079
						126:leaf=-0.00384623
booster[1]:
0:[f1840<-0.779371] yes=1,no=2,missing=1
	1:[f934<-0.197474] yes=3,no=4,missing=3
		3:[f945<-0.16804] yes=7,no=8,missing=7
			7:[f1798<-0.138186] yes=15,no=16,missing=15
				15:[f920<0.108353] yes=31,no=32,missing=31
					31:[f1355<0.413893] yes=63,no=64,missing=63
						63:leaf=-0.05
						64:leaf=0.00352419
					32:[f1585<-0.0561969] yes=65,no=66,missing=65
						65:leaf=-0.0200601
						66:leaf=0.0113688
				16:[f918<0.587634] yes=33,no=34,missing=33
					33:[f950<-0.17794] yes=67,no=68,missing=67
						67:leaf=-0.0260787
						68:leaf=0.00249395
					34:[f879<-0.321711] yes=69,no=70,missing=69
						69:leaf=-0.000594164
						70:leaf=-0.05
			8:[f15<-0.186241] yes=17,no=18,missing=17
				17:[f1840<-1.00449] yes=35,no=36,missing=35
					35:[f1471<-0.085101] yes=71,no=72,missing=71
						71:leaf=-0.00945165
						72:leaf=-0.0362499
					36:[f408<-0.185425] yes=73,no=74,missing=73
						73:leaf=0.0211065
						74:leaf=-0.00314253
				18:[f575<-0.490681] yes=37,no=38,missing=37
					37:[f73<-0.590477] yes=75,no=76,missing=75
						75:leaf=0.0134073
						76:leaf=-0.0182509
					38:[f666<-0.692978] yes=77,no=78,missing=77
						77:leaf=-0.00231852
						78:leaf=-0.05
		4:[f1840<-1.10125] yes=9,no=10,missing=9
			9:[f1451<-0.0871549] yes=19,no=20,missing=19
				19:[f1569<0.0518229] yes=39,no=40,missing=39
					39:[f630<-0.668694] yes=79,no=80,missing=79
						79:leaf=-0.00294889
						80:leaf=-0.0495642
					40:[f1289<-0.134624] yes=81,no=82,missing=81
						81:leaf=0.00709544
						82:leaf=-0.0291555
				20:[f1428<-0.0609516] yes=41,no=42,missing=41
					41:[f1242<-0.0709755] yes=83,no=84,missing=83
						83:leaf=-0.0105383
						84:leaf=0.0212006
					42:[f1512<1.32572] yes=85,no=86,missing=85
						85:leaf=-0.0375129
						86:leaf=0.00799942
			10:[f15<0.814428] yes=21,no=22,missing=21
				21:[f1840<-1.01707] yes=43,no=44,missing=43
					43:[f1793<-0.0493736] yes=87,no=88,missing=87
						87:leaf=0.00784438
						88:leaf=-0.0133993
					44:[f1182<-0.0049375] yes=89,no=90,missing=89
						89:leaf=0.0199467
						90:leaf=-0.00915855
				22:[f934<-0.0748133] yes=45,no=46,missing=45
					45:[f920<1.52046] yes=91,no=92,missing=91
						91:leaf=-0.0418026
						92:leaf=0.0143781
					46:[f1672<-0.0968069] yes=93,no=94,missing=93
						93:leaf=0.0132055
						94:leaf=-0.0134002
	2:[f1772<-0.322227] yes=5,no=6,missing=5
		5:[f853<-0.592191] yes=11,no=12,missing=11
			11:[f1754<-0.331112] yes=23,no=24,missing=23
				23:[f934<-0.221945] yes=47,no=48,missing=47
					47:[f1747<-0.564428] yes=95,no=96,missing=95
						95:leaf=-0.0274212
						96:leaf=-0.00241052
					48:[f1575<-0.0668424] yes=97,no=98,missing=97
						97:leaf=0.00102146
						98:leaf=0.0181737
				24:[f1306<-0.0830444] yes=49,no=50,missing=49
					49:[f945<-0.156478] yes=99,no=100,missing=99
						99:leaf=0.0157475
						100:leaf=0.0344863
					50:[f1780<-0.533388] yes=101,no=102,missing=101
						101:leaf=-0.00415726
						102:leaf=0.0163814
			12:[f1772<-0.394842] yes=25,no=26,missing=25
				25:[f918<0.620129] yes=51,no=52,missing=51
					51:[f1809<-0.534971] yes=103,no=104,missing=103
						103:leaf=-0.0283813
						104:leaf=-0.00761609
					52:[f1596<-0.0626616] yes=105,no=106,missing=105
						105:leaf=-0.0478494
						106:leaf=-0.0136251
				26:[f845<0.367386] yes=53,no=54,missing=53
					53:[f1747<-0.255658] yes=107,no=108,missing=107
						107:leaf=-0.00212029
						108:leaf=0.0133717
					54:[f874<0.274825] yes=109,no=110,missing=109
						109:leaf=0.000903648
						110:leaf=-0.0231969
		6:[f1817<0.32654] yes=13,no=14,missing=13
			13:[f845<0.410741] yes=27,no=28,missing=27
				27:[f1821<0.0833345] yes=55,no=56,missing=55
					55:[f1059<-0.0804259] yes=111,no=112,missing=111
						111:leaf=0.0205295
						112:leaf=0.00920085
					56:[f1672<-0.0936499] yes=113,no=114,missing=113
						113:leaf=0.0364308
						114:leaf=0.0233063
				28:[f1764<0.385919] yes=57,no=58,missing=57
					57:[f840<-0.634653] yes=115,no=116,missing=115
						115:leaf=-0.0230051
						116:leaf=-0.00168367
					58:[f851<2.25627] yes=117,no=118,missing=117
						117:leaf=0.0174851
						118:leaf=-0.0152928
			14:[f940<0.265128] yes=29,no=30,missing=29
				29:[f1817<1.28275] yes=59,no=60,missing=59
					59:[f898<1.0309] yes=119,no=120,missing=119
						119:leaf=0.0358277
						120:leaf=0.0142742
					60:[f878<1.53576] yes=121,no=122,missing=121
						121:leaf=0.0460981
						122:leaf=0.017001
				30:[f1787<-0.288983] yes=61,no=62,missing=61
					61:[f845<-0.731174] yes=123,no=124,missing=123
						123:leaf=0.021594
						124:leaf=-0.0109482
					62:[f820<1.39858] yes=125,no=126,missing=125
						125:leaf=0.0256158
						126:leaf=-0.00608245
booster[2]:
0:[f1840<-0.813559] yes=1,no=2,missing=1
	1:[f934<-0.206578] yes=3,no=4,missing=3
		3:[f945<-0.168036] yes=7,no=8,missing=7
			7:[f1798<-0.205602] yes=15,no=16,missing=15
				15:[f1099<0.232501] yes=31,no=32,missing=31
					31:[f1083<0.408574] yes=63,no=64,missing=63
						63:leaf=-0.05
						64:leaf=-0.00370962
					32:leaf=0.00658246
				16:[f15<0.21913] yes=33,no=34,missing=33
					33:[f1840<-1.00772] yes=67,no=68,missing=67
						67:leaf=-0.0310976
						68:leaf=-0.000988828
					34:[f463<-0.771479] yes=69,no=70,missing=69
						69:leaf=0.00602607
						70:leaf=-0.05
			8:[f15<-0.166895] yes=17,no=18,missing=17
				17:[f1451<-0.103545] yes=35,no=36,missing=35
					35:[f1822<-0.398562] yes=71,no=72,missing=71
						71:leaf=-0.0376759
						72:leaf=-0.0090726
					36:[f592<-0.289234] yes=73,no=74,missing=73
						73:leaf=0.0153352
						74:leaf=-0.00783337
				18:[f1188<-0.102977] yes=37,no=38,missing=37
					37:[f977<-0.279121] yes=75,no=76,missing=75
						75:leaf=0.0161883
						76:leaf=-0.0168472
					38:[f683<-0.557157] yes=77,no=78,missing=77
						77:leaf=0.00447215
						78:leaf=-0.05
		4:[f1840<-1.09996] yes=9,no=10,missing=9
			9:[f1451<-0.101314] yes=19,no=20,missing=19
				19:[f1787<-0.122917] yes=39,no=40,missing=39
					39:[f515<-0.870863] yes=79,no=80,missing=79
						79:leaf=0.00119338
						80:leaf=-0.05
					40:[f1838<0.580105] yes=81,no=82,missing=81
						81:leaf=-0.0330555
						82:leaf=0.0127634
				20:[f1183<-0.0396351] yes=41,no=42,missing=41
					41:[f948<0.019157] yes=83,no=84,missing=83
						83:leaf=-0.0101808
						84:leaf=0.0169004
					42:[f1631<-0.0405852] yes=85,no=86,missing=85
						85:leaf=-0.045588
						86:leaf=0.000994655
			10:[f934<-0.159796] yes=21,no=22,missing=21
				21:[f15<0.0798498] yes=43,no=44,missing=43
					43:[f1217<-0.0651657] yes=87,no=88,missing=87
						87:leaf=0.00300689
						88:leaf=-0.0266864
					44:[f1144<-0.259424] yes=89,no=90,missing=89
						89:leaf=-0.0063213
						90:leaf=-0.0443115
				22:[f1798<-0.111208] yes=45,no=46,missing=45
					45:[f879<-0.171359] yes=91,no=92,missing=91
						91:leaf=0.00305179
						92:leaf=-0.0257812
					46:[f878<0.785161] yes=93,no=94,missing=93
						93:leaf=0.0183668
						94:leaf=-0.00445125
	2:[f1772<-0.280265] yes=5,no=6,missing=5
		5:[f875<0.227557] yes=11,no=12,missing=11
			11:[f1817<-0.387646] yes=23,no=24,missing=23
				23:[f934<-0.18863] yes=47,no=48,missing=47
					47:[f1787<-0.47125] yes=95,no=96,missing=95
						95:leaf=-0.0221574
						96:leaf=-0.00213712
					48:[f1297<-0.136633] yes=97,no=98,missing=97
						97:leaf=0.0173551
						98:leaf=0.00125482
				24:[f898<-0.539201] yes=49,no=50,missing=49
					49:[f1787<-0.3085] yes=99,no=100,missing=99
						99:leaf=0.0131947
						100:leaf=0.0294853
					50:[f1667<-0.0740277] yes=101,no=102,missing=101
						101:leaf=0.0101096
						102:leaf=-0.0078178
			12:[f1817<-0.386164] yes=25,no=26,missing=25
				25:[f1794<-0.568357] yes=51,no=52,missing=51
					51:[f188<-0.766814] yes=103,no=104,missing=103
						103:leaf=0.000451584
						104:leaf=-0.05
					52:[f918<-0.752782] yes=105,no=106,missing=105
						105:leaf=-0.00797494
						106:leaf=-0.0347867
				26:[f918<0.524026] yes=53,no=54,missing=53
					53:[f1408<-0.0775981] yes=107,no=108,missing=107
						107:leaf=0.0105956
						108:leaf=-0.00933738
					54:[f904<-0.729557] yes=109,no=110,missing=109
						109:leaf=0.014427
						110:leaf=-0.0282454
		6:[f1817<0.414413] yes=13,no=14,missing=13
			13:[f845<0.208661] yes=27,no=28,missing=27
				27:[f1764<0.105524] yes=55,no=56,missing=55
					55:[f845<-0.696271] yes=111,no=112,missing=111
						111:leaf=0.0245493
						112:leaf=0.0112092
					56:[f1837<0.283756] yes=113,no=114,missing=113
						113:leaf=0.0346449
						114:leaf=0.0146725
				28:[f1764<0.486517] yes=57,no=58,missing=57
					57:[f840<-0.532763] yes=115,no=116,missing=115
						115:leaf=-0.0179319
						116:leaf=0.00567481
					58:[f1408<0.0419102] yes=117,no=118,missing=117
						117:leaf=0.0206737
						118:leaf=-0.00553457
			14:[f879<0.781556] yes=29,no=30,missing=29
				29:[f1798<-0.00179812] yes=59,no=60,missing=59
					59:[f1673<-0.0803606] yes=119,no=120,missing=119
						119:leaf=0.0330011
						120:leaf=0.0152985
					60:[f1837<0.414807] yes=121,no=122,missing=121
						121:leaf=0.0425801
						122:leaf=0.0239717
				30:[f1787<1.58508] yes=61,no=62,missing=61
					61:[f1840<-0.407503] yes=123,no=124,missing=123
						123:leaf=-0.0207358
						124:leaf=0.0104809
					62:[f878<0.756796] yes=125,no=126,missing=125
						125:leaf=0.0361851
						126:leaf=0.0164573
booster[3]:
0:[f1840<-0.779371] yes=1,no=2,missing=1
	1:[f934<-0.177314] yes=3,no=4,missing=3
		3:[f945<-0.181768] yes=7,no=8,missing=7
			7:[f1798<-0.208255] yes=15,no=16,missing=15
				15:[f946<-0.212564] yes=31,no=32,missing=31
					31:[f955<0.210212] yes=63,no=64,missing=63
						63:leaf=-0.05
						64:leaf=0.00640688
					32:[f1801<-0.266696] yes=65,no=66,missing=65
						65:leaf=-0.0469651
						66:leaf=-0.0149482
				16:[f918<0.605323] yes=33,no=34,missing=33
					33:[f880<0.580919] yes=67,no=68,missing=67
						67:leaf=-0.0147411
						68:leaf=-0.0439944
					34:[f541<2.50805] yes=69,no=70,missing=69
						69:leaf=-0.05
						70:leaf=0.00318814
			8:[f15<0.575396] yes=17,no=18,missing=17
				17:[f1840<-1.0103] yes=35,no=36,missing=35
					35:[f1569<-0.140882] yes=71,no=72,missing=71
						71:leaf=-0.0336449
						72:leaf=-0.00985263
					36:[f1298<-0.0677629] yes=73,no=74,missing=73
						73:leaf=0.0104263
						74:leaf=-0.0189411
				18:[f736<-0.641221] yes=37,no=38,missing=37
					37:[f1521<-0.121102] yes=75,no=76,missing=75
						75:leaf=0.0122032
						76:leaf=-0.0177387
					38:[f612<-0.663419] yes=77,no=78,missing=77
						77:leaf=0.003565
						78:leaf=-0.05
		4:[f1840<-1.12463] yes=9,no=10,missing=9
			9:[f1080<-0.0832749] yes=19,no=20,missing=19
				19:[f1451<-0.100958] yes=39,no=40,missing=39
					39:[f189<-0.735477] yes=79,no=80,missing=79
						79:leaf=0.00458629
						80:leaf=-0.0371592
					40:[f1114<-0.0743728] yes=81,no=82,missing=81
						81:leaf=0.0109572
						82:leaf=-0.0199623
				20:[f731<-0.722003] yes=41,no=42,missing=41
					41:[f700<-0.498953] yes=83,no=84,missing=83
						83:leaf=0.015892
						84:leaf=-0.0182587
					42:[f1139<0.553037] yes=85,no=86,missing=85
						85:leaf=-0.05
						86:leaf=-0.00553203
			10:[f1840<-0.960629] yes=21,no=22,missing=21
				21:[f1828<0.317642] yes=43,no=44,missing=43
					43:[f878<0.689116] yes=87,no=88,missing=87
						87:leaf=-0.00605008
						88:leaf=-0.0286813
					44:[f948<-0.118234] yes=89,no=90,missing=89
						89:leaf=-0.000695896
						90:leaf=0.0236947
				22:[f1182<0.140997] yes=45,no=46,missing=45
					45:[f15<1.94663] yes=91,no=92,missing=91
						91:leaf=0.019752
						92:leaf=-0.0173958
					46:[f1770<0.834543] yes=93,no=94,missing=93
						93:leaf=-0.0318385
						94:leaf=0.0081507
	2:[f1772<-0.332957] yes=5,no=6,missing=5
		5:[f1821<-0.365817] yes=11,no=12,missing=11
			11:[f896<0.380982] yes=23,no=24,missing=23
				23:[f1817<-0.428202] yes=47,no=48,missing=47
					47:[f934<-0.228345] yes=95,no=96,missing=95
						95:leaf=-0.0223687
						96:leaf=-0.00374908
					48:[f945<-0.225616] yes=97,no=98,missing=97
						97:leaf=-0.012359
						98:leaf=0.00725162
				24:[f880<1.03151] yes=49,no=50,missing=49
					49:[f1747<-0.43724] yes=99,no=100,missing=99
						99:leaf=-0.0305449
						100:leaf=-0.00851084
					50:[f1450<0.265721] yes=101,no=102,missing=101
						101:leaf=-0.05
						102:leaf=0.00159531
			12:[f1408<-0.0417019] yes=25,no=26,missing=25
				25:[f1780<-0.323651] yes=51,no=52,missing=51
					51:[f1575<-0.0625414] yes=103,no=104,missing=103
						103:leaf=0.00288247
						104:leaf=0.0207112
					52:[f898<-0.169447] yes=105,no=106,missing=105
						105:leaf=0.0297679
						106:leaf=0.00677872
				26:[f853<-0.403994] yes=53,no=54,missing=53
					53:[f1754<-0.306497] yes=107,no=108,missing=107
						107:leaf=-0.005929
						108:leaf=0.0118381
					54:[f948<-0.234778] yes=109,no=110,missing=109
						109:leaf=-0.0229042
						110:leaf=-0.00469603
		6:[f1747<0.746308] yes=13,no=14,missing=13
			13:[f845<0.211254] yes=27,no=28,missing=27
				27:[f1817<0.0156904] yes=55,no=56,missing=55
					55:[f898<-0.647172] yes=111,no=112,missing=111
						111:leaf=0.0220084
						112:leaf=0.0105723
					56:[f1837<0.0162549] yes=113,no=114,missing=113
						113:leaf=0.0311392
						114:leaf=0.0174879
				28:[f1764<-0.232556] yes=57,no=58,missing=57
					57:[f1359<0.151323] yes=115,no=116,missing=115
						115:leaf=-0.0275341
						116:leaf=0.0164108
					58:[f1837<-0.300726] yes=117,no=118,missing=117
						117:leaf=0.0159618
						118:leaf=0.00128593
			14:[f879<1.12659] yes=29,no=30,missing=29
				29:[f967<0.379638] yes=59,no=60,missing=59
					59:[f1747<1.68948] yes=119,no=120,missing=119
						119:leaf=0.0359283
						120:leaf=0.0479366
					60:[f1570<-0.217243] yes=121,no=122,missing=121
						121:leaf=-0.00423018
						122:leaf=0.0239567
				30:[f1840<-0.3559] yes=61,no=62,missing=61
					61:[f992<-0.236158] yes=123,no=124,missing=123
						123:leaf=-0.0254611
						124:leaf=0.0149433
					62:[f650<-0.227566] yes=125,no=126,missing=125
						125:leaf=0.000409931
						126:leaf=0.0288363
booster[4]:
0:[f1840<-0.778081] yes=1,no=2,missing=1
	1:[f934<-0.178288] yes=3,no=4,missing=3
		3:[f1798<-0.230629] yes=7,no=8,missing=7
			7:[f946<-0.231538] yes=15,no=16,missing=15
				15:[f955<0.0902791] yes=31,no=32,missing=31
					31:[f923<-0.18251] yes=63,no=64,missing=63
						63:leaf=-0.05
						64:leaf=-0.0175485
					32:[f1506<-0.140769] yes=65,no=66,missing=65
						65:leaf=-0.00890147
						66:leaf=0.0174118
				16:[f1840<-0.978045] yes=33,no=34,missing=33
					33:[f1803<-0.249406] yes=67,no=68,missing=67
						67:leaf=-0.0435135
						68:leaf=-0.0156727
					34:[f869<-0.00539219] yes=69,no=70,missing=69
						69:leaf=0.00883426
						70:leaf=-0.0240465
			8:[f15<-0.345446] yes=17,no=18,missing=17
				17:[f1840<-0.946115] yes=35,no=36,missing=35
					35:[f868<-0.146117] yes=71,no=72,missing=71
						71:leaf=-0.00137576
						72:leaf=-0.0255247
					36:[f923<-0.224166] yes=73,no=74,missing=73
						73:leaf=-0.000972988
						74:leaf=0.0217333
				18:[f4<0.206609] yes=37,no=38,missing=37
					37:[f1827<-0.0896881] yes=75,no=76,missing=75
						75:leaf=-0.0167546
						76:leaf=-0.0390646
					38:[f515<-0.886387] yes=77,no=78,missing=77
						77:leaf=0.00633378
						78:leaf=-0.05
		4:[f1840<-1.09996] yes=9,no=10,missing=9
			9:[f1097<-0.222505] yes=19,no=20,missing=19
				19:[f1569<0.835542] yes=39,no=40,missing=39
					39:[f917<-0.956956] yes=79,no=80,missing=79
						79:leaf=-0.00487256
						80:leaf=-0.05
					40:[f842<0.0147905] yes=81,no=82,missing=81
						81:leaf=0.0138297
						82:leaf=-0.0162685
				20:[f1764<-0.0556361] yes=41,no=42,missing=41
					41:[f1386<-0.0596355] yes=83,no=84,missing=83
						83:leaf=-0.00478847
						84:leaf=-0.0402549
					42:[f1734<-0.158314] yes=85,no=86,missing=85
						85:leaf=0.0101292
						86:leaf=-0.0178269
			10:[f1840<-0.961919] yes=21,no=22,missing=21
				21:[f1482<-0.0945701] yes=43,no=44,missing=43
					43:[f879<0.477321] yes=87,no=88,missing=87
						87:leaf=-0.00640794
						88:leaf=-0.0296099
					44:[f1832<-0.46914] yes=89,no=90,missing=89
						89:leaf=-0.0161529
						90:leaf=0.0148813
				22:[f1224<-0.0561457] yes=45,no=46,missing=45
					45:[f15<0.956279] yes=91,no=92,missing=91
						91:leaf=0.0245894
						92:leaf=-0.010185
					46:[f1472<-0.0732454] yes=93,no=94,missing=93
						93:leaf=-0.0189185
						94:leaf=0.0145827
	2:[f1821<-0.281962] yes=5,no=6,missing=5
		5:[f1772<-0.365952] yes=11,no=12,missing=11
			11:[f1465<0.00230754] yes=23,no=24,missing=23
				23:[f934<-0.221269] yes=47,no=48,missing=47
					47:[f1764<-0.53256] yes=95,no=96,missing=95
						95:leaf=-0.0235505
						96:leaf=-0.0046984
					48:[f1575<-0.0590831] yes=97,no=98,missing=97
						97:leaf=-0.000427483
						98:leaf=0.0181508
				24:[f946<-0.242306] yes=49,no=50,missing=49
					49:[f1283<-0.0809564] yes=99,no=100,missing=99
						99:leaf=-0.0423159
						100:leaf=-0.0197766
					50:[f1055<-0.0925843] yes=101,no=102,missing=101
						101:leaf=-0.0205423
						102:leaf=0.000962357
			12:[f890<-0.339327] yes=25,no=26,missing=25
				25:[f1809<-0.315685] yes=51,no=52,missing=51
					51:[f1768<-0.382799] yes=103,no=104,missing=103
						103:leaf=0.00375405
						104:leaf=0.0168456
					52:[f1054<-0.139092] yes=105,no=106,missing=105
						105:leaf=0.0324104
						106:leaf=0.00967905
				26:[f918<0.624354] yes=53,no=54,missing=53
					53:[f1747<-0.258947] yes=107,no=108,missing=107
						107:leaf=-0.00261767
						108:leaf=0.0165145
					54:[f1069<-0.336013] yes=109,no=110,missing=109
						109:leaf=0.0110281
						110:leaf=-0.0197566
		6:[f1817<0.255792] yes=13,no=14,missing=13
			13:[f845<-0.0917213] yes=27,no=28,missing=27
				27:[f1764<-0.0580663] yes=55,no=56,missing=55
					55:[f845<-0.789371] yes=111,no=112,missing=111
						111:leaf=0.0223946
						112:leaf=0.00924419
					56:[f1408<-0.0401952] yes=113,no=114,missing=113
						113:leaf=0.0330992
						114:leaf=0.0166578
				28:[f1809<0.427598] yes=57,no=58,missing=57
					57:[f840<-0.692613] yes=115,no=116,missing=115
						115:leaf=-0.0142069
						116:leaf=0.00304253
					58:[f879<0.662216] yes=117,no=118,missing=117
						117:leaf=0.0247188
						118:leaf=0.0103503
			14:[f940<1.40604] yes=29,no=30,missing=29
				29:[f1840<-0.54264] yes=59,no=60,missing=59
					59:[f944<-0.168914] yes=119,no=120,missing=119
						119:leaf=-0.00831595
						120:leaf=0.0221207
					60:[f1747<2.07796] yes=121,no=122,missing=121
						121:leaf=0.0312003
						122:leaf=0.0439672
				30:[f1780<1.03049] yes=61,no=62,missing=61
					61:[f819<0.506935] yes=123,no=124,missing=123
						123:leaf=0.0035312
						124:leaf=-0.024556
					62:[f1749<5.46113] yes=125,no=126,missing=125
						125:leaf=0.0254637
						126:leaf=-0.00901717
booster[5]:
0:[f1840<-0.775501] yes=1,no=2,missing=1
	1:[f934<-0.195328] yes=3,no=4,missing=3
		3:[f1798<-0.309441] yes=7,no=8,missing=7
			7:[f946<-0.235045] yes=15,no=16,missing=15
				15:[f1815<0.703144] yes=31,no=32,missing=31
					31:[f891<-0.755522] yes=63,no=64,missing=63
						63:leaf=0.00849964
						64:leaf=-0.05
					32:[f1125<-0.176863] yes=65,no=66,missing=65
						65:leaf=-0.0113353
						66:leaf=0.0133296
				16:[f1840<-0.975787] yes=33,no=34,missing=33
					33:[f27<0.0449824] yes=67,no=68,missing=67
						67:leaf=-0.021829
						68:leaf=-0.0497804
					34:[f913<-0.585325] yes=69,no=70,missing=69
						69:leaf=0.0148349
						70:leaf=-0.0172668
			8:[f15<0.324056] yes=17,no=18,missing=17
				17:[f1803<-0.281101] yes=35,no=36,missing=35
					35:[f1840<-1.00772] yes=71,no=72,missing=71
						71:leaf=-0.0370969
						72:leaf=-0.00584761
					36:[f15<-0.795323] yes=73,no=74,missing=73
						73:leaf=0.00584233
						74:leaf=-0.0160784
				18:[f1481<1.55464] yes=37,no=38,missing=37
					37:[f816<2.84135] yes=75,no=76,missing=75
						75:leaf=-0.05
						76:leaf=-9.04314e-05
					38:[f1206<-0.130713] yes=77,no=78,missing=77
						77:leaf=0.0158685
						78:leaf=-0.0107699
		4:[f1839<-0.893312] yes=9,no=10,missing=9
			9:[f1451<-0.0575638] yes=19,no=20,missing=19
				19:[f792<-0.489946] yes=39,no=40,missing=39
					39:[f1828<-0.1757] yes=79,no=80,missing=79
						79:leaf=-0.0164428
						80:leaf=0.0150638
					40:[f122<1.62572] yes=81,no=82,missing=81
						81:leaf=-0.05
						82:leaf=-0.00172293
				20:[f1453<-0.170118] yes=41,no=42,missing=41
					41:[f1421<-0.0884523] yes=83,no=84,missing=83
						83:leaf=0.00421818
						84:leaf=-0.0339198
					42:[f1414<-0.054147] yes=85,no=86,missing=85
						85:leaf=0.0227219
						86:leaf=-0.0109081
			10:[f1840<-1.01707] yes=21,no=22,missing=21
				21:[f1798<-0.189766] yes=43,no=44,missing=43
					43:[f868<-0.636957] yes=87,no=88,missing=87
						87:leaf=-0.00619409
						88:leaf=-0.0303153
					44:[f852<-0.434159] yes=89,no=90,missing=89
						89:leaf=0.0141555
						90:leaf=-0.00728821
				22:[f15<0.925268] yes=45,no=46,missing=45
					45:[f840<-0.652243] yes=91,no=92,missing=91
						91:leaf=0.000106842
						92:leaf=0.0206548
					46:[f240<-0.361229] yes=93,no=94,missing=93
						93:leaf=-0.0336158
						94:leaf=0.00116713
	2:[f1821<-0.280021] yes=5,no=6,missing=5
		5:[f1817<-0.313127] yes=11,no=12,missing=11
			11:[f934<-0.177942] yes=23,no=24,missing=23
				23:[f918<0.731709] yes=47,no=48,missing=47
					47:[f1465<-0.0031296] yes=95,no=96,missing=95
						95:leaf=-0.0064814
						96:leaf=-0.0236267
					48:[f820<-0.559472] yes=97,no=98,missing=97
						97:leaf=0.00613696
						98:leaf=-0.0407399
				24:[f1575<0.00548274] yes=49,no=50,missing=49
					49:[f1764<-0.573828] yes=99,no=100,missing=99
						99:leaf=-0.0167807
						100:leaf=0.00586668
					50:[f825<1.25323] yes=101,no=102,missing=101
						101:leaf=0.0320865
						102:leaf=-0.00825659
			12:[f898<-0.278794] yes=25,no=26,missing=25
				25:[f1054<-0.0893461] yes=51,no=52,missing=51
					51:[f1787<-0.223874] yes=103,no=104,missing=103
						103:leaf=0.0190415
						104:leaf=0.0341758
					52:[f840<-0.405202] yes=105,no=106,missing=105
						105:leaf=-0.00881766
						106:leaf=0.0162557
				26:[f1817<0.565784] yes=53,no=54,missing=53
					53:[f875<1.31189] yes=107,no=108,missing=107
						107:leaf=0.00601756
						108:leaf=-0.0143603
					54:[f823<-1.10763] yes=109,no=110,missing=109
						109:leaf=-0.0136309
						110:leaf=0.0285612
		6:[f1747<0.226204] yes=13,no=14,missing=13
			13:[f879<-0.0159303] yes=27,no=28,missing=27
				27:[f1837<-0.120856] yes=55,no=56,missing=55
					55:[f840<-0.953071] yes=111,no=112,missing=111
						111:leaf=0.0106456
						112:leaf=0.0269197
					56:[f1055<-0.0953327] yes=113,no=114,missing=113
						113:leaf=0.00279791
						114:leaf=0.0175174
				28:[f840<-0.46396] yes=57,no=58,missing=57
					57:[f1596<-0.0649188] yes=115,no=116,missing=115
						115:leaf=-0.0168831
						116:leaf=0.00168991
					58:[f948<-0.228997] yes=117,no=118,missing=117
						117:leaf=-0.00478624
						118:leaf=0.0113138
			14:[f879<0.664681] yes=29,no=30,missing=29
				29:[f1816<0.022964] yes=59,no=60,missing=59
					59:[f967<4.34206] yes=119,no=120,missing=119
						119:leaf=0.036513
						120:leaf=-0.00722904
					60:[f1807<-0.427815] yes=121,no=122,missing=121
						121:leaf=-0.00998934
						122:leaf=0.0241357
				30:[f1832<1.96328] yes=61,no=62,missing=61
					61:[f912<0.483438] yes=123,no=124,missing=123
						123:leaf=0.0132656
						124:leaf=-0.00781677
					62:[f845<2.01726] yes=125,no=126,missing=125
						125:leaf=0.0313252
						126:leaf=0.0129965
booster[6]:
0:[f1840<-0.852906] yes=1,no=2,missing=1
	1:[f945<-0.172468] yes=3,no=4,missing=3
		3:[f946<-0.236696] yes=7,no=8,missing=7
			7:[f1798<0.0328205] yes=15,no=16,missing=15
				15:[f1636<0.00953923] yes=31,no=32,missing=31
					31:[f1100<0.791937] yes=63,no=64,missing=63
						63:leaf=-0.05
						64:leaf=0.00357952
					32:[f128<-0.521268] yes=65,no=66,missing=65
						65:leaf=0.0106016
						66:leaf=-0.0278212
				16:[f27<-0.17738] yes=33,no=34,missing=33
					33:[f1827<0.165606] yes=67,no=68,missing=67
						67:leaf=-0.00198495
						68:leaf=-0.032914
					34:[f852<-0.905929] yes=69,no=70,missing=69
						69:leaf=0.00309584
						70:leaf=-0.0463376
			8:[f26<-0.670285] yes=17,no=18,missing=17
				17:[f1767<-0.352852] yes=35,no=36,missing=35
					35:[f1840<-0.963209] yes=71,no=72,missing=71
						71:leaf=-0.0358267
						72:leaf=0.00544989
					36:[f1827<0.057833] yes=73,no=74,missing=73
						73:leaf=0.0109988
						74:leaf=-0.0168261
				18:[f1582<-0.0486453] yes=37,no=38,missing=37
					37:[f1356<-0.0787036] yes=75,no=76,missing=75
						75:leaf=-0.0392893
						76:leaf=-0.00442049
					38:[f694<-0.192128] yes=77,no=78,missing=77
						77:leaf=0.0165738
						78:leaf=-0.0233035
		4:[f1798<-0.153393] yes=9,no=10,missing=9
			9:[f879<-0.267154] yes=19,no=20,missing=19
				19:[f1338<-0.213554] yes=39,no=40,missing=39
					39:[f1097<-0.226906] yes=79,no=80,missing=79
						79:leaf=-0.0477257
						80:leaf=-0.0121952
					40:[f1389<-0.0898827] yes=81,no=82,missing=81
						81:leaf=0.00885979
						82:leaf=-0.0127274
				20:[f1425<0.0469134] yes=41,no=42,missing=41
					41:[f73<-0.381447] yes=83,no=84,missing=83
						83:leaf=-0.0232301
						84:leaf=-0.05
					42:[f945<-0.0967714] yes=85,no=86,missing=85
						85:leaf=-0.0242896
						86:leaf=0.0107913
			10:[f1827<0.249633] yes=21,no=22,missing=21
				21:[f879<0.484384] yes=43,no=44,missing=43
					43:[f1059<-0.102005] yes=87,no=88,missing=87
						87:leaf=0.0224202
						88:leaf=0.00174203
					44:[f1783<0.242569] yes=89,no=90,missing=89
						89:leaf=-0.0232008
						90:leaf=0.00531496
				22:[f1554<-0.063943] yes=45,no=46,missing=45
					45:[f1840<-1.0232] yes=91,no=92,missing=91
						91:leaf=-0.0297126
						92:leaf=0.000479156
					46:[f410<0.759564] yes=93,no=94,missing=93
						93:leaf=0.0149477
						94:leaf=-0.0126595
	2:[f1821<-0.264533] yes=5,no=6,missing=5
		5:[f1817<-0.380028] yes=11,no=12,missing=11
			11:[f875<-0.124181] yes=23,no=24,missing=23
				23:[f948<-0.22838] yes=47,no=48,missing=47
					47:[f1764<-0.522586] yes=95,no=96,missing=95
						95:leaf=-0.0207426
						96:leaf=-0.00361113
					48:[f1780<-0.535772] yes=97,no=98,missing=97
						97:leaf=-0.00512357
						98:leaf=0.0101366
				24:[f1794<-0.567067] yes=49,no=50,missing=49
					49:[f852<-1.06365] yes=99,no=100,missing=99
						99:leaf=0.00246805
						100:leaf=-0.05
					50:[f845<1.04269] yes=101,no=102,missing=101
						101:leaf=-0.015619
						102:leaf=-0.034692
			12:[f918<1.02081] yes=25,no=26,missing=25
				25:[f1817<-0.0163803] yes=51,no=52,missing=51
					51:[f898<-0.116861] yes=103,no=104,missing=103
						103:leaf=0.0123317
						104:leaf=-0.00305784
					52:[f1840<-0.723898] yes=105,no=106,missing=105
						105:leaf=-0.0128704
						106:leaf=0.0234687
				26:[f950<-0.160624] yes=53,no=54,missing=53
					53:[f904<-0.484859] yes=107,no=108,missing=107
						107:leaf=-0.00214906
						108:leaf=-0.0376071
					54:[f1193<-0.107492] yes=109,no=110,missing=109
						109:leaf=0.017125
						110:leaf=-0.00727055
		6:[f1817<0.68146] yes=13,no=14,missing=13
			13:[f868<0.286856] yes=27,no=28,missing=27
				27:[f1747<0.0905251] yes=55,no=56,missing=55
					55:[f890<-0.560414] yes=111,no=112,missing=111
						111:leaf=0.020463
						112:leaf=0.00840153
					56:[f967<2.1053] yes=113,no=114,missing=113
						113:leaf=0.0281299
						114:leaf=0.000902209
				28:[f1809<0.48417] yes=57,no=58,missing=57
					57:[f354<-0.335258] yes=115,no=116,missing=115
						115:leaf=-0.0201242
						116:leaf=0.000125052
					58:[f934<-0.210603] yes=117,no=118,missing=117
						117:leaf=-0.00123747
						118:leaf=0.016711
			14:[f868<0.256885] yes=29,no=30,missing=29
				29:[f967<1.83233] yes=59,no=60,missing=59
					59:[f812<2.02896] yes=119,no=120,missing=119
						119:leaf=0.0377936
						120:leaf=0.00239799
					60:[f194<-0.131718] yes=121,no=122,missing=121
						121:leaf=0.020824
						122:leaf=-0.01158
				30:[f1787<1.56613] yes=61,no=62,missing=61
					61:[f918<0.305446] yes=123,no=124,missing=123
						123:leaf=0.01572
						124:leaf=-0.00609481
					62:[f878<1.83887] yes=125,no=126,missing=125
						125:leaf=0.0310966
						126:leaf=0.00595652
booster[7]:
0:[f1840<-0.939342] yes=1,no=2,missing=1
	1:[f934<-0.193843] yes=3,no=4,missing=3
		3:[f945<-0.174045] yes=7,no=8,missing=7
			7:[f946<-0.240782] yes=15,no=16,missing=15
				15:[f1798<0.523462] yes=31,no=32,missing=31
					31:[f1453<0.792165] yes=63,no=64,missing=63
						63:leaf=-0.05
						64:leaf=-0.0198168
					32:[f507<-0.47376] yes=65,no=66,missing=65
						65:leaf=0.00858042
						66:leaf=-0.0276554
				16:[f1769<-0.399645] yes=33,no=34,missing=33
					33:[f1174<-0.0134152] yes=67,no=68,missing=67
						67:leaf=-0.0492219
						68:leaf=0.00555924
					34:[f880<0.180372] yes=69,no=70,missing=69
						69:leaf=-0.00792646
						70:leaf=-0.0344898
			8:[f15<-0.513807] yes=17,no=18,missing=17
				17:[f1569<-0.0260269] yes=35,no=36,missing=35
					35:[f934<-0.226361] yes=71,no=72,missing=71
						71:leaf=-0.0255585
						72:leaf=-0.000425633
					36:[f154<0.237153] yes=73,no=74,missing=73
						73:leaf=0.0191057
						74:leaf=-0.0145801
				18:[f988<-0.290963] yes=37,no=38,missing=37
					37:[f364<0.437915] yes=75,no=76,missing=75
						75:leaf=-0.0200799
						76:leaf=0.014085
					38:[f675<-0.536672] yes=77,no=78,missing=77
						77:leaf=-0.00602282
						78:leaf=-0.0476118
		4:[f1839<-0.928746] yes=9,no=10,missing=9
			9:[f1084<-0.110386] yes=19,no=20,missing=19
				19:[f1575<-0.0541999] yes=39,no=40,missing=39
					39:[f431<-0.567088] yes=79,no=80,missing=79
						79:leaf=0.0023673
						80:leaf=-0.0381554
					40:[f1414<-0.160374] yes=81,no=82,missing=81
						81:leaf=0.0247226
						82:leaf=-0.00879441
				20:[f1838<0.500393] yes=41,no=42,missing=41
					41:[f521<-0.763413] yes=83,no=84,missing=83
						83:leaf=0.00661172
						84:leaf=-0.05
					42:leaf=0.00812838
			10:[f1798<-0.339568] yes=21,no=22,missing=21
				21:[f879<-0.44236] yes=43,no=44,missing=43
					43:[f1809<-0.4606] yes=87,no=88,missing=87
						87:leaf=-0.0199989
						88:leaf=0.00193413
					44:[f1462<0.202458] yes=89,no=90,missing=89
						89:leaf=-0.0479795
						90:leaf=-0.000614019
				22:[f879<0.604386] yes=45,no=46,missing=45
					45:[f1809<1.20395] yes=91,no=92,missing=91
						91:leaf=0.00204614
						92:leaf=0.0253004
					46:[f1798<0.605663] yes=93,no=94,missing=93
						93:leaf=-0.0285595
						94:leaf=0.000570467
	2:[f1821<-0.323853] yes=5,no=6,missing=5
		5:[f934<-0.187556] yes=11,no=12,missing=11
			11:[f918<0.603191] yes=23,no=24,missing=23
				23:[f1764<-0.486916] yes=47,no=48,missing=47
					47:[f923<-0.248017] yes=95,no=96,missing=95
						95:leaf=-0.0254183
						96:leaf=-0.00628304
					48:[f1838<-0.413228] yes=97,no=98,missing=97
						97:leaf=-0.00873193
						98:leaf=0.0077495
				24:[f956<-0.225181] yes=49,no=50,missing=49
					49:[f1787<-0.034926] yes=99,no=100,missing=99
						99:leaf=-0.047584
						100:leaf=-0.0119542
					50:[f732<-0.378118] yes=101,no=102,missing=101
						101:leaf=-0.0265062
						102:leaf=-0.00256392
			12:[f1570<-0.249031] yes=25,no=26,missing=25
				25:[f1039<-0.167068] yes=51,no=52,missing=51
					51:[f1837<-0.33919] yes=103,no=104,missing=103
						103:leaf=0.0141903
						104:leaf=-0.00397668
					52:[f1459<-0.0704886] yes=105,no=106,missing=105
						105:leaf=-0.0155159
						106:leaf=0.00723854
				26:[f845<0.200271] yes=53,no=54,missing=53
					53:[f1054<0.109203] yes=107,no=108,missing=107
						107:leaf=0.0214627
						108:leaf=0.00266129
					54:[f1365<0.110742] yes=109,no=110,missing=109
						109:leaf=-0.0138257
						110:leaf=0.0215764
		6:[f1764<0.679626] yes=13,no=14,missing=13
			13:[f845<-0.538561] yes=27,no=28,missing=27
				27:[f1764<-0.147061] yes=55,no=56,missing=55
					55:[f845<-0.915602] yes=111,no=112,missing=111
						111:leaf=0.0226901
						112:leaf=0.00847896
					56:[f1837<0.129426] yes=113,no=114,missing=113
						113:leaf=0.0336832
						114:leaf=0.0130922
				28:[f1764<-0.253596] yes=57,no=58,missing=57
					57:[f1548<0.43549] yes=115,no=116,missing=115
						115:leaf=-0.0117194
						116:leaf=0.0177425
					58:[f868<0.92942] yes=117,no=118,missing=117
						117:leaf=0.0108923
						118:leaf=-0.00867125
			14:[f879<0.765517] yes=29,no=30,missing=29
				29:[f845<-0.0718447] yes=59,no=60,missing=59
					59:[f1827<0.584795] yes=119,no=120,missing=119
						119:leaf=0.0391124
						120:leaf=0.0146991
					60:[f1809<1.38896] yes=121,no=122,missing=121
						121:leaf=0.019428
						122:leaf=0.0342417
				30:[f1764<2.82396] yes=61,no=62,missing=61
					61:[f230<0.00731882] yes=123,no=124,missing=123
						123:leaf=-0.00416141
						124:leaf=0.0154124
					62:[f1840<-0.807108] yes=125,no=126,missing=125
						125:leaf=-0.0104575
						126:leaf=0.0299656
booster[8]:
0:[f1840<-0.771631] yes=1,no=2,missing=1
	1:[f945<-0.165812] yes=3,no=4,missing=3
		3:[f1798<-0.315539] yes=7,no=8,missing=7
			7:[f924<-0.227258] yes=15,no=16,missing=15
				15:[f992<-0.0882263] yes=31,no=32,missing=31
					31:[f1155<-0.0120927] yes=63,no=64,missing=63
						63:leaf=-0.05
						64:leaf=0.00833483
					32:[f1027<-0.218521] yes=65,no=66,missing=65
						65:leaf=0.0105801
						66:leaf=-0.0261691
				16:[f879<-0.451781] yes=33,no=34,missing=33
					33:[f1464<-0.123952] yes=67,no=68,missing=67
						67:leaf=-0.0054558
						68:leaf=-0.0310919
					34:[f73<-0.482062] yes=69,no=70,missing=69
						69:leaf=-0.0108642
						70:leaf=-0.0492293
			8:[f26<-0.510622] yes=17,no=18,missing=17
				17:[f1827<-0.0599748] yes=35,no=36,missing=35
					35:[f918<0.0464342] yes=71,no=72,missing=71
						71:leaf=0.0118029
						72:leaf=-0.020627
					36:[f1099<-0.0620612] yes=73,no=74,missing=73
						73:leaf=-0.0292514
						74:leaf=0.000193862
				18:[f1669<-0.150502] yes=37,no=38,missing=37
					37:[f1451<-0.100191] yes=75,no=76,missing=75
						75:leaf=-0.0378659
						76:leaf=-0.010265
					38:[f45<-0.768031] yes=77,no=78,missing=77
						77:leaf=-0.0016778
						78:leaf=-0.05
		4:[f1840<-1.00417] yes=9,no=10,missing=9
			9:[f1097<-0.215502] yes=19,no=20,missing=19
				19:[f967<-0.172677] yes=39,no=40,missing=39
					39:[f31<-0.106726] yes=79,no=80,missing=79
						79:leaf=-0.00602606
						80:leaf=-0.0292505
					40:[f423<-0.714742] yes=81,no=82,missing=81
						81:leaf=0.00197506
						82:leaf=-0.0439726
				20:[f867<0.300352] yes=41,no=42,missing=41
					41:[f1451<-0.101038] yes=83,no=84,missing=83
						83:leaf=-0.00757686
						84:leaf=0.012089
					42:[f1482<-0.095052] yes=85,no=86,missing=85
						85:leaf=-0.0284885
						86:leaf=0.00447637
			10:[f918<0.547677] yes=21,no=22,missing=21
				21:[f840<-0.926727] yes=43,no=44,missing=43
					43:[f536<-0.385664] yes=87,no=88,missing=87
						87:leaf=0.00955717
						88:leaf=-0.0210208
					44:[f1841<-0.317185] yes=89,no=90,missing=89
						89:leaf=0.0226271
						90:leaf=-0.000228444
				22:[f946<-0.185597] yes=45,no=46,missing=45
					45:[f1596<-0.0178785] yes=91,no=92,missing=91
						91:leaf=-0.0362152
						92:leaf=0.00254165
					46:[f1828<0.478469] yes=93,no=94,missing=93
						93:leaf=-0.00652117
						94:leaf=0.0238562
	2:[f1817<-0.12897] yes=5,no=6,missing=5
		5:[f875<-0.0761271] yes=11,no=12,missing=11
			11:[f1809<-0.482593] yes=23,no=24,missing=23
				23:[f890<-0.874607] yes=47,no=48,missing=47
					47:[f1764<-0.587319] yes=95,no=96,missing=95
						95:leaf=-0.0100579
						96:leaf=0.0093969
					48:[f1365<0.0364774] yes=97,no=98,missing=97
						97:leaf=-0.0141478
						98:leaf=0.0166555
				24:[f1465<-0.0301695] yes=49,no=50,missing=49
					49:[f840<-0.851944] yes=99,no=100,missing=99
						99:leaf=0.00346434
						100:leaf=0.0171631
					50:[f1568<-0.112366] yes=101,no=102,missing=101
						101:leaf=-0.00858779
						102:leaf=0.0118744
			12:[f1817<-0.445312] yes=25,no=26,missing=25
				25:[f875<1.17089] yes=51,no=52,missing=51
					51:[f481<0.0815537] yes=103,no=104,missing=103
						103:leaf=-0.0328471
						104:leaf=-0.00358948
					52:[f1764<-0.403583] yes=105,no=106,missing=105
						105:leaf=-0.05
						106:leaf=0.00216423
				26:[f853<1.40161] yes=53,no=54,missing=53
					53:[f1580<-0.025281] yes=107,no=108,missing=107
						107:leaf=-0.00719049
						108:leaf=0.0110176
					54:[f1747<-0.308123] yes=109,no=110,missing=109
						109:leaf=-0.0322423
						110:leaf=-0.00996246
		6:[f868<0.285374] yes=13,no=14,missing=13
			13:[f1809<0.972561] yes=27,no=28,missing=27
				27:[f967<0.101626] yes=55,no=56,missing=55
					55:[f890<-0.598037] yes=111,no=112,missing=111
						111:leaf=0.0300935
						112:leaf=0.0191294
					56:[f1272<-0.0645492] yes=113,no=114,missing=113
						113:leaf=0.00175023
						114:leaf=0.0180929
				28:[f807<0.974288] yes=57,no=58,missing=57
					57:[f329<-0.819517] yes=115,no=116,missing=115
						115:leaf=0.0118658
						116:leaf=0.0385634
					58:[f1048<-0.142788] yes=117,no=118,missing=117
						117:leaf=-0.00961244
						118:leaf=0.0239333
			14:[f1787<1.3817] yes=29,no=30,missing=29
				29:[f840<-0.375471] yes=59,no=60,missing=59
					59:[f446<0.120941] yes=119,no=120,missing=119
						119:leaf=0.00209797
						120:leaf=-0.0158655
					60:[f878<0.646126] yes=121,no=122,missing=121
						121:leaf=0.0162432
						122:leaf=-0.00228279
				30:[f845<1.54205] yes=61,no=62,missing=61
					61:[f1054<1.62093] yes=123,no=124,missing=123
						123:leaf=0.0292245
						124:leaf=0.00713019
					62:[f1774<1.07244] yes=125,no=126,missing=125
						125:leaf=0.00403863
						126:leaf=0.0242699
booster[9]:
0:[f1840<-0.781306] yes=1,no=2,missing=1
	1:[f1798<-0.327161] yes=3,no=4,missing=3
		3:[f934<-0.206325] yes=7,no=8,missing=7
			7:[f946<-0.246189] yes=15,no=16,missing=15
				15:[f881<-0.973887] yes=31,no=32,missing=31
					31:leaf=0.00885306
					32:[f1533<1.40223] yes=65,no=66,missing=65
						65:leaf=-0.05
						66:leaf=0.00595465
				16:[f27<0.0168167] yes=33,no=34,missing=33
					33:[f1253<-0.0516033] yes=67,no=68,missing=67
						67:leaf=-0.023447
						68:leaf=0.00522719
					34:[f1453<0.0201659] yes=69,no=70,missing=69
						69:leaf=-0.0497871
						70:leaf=-0.0150212
			8:[f879<-0.656027] yes=17,no=18,missing=17
				17:[f1798<-0.449276] yes=35,no=36,missing=35
					35:[f1451<-0.0347558] yes=71,no=72,missing=71
						71:leaf=-0.0249047
						72:leaf=0.00877475
					36:[f1666<-0.135286] yes=73,no=74,missing=73
						73:leaf=-0.0124995
						74:leaf=0.00998298
				18:[f1503<-0.204048] yes=37,no=38,missing=37
					37:[f1741<-0.294381] yes=75,no=76,missing=75
						75:leaf=-0.000747738
						76:leaf=-0.05
					38:[f403<-0.609092] yes=77,no=78,missing=77
						77:leaf=0.018124
						78:leaf=-0.0207203
		4:[f945<-0.151459] yes=9,no=10,missing=9
			9:[f868<-0.10606] yes=19,no=20,missing=19
				19:[f1367<-0.0785681] yes=39,no=40,missing=39
					39:[f1841<-0.777778] yes=79,no=80,missing=79
						79:leaf=-0.012616
						80:leaf=0.0117486
					40:[f1519<-0.103337] yes=81,no=82,missing=81
						81:leaf=-0.0282814
						82:leaf=-0.005193
				20:[f1798<0.371503] yes=41,no=42,missing=41
					41:[f1667<-0.124426] yes=83,no=84,missing=83
						83:leaf=-0.0261315
						84:leaf=-0.0492056
					42:[f26<-0.674673] yes=85,no=86,missing=85
						85:leaf=0.00812425
						86:leaf=-0.0206746
			10:[f879<0.219622] yes=21,no=22,missing=21
				21:[f1577<0.350455] yes=43,no=44,missing=43
					43:[f1827<0.539219] yes=87,no=88,missing=87
						87:leaf=0.0147455
						88:leaf=-0.00934983
					44:[f943<-0.0266032] yes=89,no=90,missing=89
						89:leaf=-0.0315953
						90:leaf=0.00517957
				22:[f1798<0.317168] yes=45,no=46,missing=45
					45:[f1841<-0.625719] yes=91,no=92,missing=91
						91:leaf=-0.0280661
						92:leaf=-0.00212863
					46:[f630<-0.314051] yes=93,no=94,missing=93
						93:leaf=0.0151624
						94:leaf=-0.00647901
	2:[f1817<-0.145777] yes=5,no=6,missing=5
		5:[f875<0.0288773] yes=11,no=12,missing=11
			11:[f1569<-0.163251] yes=23,no=24,missing=23
				23:[f1809<-0.563566] yes=47,no=48,missing=47
					47:[f890<-0.804522] yes=95,no=96,missing=95
						95:leaf=-0.00241923
						96:leaf=-0.0255541
					48:[f890<-0.708211] yes=97,no=98,missing=97
						97:leaf=0.0141961
						98:leaf=0.000238841
				24:[f1408<-0.0619433] yes=49,no=50,missing=49
					49:[f840<-0.854835] yes=99,no=100,missing=99
						99:leaf=0.00713277
						100:leaf=0.0230262
					50:[f1575<0.0555299] yes=101,no=102,missing=101
						101:leaf=0.00560729
						102:leaf=0.0303865
			12:[f1817<-0.395639] yes=25,no=26,missing=25
				25:[f853<-0.246516] yes=51,no=52,missing=51
					51:[f946<-0.246224] yes=103,no=104,missing=103
						103:leaf=-0.0196246
						104:leaf=0.00980699
					52:[f21<-0.0722694] yes=105,no=106,missing=105
						105:leaf=-0.0382376
						106:leaf=-0.0180142
				26:[f1838<-0.198619] yes=53,no=54,missing=53
					53:[f950<-0.185512] yes=107,no=108,missing=107
						107:leaf=-0.020194
						108:leaf=-0.00322064
					54:[f1747<-0.30873] yes=109,no=110,missing=109
						109:leaf=-0.00574246
						110:leaf=0.0116498
		6:[f1747<0.573148] yes=13,no=14,missing=13
			13:[f868<0.268618] yes=27,no=28,missing=27
				27:[f1837<0.127591] yes=55,no=56,missing=55
					55:[f967<0.147076] yes=111,no=112,missing=111
						111:leaf=0.0243265
						112:leaf=0.00961497
					56:[f427<-0.00865529] yes=113,no=114,missing=113
						113:leaf=-0.00157984
						114:leaf=0.0136653
				28:[f879<1.0894] yes=57,no=58,missing=57
					57:[f840<-0.320977] yes=115,no=116,missing=115
						115:leaf=-0.00185758
						116:leaf=0.0124832
					58:[f73<-0.307902] yes=117,no=118,missing=117
						117:leaf=0.005097
						118:leaf=-0.0146923
			14:[f879<0.886107] yes=29,no=30,missing=29
				29:[f1232<0.0802512] yes=59,no=60,missing=59
					59:[f1840<-0.596824] yes=119,no=120,missing=119
						119:leaf=0.0130413
						120:leaf=0.0336697
					60:[f137<0.783428] yes=121,no=122,missing=121
						121:leaf=0.0149877
						122:leaf=-0.0199874
				30:[f1798<0.053329] yes=61,no=62,missing=61
					61:[f1041<0.285016] yes=123,no=124,missing=123
						123:leaf=-0.0417728
						124:leaf=0.00689834
					62:[f1840<-0.297846] yes=125,no=126,missing=125
						125:leaf=0.00205561
						126:leaf=0.0215566
booster[10]:
0:[f1840<-0.723898] yes=1,no=2,missing=1
	1:[f945<-0.158467] yes=3,no=4,missing=3
		3:[f1798<-0.314535] yes=7,no=8,missing=7
			7:[f992<-0.239542] yes=15,no=16,missing=15
				15:[f934<-0.174583] yes=31,no=32,missing=31
					31:[f1534<0.0116592] yes=63,no=64,missing=63
						63:leaf=-0.05
						64:leaf=0.00131076
					32:[f883<-0.870044] yes=65,no=66,missing=65
						65:leaf=0.0113513
						66:leaf=-0.0266695
				16:[f913<-0.573604] yes=33,no=34,missing=33
					33:[f1459<-0.136089] yes=67,no=68,missing=67
						67:leaf=-0.0317766
						68:leaf=-0.00190352
					34:[f158<-0.717862] yes=69,no=70,missing=69
						69:leaf=0.00179334
						70:leaf=-0.0412525
			8:[f26<-0.510113] yes=17,no=18,missing=17
				17:[f945<-0.220939] yes=35,no=36,missing=35
					35:[f1818<-0.202624] yes=71,no=72,missing=71
						71:leaf=-0.0254362
						72:leaf=0.00869801
					36:[f1827<-0.0849712] yes=73,no=74,missing=73
						73:leaf=0.0140661
						74:leaf=-0.00641746
				18:[f1669<-0.172821] yes=37,no=38,missing=37
					37:[f1787<0.150788] yes=75,no=76,missing=75
						75:leaf=-0.0271544
						76:leaf=-0.00366545
					38:[f868<-0.909833] yes=77,no=78,missing=77
						77:leaf=0.00583222
						78:leaf=-0.0490298
		4:[f1839<-0.890514] yes=9,no=10,missing=9
			9:[f1759<-0.494579] yes=19,no=20,missing=19
				19:[f515<-0.824842] yes=39,no=40,missing=39
					39:[f1061<-0.0975699] yes=79,no=80,missing=79
						79:leaf=0.0265119
						80:leaf=-0.00432533
					40:[f1817<-0.286643] yes=81,no=82,missing=81
						81:leaf=-0.0300605
						82:leaf=0.00421723
				20:[f495<-0.636328] yes=41,no=42,missing=41
					41:[f1491<-0.0963621] yes=83,no=84,missing=83
						83:leaf=-0.0185786
						84:leaf=0.0197879
					42:[f1776<3.57133] yes=85,no=86,missing=85
						85:leaf=-0.0443555
						86:leaf=0.00767357
			10:[f867<0.634704] yes=21,no=22,missing=21
				21:[f1260<0.556062] yes=43,no=44,missing=43
					43:[f945<-0.0798633] yes=87,no=88,missing=87
						87:leaf=-0.00273368
						88:leaf=0.0106378
					44:[f1547<0.0222956] yes=89,no=90,missing=89
						89:leaf=-0.0286195
						90:leaf=0.00368298
				22:[f1553<0.173639] yes=45,no=46,missing=45
					45:[f992<-0.220388] yes=91,no=92,missing=91
						91:leaf=-0.0353205
						92:leaf=-0.0112747
					46:[f1159<-0.090974] yes=93,no=94,missing=93
						93:leaf=0.0241217
						94:leaf=-0.00954978
	2:[f1772<-0.226037] yes=5,no=6,missing=5
		5:[f853<0.0642653] yes=11,no=12,missing=11
			11:[f1754<-0.356649] yes=23,no=24,missing=23
				23:[f1817<-0.426767] yes=47,no=48,missing=47
					47:[f1148<-0.22833] yes=95,no=96,missing=95
						95:leaf=-0.01552
						96:leaf=-0.00126479
					48:[f1408<-0.0414484] yes=97,no=98,missing=97
						97:leaf=0.00830487
						98:leaf=-0.00783053
				24:[f1837<-0.285673] yes=49,no=50,missing=49
					49:[f1798<-0.287732] yes=99,no=100,missing=99
						99:leaf=0.0109906
						100:leaf=0.0235344
					50:[f1299<-0.100557] yes=101,no=102,missing=101
						101:leaf=0.00878708
						102:leaf=-0.00459955
			12:[f1817<-0.446802] yes=25,no=26,missing=25
				25:[f386<2.14795] yes=51,no=52,missing=51
					51:[f341<0.207147] yes=103,no=104,missing=103
						103:leaf=-0.0456505
						104:leaf=-0.0207971
					52:[f899<1.08264] yes=105,no=106,missing=105
						105:leaf=0.0193626
						106:leaf=-0.0134132
				26:[f1747<-0.273306] yes=53,no=54,missing=53
					53:[f853<1.40681] yes=107,no=108,missing=107
						107:leaf=-0.0100728
						108:leaf=-0.0314478
					54:[f1408<0.0216211] yes=109,no=110,missing=109
						109:leaf=0.00531336
						110:leaf=-0.0146801
		6:[f1764<0.61899] yes=13,no=14,missing=13
			13:[f845<-0.264058] yes=27,no=28,missing=27
				27:[f1821<0.136238] yes=55,no=56,missing=55
					55:[f967<1.39412] yes=111,no=112,missing=111
						111:leaf=0.0163373
						112:leaf=-0.0158081
					56:[f1669<0.0343771] yes=113,no=114,missing=113
						113:leaf=0.0325223
						114:leaf=0.0153691
				28:[f967<0.281648] yes=57,no=58,missing=57
					57:[f845<1.41008] yes=115,no=116,missing=115
						115:leaf=0.0102881
						116:leaf=-0.0112639
					58:[f1581<0.0578436] yes=117,no=118,missing=117
						117:leaf=-0.0154055
						118:leaf=0.0113625
			14:[f845<0.123357] yes=29,no=30,missing=29
				29:[f1367<-0.0425581] yes=59,no=60,missing=59
					59:[f934<-0.245685] yes=119,no=120,missing=119
						119:leaf=0.000144505
						120:leaf=0.036384
					60:[f1057<-0.0196752] yes=121,no=122,missing=121
						121:leaf=0.0231571
						122:leaf=-0.00273277
				30:[f1747<1.08248] yes=61,no=62,missing=61
					61:[f840<-0.874188] yes=123,no=124,missing=123
						123:leaf=-0.00207525
						124:leaf=0.0166434
					62:[f852<1.67706] yes=125,no=126,missing=125
						125:leaf=0.028666
						126:leaf=0.00644188
booster[11]:
0:[f1840<-0.807753] yes=1,no=2,missing=1
	1:[f945<-0.183505] yes=3,no=4,missing=3
		3:[f934<-0.210572] yes=7,no=8,missing=7
			7:[f992<-0.255026] yes=15,no=16,missing=15
				15:[f1798<-0.279351] yes=31,no=32,missing=31
					31:[f1290<10.1447] yes=63,no=64,missing=63
						63:leaf=-0.05
						64:leaf=0.00463336
					32:[f29<-0.197628] yes=65,no=66,missing=65
						65:leaf=-0.0169207
						66:leaf=-0.0488896
				16:[f1840<-1.09996] yes=33,no=34,missing=33
					33:[f1394<-0.0462866] yes=67,no=68,missing=67
						67:leaf=-0.0473221
						68:leaf=0.0012967
					34:[f15<-0.402617] yes=69,no=70,missing=69
						69:leaf=-0.0128092
						70:leaf=-0.0316322
			8:[f26<-0.751587] yes=17,no=18,missing=17
				17:[f1462<-0.133354] yes=35,no=36,missing=35
					35:[f1137<-0.195506] yes=71,no=72,missing=71
						71:leaf=-0.0310442
						72:leaf=0.00278382
					36:[f1065<-0.0766957] yes=73,no=74,missing=73
						73:leaf=0.0120458
						74:leaf=-0.0191286
				18:[f1453<-0.183533] yes=37,no=38,missing=37
					37:[f44<-0.794208] yes=75,no=76,missing=75
						75:leaf=0.0114899
						76:leaf=-0.0351106
					38:[f1459<-0.134287] yes=77,no=78,missing=77
						77:leaf=-0.0273663
						78:leaf=0.00256882
		4:[f1097<-0.198061] yes=9,no=10,missing=9
			9:[f29<0.33326] yes=19,no=20,missing=19
				19:[f1798<-0.429666] yes=39,no=40,missing=39
					39:[f1182<-0.123734] yes=79,no=80,missing=79
						79:leaf=-0.00428607
						80:leaf=-0.0383358
					40:[f1840<-1.00739] yes=81,no=82,missing=81
						81:leaf=-0.00989677
						82:leaf=0.01005
				20:[f946<0.21757] yes=41,no=42,missing=41
					41:[f631<-0.607899] yes=83,no=84,missing=83
						83:leaf=-0.0106191
						84:leaf=-0.0491918
					42:[f1798<-0.238887] yes=85,no=86,missing=85
						85:leaf=-0.0224449
						86:leaf=0.0103022
			10:[f934<0.0110364] yes=21,no=22,missing=21
				21:[f15<0.72631] yes=43,no=44,missing=43
					43:[f1408<-0.065745] yes=87,no=88,missing=87
						87:leaf=0.00961381
						88:leaf=-0.0089769
					44:[f458<-0.700998] yes=89,no=90,missing=89
						89:leaf=0.0121724
						90:leaf=-0.0324167
				22:[f1052<-0.0397717] yes=45,no=46,missing=45
					45:[f1233<0.0848904] yes=91,no=92,missing=91
						91:leaf=0.0266002
						92:leaf=-0.00314266
					46:[f509<0.256971] yes=93,no=94,missing=93
						93:leaf=0.0110927
						94:leaf=-0.0219265
	2:[f1817<-0.151713] yes=5,no=6,missing=5
		5:[f875<-0.207212] yes=11,no=12,missing=11
			11:[f1569<-0.187302] yes=23,no=24,missing=23
				23:[f1764<-0.559344] yes=47,no=48,missing=47
					47:[f840<-0.752279] yes=95,no=96,missing=95
						95:leaf=-0.0282703
						96:leaf=-0.00432198
					48:[f1465<-0.0352751] yes=97,no=98,missing=97
						97:leaf=0.00642088
						98:leaf=-0.00858737
				24:[f1808<1.49679] yes=49,no=50,missing=49
					49:[f1624<0.0687562] yes=99,no=100,missing=99
						99:leaf=0.0167345
						100:leaf=0.00380729
					50:[f1398<-0.0281976] yes=101,no=102,missing=101
						101:leaf=0.00222941
						102:leaf=-0.0218435
			12:[f1794<-0.44962] yes=25,no=26,missing=25
				25:[f1817<-0.455826] yes=51,no=52,missing=51
					51:[f656<-0.0365368] yes=103,no=104,missing=103
						103:leaf=-0.0434404
						104:leaf=-0.01924
					52:[f872<1.16131] yes=105,no=106,missing=105
						105:leaf=-0.0128406
						106:leaf=-0.0371917
				26:[f956<-0.194738] yes=53,no=54,missing=53
					53:[f1838<-0.425492] yes=107,no=108,missing=107
						107:leaf=-0.0215799
						108:leaf=-0.00250442
					54:[f1596<-0.0723917] yes=109,no=110,missing=109
						109:leaf=-0.00376067
						110:leaf=0.0111511
		6:[f879<0.665086] yes=13,no=14,missing=13
			13:[f1787<0.82375] yes=27,no=28,missing=27
				27:[f868<-0.401636] yes=55,no=56,missing=55
					55:[f1787<-0.0904831] yes=111,no=112,missing=111
						111:leaf=0.0184966
						112:leaf=0.0311146
					56:[f1787<-0.0797021] yes=113,no=114,missing=113
						113:leaf=0.00124493
						114:leaf=0.0154088
				28:[f1408<-0.0564731] yes=57,no=58,missing=57
					57:[f429<-0.76539] yes=115,no=116,missing=115
						115:leaf=-0.00986314
						116:leaf=0.0338321
					58:[f724<-0.644755] yes=117,no=118,missing=117
						117:leaf=-0.00350771
						118:leaf=0.0238207
			14:[f1787<1.3606] yes=29,no=30,missing=29
				29:[f230<0.13556] yes=59,no=60,missing=59
					59:[f852<0.445098] yes=119,no=120,missing=119
						119:leaf=6.80811e-05
						120:leaf=-0.0231629
					60:[f1054<0.151845] yes=121,no=122,missing=121
						121:leaf=0.0132161
						122:leaf=-0.00838583
				30:[f845<2.58698] yes=61,no=62,missing=61
					61:[f840<-0.384072] yes=123,no=124,missing=123
						123:leaf=0.0102331
						124:leaf=0.026315
					62:[f1140<-0.00408248] yes=125,no=126,missing=125
						125:leaf=-0.0142783
						126:leaf=0.0210201
booster[12]:
0:[f1840<-0.898705] yes=1,no=2,missing=1
	1:[f945<-0.164164] yes=3,no=4,missing=3
		3:[f1798<-0.384308] yes=7,no=8,missing=7
			7:[f934<-0.22588] yes=15,no=16,missing=15
				15:[f1155<-0.0375191] yes=31,no=32,missing=31
					31:[f979<-0.0329473] yes=63,no=64,missing=63
						63:leaf=-0.05
						64:leaf=-0.00932864
					32:[f1438<-0.0864428] yes=65,no=66,missing=65
						65:leaf=-0.0232128
						66:leaf=0.0133765
				16:[f1840<-1.09415] yes=33,no=34,missing=33
					33:[f1553<-0.100756] yes=67,no=68,missing=67
						67:leaf=-0.0493878
						68:leaf=-0.0114089
					34:[f1196<-0.0366759] yes=69,no=70,missing=69
						69:leaf=-0.0184016
						70:leaf=0.013843
			8:[f918<0.463972] yes=17,no=18,missing=17
				17:[f1107<-0.117288] yes=35,no=36,missing=35
					35:[f1199<-0.0822441] yes=71,no=72,missing=71
						71:leaf=-0.0295684
						72:leaf=0.00706362
					36:[f1669<-0.1631] yes=73,no=74,missing=73
						73:leaf=0.00804488
						74:leaf=-0.0235737
				18:[f1759<-0.506018] yes=37,no=38,missing=37
					37:[f1780<0.703094] yes=75,no=76,missing=75
						75:leaf=-0.0304521
						76:leaf=0.00571984
					38:[f948<-0.114742] yes=77,no=78,missing=77
						77:leaf=-0.05
						78:leaf=-0.00920017
		4:[f1798<-0.18749] yes=9,no=10,missing=9
			9:[f879<-0.250122] yes=19,no=20,missing=19
				19:[f1577<0.133651] yes=39,no=40,missing=39
					39:[f1798<-0.446431] yes=79,no=80,missing=79
						79:leaf=-0.0210024
						80:leaf=0.00289782
					40:[f569<-0.713979] yes=81,no=82,missing=81
						81:leaf=0.0119605
						82:leaf=-0.0339704
				20:[f1503<1.65706] yes=41,no=42,missing=41
					41:[f526<-0.603353] yes=83,no=84,missing=83
						83:leaf=0.000452491
						84:leaf=-0.0423472
					42:[f908<-0.290846] yes=85,no=86,missing=85
						85:leaf=-0.00873181
						86:leaf=0.0173065
			10:[f1599<0.0351537] yes=21,no=22,missing=21
				21:[f1438<-0.0810053] yes=43,no=44,missing=43
					43:[f15<1.33543] yes=87,no=88,missing=87
						87:leaf=0.0041193
						88:leaf=-0.0291995
					44:[f1084<0.0278441] yes=89,no=90,missing=89
						89:leaf=0.0221591
						90:leaf=-0.0208206
				22:[f5<-0.440352] yes=45,no=46,missing=45
					45:[f429<-0.535236] yes=91,no=92,missing=91
						91:leaf=0.0233753
						92:leaf=-0.00751918
					46:[f1191<-0.214574] yes=93,no=94,missing=93
						93:leaf=0.0184954
						94:leaf=-0.0264459
	2:[f1821<-0.127745] yes=5,no=6,missing=5
		5:[f918<0.618313] yes=11,no=12,missing=11
			11:[f1764<-0.360214] yes=23,no=24,missing=23
				23:[f934<-0.178553] yes=47,no=48,missing=47
					47:[f1669<-0.0571633] yes=95,no=96,missing=95
						95:leaf=-0.00649975
						96:leaf=-0.0395943
					48:[f1575<-0.0195285] yes=97,no=98,missing=97
						97:leaf=0.00321008
						98:leaf=0.0230792
				24:[f1837<-0.193498] yes=49,no=50,missing=49
					49:[f1838<-0.358043] yes=99,no=100,missing=99
						99:leaf=0.00855381
						100:leaf=0.0211966
					50:[f1465<-0.0601865] yes=101,no=102,missing=101
						101:leaf=0.00609448
						102:leaf=-0.00902169
			12:[f934<-0.210104] yes=25,no=26,missing=25
				25:[f15<-0.114095] yes=51,no=52,missing=51
					51:[f924<-0.242338] yes=103,no=104,missing=103
						103:leaf=-0.0351854
						104:leaf=-0.000268643
					52:[f1787<0.214738] yes=105,no=106,missing=105
						105:leaf=-0.0430025
						106:leaf=-0.0102246
				26:[f1576<-0.263599] yes=53,no=54,missing=53
					53:[f867<0.959238] yes=107,no=108,missing=107
						107:leaf=-0.00602514
						108:leaf=-0.0299302
					54:[f1255<-0.23488] yes=109,no=110,missing=109
						109:leaf=-0.0164417
						110:leaf=0.0072861
		6:[f1816<-0.155003] yes=13,no=14,missing=13
			13:[f879<0.596697] yes=27,no=28,missing=27
				27:[f1821<0.743599] yes=55,no=56,missing=55
					55:[f1837<-0.228447] yes=111,no=112,missing=111
						111:leaf=0.0235721
						112:leaf=0.0110832
					56:[f840<-0.84162] yes=113,no=114,missing=113
						113:leaf=0.0192393
						114:leaf=0.0358649
				28:[f1798<0.564834] yes=57,no=58,missing=57
					57:[f946<-0.238802] yes=115,no=116,missing=115
						115:leaf=-0.0309787
						116:leaf=0.00323244
					58:[f1747<2.37775] yes=117,no=118,missing=117
						117:leaf=0.0115676
						118:leaf=0.0286591
			14:[f840<-0.822806] yes=29,no=30,missing=29
				29:[f1791<0.173942] yes=59,no=60,missing=59
					59:[f1639<-0.031075] yes=119,no=120,missing=119
						119:leaf=-0.00030672
						120:leaf=-0.0227374
					60:[f764<-0.0495521] yes=121,no=122,missing=121
						121:leaf=0.0205694
						122:leaf=-0.00133056
				30:[f1821<0.761997] yes=61,no=62,missing=61
					61:[f1838<-0.450018] yes=123,no=124,missing=123
						123:leaf=-0.000664055
						124:leaf=0.0139829
					62:[f845<1.06037] yes=125,no=126,missing=125
						125:leaf=0.0259361
						126:leaf=0.00844942
booster[13]:
0:[f1840<-0.964499] yes=1,no=2,missing=1
	1:[f934<-0.202192] yes=3,no=4,missing=3
		3:[f1798<-0.337763] yes=7,no=8,missing=7
			7:[f945<-0.195171] yes=15,no=16,missing=15
				15:[f934<-0.220405] yes=31,no=32,missing=31
					31:[f1453<0.975681] yes=63,no=64,missing=63
						63:leaf=-0.05
						64:leaf=-0.0015949
					32:[f434<-0.670416] yes=65,no=66,missing=65
						65:leaf=0.0145225
						66:leaf=-0.0292821
				16:[f903<-0.0648651] yes=33,no=34,missing=33
					33:[f758<-0.808086] yes=67,no=68,missing=67
						67:leaf=0.00958711
						68:leaf=-0.0226295
					34:[f772<-0.466898] yes=69,no=70,missing=69
						69:leaf=0.00484107
						70:leaf=-0.0483448
			8:[f868<-0.110959] yes=17,no=18,missing=17
				17:[f1803<-0.277621] yes=35,no=36,missing=35
					35:[f1451<-0.0994571] yes=71,no=72,missing=71
						71:leaf=-0.0316087
						72:leaf=-0.000456557
					36:[f1367<-0.0667037] yes=73,no=74,missing=73
						73:leaf=0.013481
						74:leaf=-0.0126357
				18:[f945<-0.198778] yes=37,no=38,missing=37
					37:[f946<-0.211675] yes=75,no=76,missing=75
						75:leaf=-0.0454173
						76:leaf=-0.0119918
					38:[f533<-0.540825] yes=77,no=78,missing=77
						77:leaf=0.0119889
						78:leaf=-0.0256604
		4:[f1839<-0.893312] yes=9,no=10,missing=9
			9:[f1839<-0.978169] yes=19,no=20,missing=19
				19:[f1386<-0.0576316] yes=39,no=40,missing=39
					39:[f868<-0.312765] yes=79,no=80,missing=79
						79:leaf=0.0191116
						80:leaf=-0.019243
					40:[f1787<-0.160549] yes=81,no=82,missing=81
						81:leaf=-0.0423502
						82:leaf=-0.00661295
				20:[f1631<1.00851] yes=41,no=42,missing=41
					41:[f390<-0.767696] yes=83,no=84,missing=83
						83:leaf=0.00276525
						84:leaf=-0.05
					42:leaf=0.00566839
			10:[f1828<0.379611] yes=21,no=22,missing=21
				21:[f1669<-0.145232] yes=43,no=44,missing=43
					43:[f1575<-0.0643724] yes=87,no=88,missing=87
						87:leaf=-0.0102844
						88:leaf=0.00799531
					44:[f934<-0.0460366] yes=89,no=90,missing=89
						89:leaf=-0.0296959
						90:leaf=-0.00684257
				22:[f1827<0.802673] yes=45,no=46,missing=45
					45:[f1370<-0.167287] yes=91,no=92,missing=91
						91:leaf=-0.00675783
						92:leaf=0.0217555
					46:[f275<-0.676809] yes=93,no=94,missing=93
						93:leaf=0.0105463
						94:leaf=-0.0318299
	2:[f1764<-0.142246] yes=5,no=6,missing=5
		5:[f845<-0.560634] yes=11,no=12,missing=11
			11:[f934<-0.190938] yes=23,no=24,missing=23
				23:[f1798<-0.440343] yes=47,no=48,missing=47
					47:[f945<-0.222127] yes=95,no=96,missing=95
						95:leaf=-0.0321991
						96:leaf=-0.00362112
					48:[f1838<-0.443887] yes=97,no=98,missing=97
						97:leaf=-0.00533956
						98:leaf=0.00973734
				24:[f1299<-0.14561] yes=49,no=50,missing=49
					49:[f1569<-0.211245] yes=99,no=100,missing=99
						99:leaf=0.0100533
						100:leaf=0.0219231
					50:[f1570<-0.311657] yes=101,no=102,missing=101
						101:leaf=-0.00944084
						102:leaf=0.00868874
			12:[f1764<-0.52016] yes=25,no=26,missing=25
				25:[f1365<0.0420938] yes=51,no=52,missing=51
					51:[f1764<-0.587422] yes=103,no=104,missing=103
						103:leaf=-0.05
						104:leaf=-0.0272293
					52:[f473<0.390802] yes=105,no=106,missing=105
						105:leaf=0.0285705
						106:leaf=-0.0181611
				26:[f918<0.492124] yes=53,no=54,missing=53
					53:[f840<-0.790332] yes=107,no=108,missing=107
						107:leaf=-0.0129572
						108:leaf=0.000121561
					54:[f879<0.918223] yes=109,no=110,missing=109
						109:leaf=-0.0127222
						110:leaf=-0.0360105
		6:[f845<-0.0889127] yes=13,no=14,missing=13
			13:[f1764<0.494958] yes=27,no=28,missing=27
				27:[f845<-0.610167] yes=55,no=56,missing=55
					55:[f1812<-0.370331] yes=111,no=112,missing=111
						111:leaf=0.00232296
						112:leaf=0.0282011
					56:[f1367<-0.0827459] yes=113,no=114,missing=113
						113:leaf=0.0165077
						114:leaf=0.000803214
				28:[f1837<0.44423] yes=57,no=58,missing=57
					57:[f225<-0.926433] yes=115,no=116,missing=115
						115:leaf=0.00348554
						116:leaf=0.0321253
					58:[f1840<-0.375251] yes=117,no=118,missing=117
						117:leaf=-0.0141285
						118:leaf=0.0164851
			14:[f1764<1.45876] yes=29,no=30,missing=29
				29:[f918<0.566589] yes=59,no=60,missing=59
					59:[f1838<-0.450018] yes=119,no=120,missing=119
						119:leaf=0.000983346
						120:leaf=0.0129305
					60:[f934<-0.227874] yes=121,no=122,missing=121
						121:leaf=-0.0244446
						122:leaf=0.000133538
				30:[f845<0.961382] yes=61,no=62,missing=61
					61:[f1208<0.0107012] yes=123,no=124,missing=123
						123:leaf=0.0280788
						124:leaf=0.00450043
					62:[f1783<0.892815] yes=125,no=126,missing=125
						125:leaf=0.000123049
						126:leaf=0.018426
booster[14]:
0:[f1840<-0.939342] yes=1,no=2,missing=1
	1:[f934<-0.19168] yes=3,no=4,missing=3
		3:[f1798<-0.330037] yes=7,no=8,missing=7
			7:[f946<-0.248022] yes=15,no=16,missing=15
				15:[f1838<2.35216] yes=31,no=32,missing=31
					31:[f1277<-0.0054645] yes=63,no=64,missing=63
						63:leaf=-0.05
						64:leaf=-0.00238177
					32:[f948<-0.255945] yes=65,no=66,missing=65
						65:leaf=-0.0225747
						66:leaf=0.0156523
				16:[f1546<-0.13059] yes=33,no=34,missing=33
					33:[f449<-0.871461] yes=67,no=68,missing=67
						67:leaf=0.00712414
						68:leaf=-0.0403623
					34:[f989<-0.238053] yes=69,no=70,missing=69
						69:leaf=0.0104178
						70:leaf=-0.0215101
			8:[f880<0.535698] yes=17,no=18,missing=17
				17:[f946<-0.247071] yes=35,no=36,missing=35
					35:[f27<-0.489507] yes=71,no=72,missing=71
						71:leaf=-0.0131444
						72:leaf=-0.0388239
					36:[f372<0.234508] yes=73,no=74,missing=73
						73:leaf=0.00297515
						74:leaf=-0.022015
				18:[f1012<0.344399] yes=37,no=38,missing=37
					37:[f502<-0.669187] yes=75,no=76,missing=75
						75:leaf=0.00308919
						76:leaf=-0.0452621
					38:[f368<-0.149052] yes=77,no=78,missing=77
						77:leaf=0.0182289
						78:leaf=-0.014695
		4:[f1798<-0.00634168] yes=9,no=10,missing=9
			9:[f868<-0.418943] yes=19,no=20,missing=19
				19:[f1625<-0.294035] yes=39,no=40,missing=39
					39:[f1412<-0.243752] yes=79,no=80,missing=79
						79:leaf=-0.00338876
						80:leaf=-0.0407482
					40:[f1050<-0.0739733] yes=81,no=82,missing=81
						81:leaf=0.00591036
						82:leaf=-0.0181666
				20:[f1787<-0.236822] yes=41,no=42,missing=41
					41:[f1547<0.121125] yes=83,no=84,missing=83
						83:leaf=-0.040025
						84:leaf=0.00547475
					42:[f867<-0.661713] yes=85,no=86,missing=85
						85:leaf=0.00742981
						86:leaf=-0.0198036
			10:[f1451<-0.0975605] yes=21,no=22,missing=21
				21:[f1841<-0.750962] yes=43,no=44,missing=43
					43:[f1286<-0.141223] yes=87,no=88,missing=87
						87:leaf=0.00115143
						88:leaf=-0.0279406
					44:[f355<-0.232478] yes=89,no=90,missing=89
						89:leaf=0.0202197
						90:leaf=-0.00656067
				22:[f878<0.785974] yes=45,no=46,missing=45
					45:[f1063<-0.0544177] yes=91,no=92,missing=91
						91:leaf=0.023684
						92:leaf=-0.00676642
					46:[f827<1.21174] yes=93,no=94,missing=93
						93:leaf=-0.0196477
						94:leaf=0.00880212
	2:[f1772<-0.274644] yes=5,no=6,missing=5
		5:[f934<-0.170791] yes=11,no=12,missing=11
			11:[f918<0.607889] yes=23,no=24,missing=23
				23:[f1465<0.0144085] yes=47,no=48,missing=47
					47:[f1669<-0.157148] yes=95,no=96,missing=95
						95:leaf=0.0025764
						96:leaf=-0.0189062
					48:[f1780<-0.467681] yes=97,no=98,missing=97
						97:leaf=-0.0238192
						98:leaf=-0.00620146
				24:[f946<-0.251123] yes=49,no=50,missing=49
					49:[f934<-0.23882] yes=99,no=100,missing=99
						99:leaf=-0.05
						100:leaf=-0.0231474
					50:[f1139<-0.194237] yes=101,no=102,missing=101
						101:leaf=-0.0255883
						102:leaf=-0.00749503
			12:[f1299<-0.180136] yes=25,no=26,missing=25
				25:[f1768<-0.311839] yes=51,no=52,missing=51
					51:[f894<-0.558721] yes=103,no=104,missing=103
						103:leaf=0.0152532
						104:leaf=-0.00218297
					52:[f1408<-0.0516169] yes=105,no=106,missing=105
						105:leaf=0.0279391
						106:leaf=0.00583449
				26:[f1575<-0.0431567] yes=53,no=54,missing=53
					53:[f1798<-0.389539] yes=107,no=108,missing=107
						107:leaf=-0.0129178
						108:leaf=0.0044004
					54:[f377<0.677812] yes=109,no=110,missing=109
						109:leaf=0.019436
						110:leaf=-0.00597213
		6:[f840<-0.34663] yes=13,no=14,missing=13
			13:[f1840<-0.143035] yes=27,no=28,missing=27
				27:[f944<-0.177331] yes=55,no=56,missing=55
					55:[f1590<-0.0638134] yes=111,no=112,missing=111
						111:leaf=-0.0055093
						112:leaf=-0.0416829
					56:[f967<0.0158855] yes=113,no=114,missing=113
						113:leaf=0.00883466
						114:leaf=-0.00553746
				28:[f1569<0.101737] yes=57,no=58,missing=57
					57:[f868<0.323537] yes=115,no=116,missing=115
						115:leaf=0.0105702
						116:leaf=-0.00622035
					58:[f1054<0.107772] yes=117,no=118,missing=117
						117:leaf=0.0225081
						118:leaf=0.00528997
			14:[f918<1.8023] yes=29,no=30,missing=29
				29:[f1772<0.538859] yes=59,no=60,missing=59
					59:[f853<-0.485893] yes=119,no=120,missing=119
						119:leaf=0.0255856
						120:leaf=0.0122207
					60:[f771<4.91822] yes=121,no=122,missing=121
						121:leaf=0.0270475
						122:leaf=-0.00643399
				30:[f990<-0.203544] yes=61,no=62,missing=61
					61:[f1463<-0.0557064] yes=123,no=124,missing=123
						123:leaf=-0.0423307
						124:leaf=0.00168355
					62:[f829<1.89542] yes=125,no=126,missing=125
						125:leaf=0.015715
						126:leaf=-0.0155486
booster[15]:
0:[f1840<-0.697451] yes=1,no=2,missing=1
	1:[f945<-0.169697] yes=3,no=4,missing=3
		3:[f934<-0.213189] yes=7,no=8,missing=7
			7:[f1669<-0.160704] yes=15,no=16,missing=15
				15:[f1798<-0.420131] yes=31,no=32,missing=31
					31:[f879<-0.81473] yes=63,no=64,missing=63
						63:leaf=-0.0257963
						64:leaf=-0.05
					32:[f1840<-1.10125] yes=65,no=66,missing=65
						65:leaf=-0.033934
						66:leaf=-0.00987091
				16:[f1798<0.960061] yes=33,no=34,missing=33
					33:[f1318<-0.011663] yes=67,no=68,missing=67
						67:leaf=-0.05
						68:leaf=-0.00121463
					34:[f933<-0.163867] yes=69,no=70,missing=69
						69:leaf=0.0131393
						70:leaf=-0.0196973
			8:[f1840<-1.10125] yes=17,no=18,missing=17
				17:[f1770<-0.191599] yes=35,no=36,missing=35
					35:[f1576<4.23084] yes=71,no=72,missing=71
						71:leaf=-0.0372931
						72:leaf=0.0138998
					36:[f898<-0.136271] yes=73,no=74,missing=73
						73:leaf=0.01065
						74:leaf=-0.0241785
				18:[f15<0.630286] yes=37,no=38,missing=37
					37:[f840<-0.187263] yes=75,no=76,missing=75
						75:leaf=-0.0064968
						76:leaf=0.0126984
					38:[f934<-0.140398] yes=77,no=78,missing=77
						77:leaf=-0.0295265
						78:leaf=0.000867928
		4:[f880<0.324279] yes=9,no=10,missing=9
			9:[f840<-0.858431] yes=19,no=20,missing=19
				19:[f1554<-0.0968138] yes=39,no=40,missing=39
					39:[f1242<-0.0124277] yes=79,no=80,missing=79
						79:leaf=-0.0271896
						80:leaf=0.00600471
					40:[f1453<-0.268637] yes=81,no=82,missing=81
						81:leaf=-0.00915661
						82:leaf=0.0119071
				20:[f1744<-0.0145992] yes=41,no=42,missing=41
					41:[f31<0.486211] yes=83,no=84,missing=83
						83:leaf=0.0129953
						84:leaf=-0.00832402
					42:[f930<-0.18133] yes=85,no=86,missing=85
						85:leaf=-0.030006
						86:leaf=0.001142
			10:[f1339<-0.0782681] yes=21,no=22,missing=21
				21:[f834<0.999347] yes=43,no=44,missing=43
					43:[f1815<0.486153] yes=87,no=88,missing=87
						87:leaf=-0.0431769
						88:leaf=-0.0119307
					44:[f1041<-0.216476] yes=89,no=90,missing=89
						89:leaf=0.00973386
						90:leaf=-0.0241005
				22:[f945<-0.052908] yes=45,no=46,missing=45
					45:[f1840<-0.859357] yes=91,no=92,missing=91
						91:leaf=-0.0252523
						92:leaf=0.00617979
					46:[f878<0.286352] yes=93,no=94,missing=93
						93:leaf=0.0197165
						94:leaf=-0.0069921
	2:[f1817<-0.153007] yes=5,no=6,missing=5
		5:[f1465<-0.0427346] yes=11,no=12,missing=11
			11:[f1821<-0.386617] yes=23,no=24,missing=23
				23:[f890<-0.408914] yes=47,no=48,missing=47
					47:[f840<-0.968841] yes=95,no=96,missing=95
						95:leaf=-0.0153418
						96:leaf=0.0041556
					48:[f1798<-0.451964] yes=97,no=98,missing=97
						97:leaf=-0.0341344
						98:leaf=-0.00990717
				24:[f1408<-0.0418725] yes=49,no=50,missing=49
					49:[f1838<-0.413228] yes=99,no=100,missing=99
						99:leaf=0.00557578
						100:leaf=0.0153452
					50:[f994<-0.164931] yes=101,no=102,missing=101
						101:leaf=-0.0098327
						102:leaf=0.00492371
			12:[f1451<-0.0566344] yes=25,no=26,missing=25
				25:[f1572<0.690529] yes=51,no=52,missing=51
					51:[f840<-0.482347] yes=103,no=104,missing=103
						103:leaf=-0.0214814
						104:leaf=-0.00773601
					52:[f1780<0.475216] yes=105,no=106,missing=105
						105:leaf=-0.042518
						106:leaf=0.00441378
				26:[f481<0.924224] yes=53,no=54,missing=53
					53:[f1365<0.281349] yes=107,no=108,missing=107
						107:leaf=0.00756801
						108:leaf=0.0324198
					54:[f184<0.35993] yes=109,no=110,missing=109
						109:leaf=0.00754427
						110:leaf=-0.0242624
		6:[f1569<0.105735] yes=13,no=14,missing=13
			13:[f918<0.726418] yes=27,no=28,missing=27
				27:[f1808<0.246296] yes=55,no=56,missing=55
					55:[f1465<-0.0149421] yes=111,no=112,missing=111
						111:leaf=0.0192095
						112:leaf=0.00410306
					56:[f840<-0.889115] yes=113,no=114,missing=113
						113:leaf=-0.00782563
						114:leaf=0.0105987
				28:[f940<0.644976] yes=57,no=58,missing=57
					57:[f951<-0.210866] yes=115,no=116,missing=115
						115:leaf=-0.0118607
						116:leaf=0.01052
					58:[f447<-0.582648] yes=117,no=118,missing=117
						117:leaf=0.00801105
						118:leaf=-0.031478
			14:[f879<0.793255] yes=29,no=30,missing=29
				29:[f1816<0.23669] yes=59,no=60,missing=59
					59:[f1821<0.644115] yes=119,no=120,missing=119
						119:leaf=0.0229273
						120:leaf=0.0324553
					60:[f1783<0.291184] yes=121,no=122,missing=121
						121:leaf=0.00241797
						122:leaf=0.0192952
				30:[f1809<3.45447] yes=61,no=62,missing=61
					61:[f1624<0.110759] yes=123,no=124,missing=123
						123:leaf=0.0119911
						124:leaf=-0.00727453
					62:[f577<-0.713843] yes=125,no=126,missing=125
						125:leaf=-0.00537366
						126:leaf=0.0274215
booster[16]:
0:[f1840<-0.939342] yes=1,no=2,missing=1
	1:[f946<-0.22471] yes=3,no=4,missing=3
		3:[f1798<-0.228753] yes=7,no=8,missing=7
			7:[f879<-0.489798] yes=15,no=16,missing=15
				15:[f945<-0.215385] yes=31,no=32,missing=31
					31:[f1815<-0.388932] yes=63,no=64,missing=63
						63:leaf=-0.0468503
						64:leaf=-0.0147655
					32:[f858<-0.498732] yes=65,no=66,missing=65
						65:leaf=0.000629211
						66:leaf=-0.0255969
				16:[f1453<1.45726] yes=33,no=34,missing=33
					33:[f1192<0.194498] yes=67,no=68,missing=67
						67:leaf=-0.05
						68:leaf=-0.0103259
					34:[f597<-0.109702] yes=69,no=70,missing=69
						69:leaf=-0.0223564
						70:leaf=0.0195672
			8:[f27<-0.235744] yes=17,no=18,missing=17
				17:[f1827<-0.0555343] yes=35,no=36,missing=35
					35:[f934<-0.237988] yes=71,no=72,missing=71
						71:leaf=-0.0135837
						72:leaf=0.0094021
					36:[f1841<-0.777778] yes=73,no=74,missing=73
						73:leaf=-0.0360782
						74:leaf=-0.00988791
				18:[f1754<-0.348699] yes=37,no=38,missing=37
					37:[f689<-0.30596] yes=75,no=76,missing=75
						75:leaf=0.0136965
						76:leaf=-0.0245448
					38:[f633<-0.585594] yes=77,no=78,missing=77
						77:leaf=-0.0147773
						78:leaf=-0.0468876
		4:[f1798<0.603683] yes=9,no=10,missing=9
			9:[f1827<0.0068186] yes=19,no=20,missing=19
				19:[f1839<-0.835497] yes=39,no=40,missing=39
					39:[f518<-0.480427] yes=79,no=80,missing=79
						79:leaf=0.00464332
						80:leaf=-0.0316966
					40:[f965<-0.123575] yes=81,no=82,missing=81
						81:leaf=0.0035689
						82:leaf=-0.0148214
				20:[f854<-0.798956] yes=41,no=42,missing=41
					41:[f1101<-0.12084] yes=83,no=84,missing=83
						83:leaf=-0.0145141
						84:leaf=0.0196712
					42:[f1535<-0.0206695] yes=85,no=86,missing=85
						85:leaf=-0.0341172
						86:leaf=-0.00532118
			10:[f1827<0.257102] yes=21,no=22,missing=21
				21:[f845<0.966855] yes=43,no=44,missing=43
					43:[f284<-0.67286] yes=87,no=88,missing=87
						87:leaf=-0.00629689
						88:leaf=0.0292621
					44:[f774<-0.24719] yes=89,no=90,missing=89
						89:leaf=0.0179679
						90:leaf=-0.0197092
				22:[f1070<-0.084456] yes=45,no=46,missing=45
					45:[f888<-0.500902] yes=91,no=92,missing=91
						91:leaf=0.00642454
						92:leaf=-0.0300996
					46:[f942<-0.0777864] yes=93,no=94,missing=93
						93:leaf=0.0235337
						94:leaf=-0.00728502
	2:[f1772<-0.279983] yes=5,no=6,missing=5
		5:[f853<-0.673425] yes=11,no=12,missing=11
			11:[f1798<-0.340769] yes=23,no=24,missing=23
				23:[f946<-0.242928] yes=47,no=48,missing=47
					47:[f945<-0.225334] yes=95,no=96,missing=95
						95:leaf=-0.0310806
						96:leaf=-0.00405484
					48:[f1575<-0.0679635] yes=97,no=98,missing=97
						97:leaf=-0.000966853
						98:leaf=0.0146394
				24:[f1408<-0.0212554] yes=49,no=50,missing=49
					49:[f879<-0.5239] yes=99,no=100,missing=99
						99:leaf=0.0218582
						100:leaf=0.00934549
					50:[f979<-0.192429] yes=101,no=102,missing=101
						101:leaf=-0.0155776
						102:leaf=0.00890395
			12:[f918<0.782169] yes=25,no=26,missing=25
				25:[f1809<-0.58816] yes=51,no=52,missing=51
					51:[f934<-0.234291] yes=103,no=104,missing=103
						103:leaf=-0.0290897
						104:leaf=-0.00478492
					52:[f1465<0.0579156] yes=105,no=106,missing=105
						105:leaf=0.000545488
						106:leaf=-0.0121785
				26:[f934<-0.210856] yes=53,no=54,missing=53
					53:[f1798<-0.430683] yes=107,no=108,missing=107
						107:leaf=-0.05
						108:leaf=-0.0256414
					54:[f1059<-0.0982085] yes=109,no=110,missing=109
						109:leaf=3.67608e-05
						110:leaf=-0.0220489
		6:[f1828<0.711149] yes=13,no=14,missing=13
			13:[f879<0.637127] yes=27,no=28,missing=27
				27:[f1798<-0.00240254] yes=55,no=56,missing=55
					55:[f1669<0.0118318] yes=111,no=112,missing=111
						111:leaf=0.0109191
						112:leaf=-0.00122203
					56:[f1408<-0.0605149] yes=113,no=114,missing=113
						113:leaf=0.0222615
						114:leaf=0.00946539
				28:[f1798<-0.109424] yes=57,no=58,missing=57
					57:[f1466<-0.163231] yes=115,no=116,missing=115
						115:leaf=-0.0367267
						116:leaf=-0.00464489
					58:[f840<-0.464497] yes=117,no=118,missing=117
						117:leaf=-0.00786352
						118:leaf=0.00864113
			14:[f845<0.89527] yes=29,no=30,missing=29
				29:[f1408<-0.0320562] yes=59,no=60,missing=59
					59:[f1396<0.742686] yes=119,no=120,missing=119
						119:leaf=0.0293296
						120:leaf=-0.00147583
					60:[f792<-0.458749] yes=121,no=122,missing=121
						121:leaf=-0.00570924
						122:leaf=0.019458
				30:[f1747<0.43852] yes=61,no=62,missing=61
					61:[f1783<2.21013] yes=123,no=124,missing=123
						123:leaf=-0.0153954
						124:leaf=0.0122235
					62:[f1797<-0.132669] yes=125,no=126,missing=125
						125:leaf=0.0238071
						126:leaf=0.00707005
booster[17]:
0:[f1840<-0.813559] yes=1,no=2,missing=1
	1:[f1798<-0.320962] yes=3,no=4,missing=3
		3:[f934<-0.221719] yes=7,no=8,missing=7
			7:[f992<-0.255706] yes=15,no=16,missing=15
				15:[f1838<1.24233] yes=31,no=32,missing=31
					31:[f946<-0.245672] yes=63,no=64,missing=63
						63:leaf=-0.05
						64:leaf=-0.0204859
					32:[f924<-0.247075] yes=65,no=66,missing=65
						65:leaf=-0.0341574
						66:leaf=0.00645842
				16:[f1815<-0.322002] yes=33,no=34,missing=33
					33:[f86<-0.740443] yes=67,no=68,missing=67
						67:leaf=-0.000421052
						68:leaf=-0.0332905
					34:[f993<-0.217712] yes=69,no=70,missing=69
						69:leaf=0.0199271
						70:leaf=-0.0178246
			8:[f879<-0.53416] yes=17,no=18,missing=17
				17:[f1290<-0.0710794] yes=35,no=36,missing=35
					35:[f1782<0.698343] yes=71,no=72,missing=71
						71:leaf=0.0059982
						72:leaf=-0.0240051
					36:[f1794<-0.0683367] yes=73,no=74,missing=73
						73:leaf=-0.0290586
						74:leaf=0.00538721
				18:[f1359<-0.13659] yes=37,no=38,missing=37
					37:[f1481<0.0514293] yes=75,no=76,missing=75
						75:leaf=-0.0446796
						76:leaf=0.00648571
					38:[f1503<-0.161108] yes=77,no=78,missing=77
						77:leaf=-0.0214976
						78:leaf=0.0111566
		4:[f945<-0.1514] yes=9,no=10,missing=9
			9:[f26<-0.151084] yes=19,no=20,missing=19
				19:[f918<0.539899] yes=39,no=40,missing=39
					39:[f1827<-0.0259892] yes=79,no=80,missing=79
						79:leaf=0.00698491
						80:leaf=-0.0142062
					40:[f1580<-0.0548508] yes=81,no=82,missing=81
						81:leaf=-0.032909
						82:leaf=0.00485281
				20:[f1652<-0.277586] yes=41,no=42,missing=41
					41:[f27<-0.552606] yes=83,no=84,missing=83
						83:leaf=0.00873281
						84:leaf=-0.0216846
					42:[f1481<0.539406] yes=85,no=86,missing=85
						85:leaf=-0.0417876
						86:leaf=0.00089891
			10:[f879<0.94368] yes=21,no=22,missing=21
				21:[f1059<-0.110918] yes=43,no=44,missing=43
					43:[f1451<-0.0893652] yes=87,no=88,missing=87
						87:leaf=0.00443566
						88:leaf=0.0229888
					44:[f1764<1.05885] yes=89,no=90,missing=89
						89:leaf=-0.00562412
						90:leaf=0.0152712
				22:[f912<0.272658] yes=45,no=46,missing=45
					45:[f164<-0.26715] yes=91,no=92,missing=91
						91:leaf=0.0189537
						92:leaf=-0.0102608
					46:[f1062<-0.0599158] yes=93,no=94,missing=93
						93:leaf=-0.0340778
						94:leaf=0.00161352
	2:[f1821<-0.308982] yes=5,no=6,missing=5
		5:[f934<-0.180238] yes=11,no=12,missing=11
			11:[f1838<0.0957016] yes=23,no=24,missing=23
				23:[f15<0.208268] yes=47,no=48,missing=47
					47:[f1787<-0.471479] yes=95,no=96,missing=95
						95:leaf=-0.0156569
						96:leaf=-0.00133106
					48:[f1759<-0.427798] yes=97,no=98,missing=97
						97:leaf=-0.0205837
						98:leaf=-0.05
				24:[f984<-0.28642] yes=49,no=50,missing=49
					49:[f173<-0.365684] yes=99,no=100,missing=99
						99:leaf=-0.0175613
						100:leaf=0.00267726
					50:[f1818<0.035196] yes=101,no=102,missing=101
						101:leaf=0.0145755
						102:leaf=-0.00670666
			12:[f1808<0.0159015] yes=25,no=26,missing=25
				25:[f1451<-0.0963825] yes=51,no=52,missing=51
					51:[f1798<-0.468216] yes=103,no=104,missing=103
						103:leaf=-0.01533
						104:leaf=0.00592048
					52:[f1837<-0.387247] yes=105,no=106,missing=105
						105:leaf=0.0255949
						106:leaf=0.00836304
				26:[f1305<-0.290667] yes=53,no=54,missing=53
					53:[f1184<-0.000351885] yes=107,no=108,missing=107
						107:leaf=0.0121538
						108:leaf=-0.0204672
					54:[f890<-0.367951] yes=109,no=110,missing=109
						109:leaf=-0.00454518
						110:leaf=-0.0229357
		6:[f1828<0.757327] yes=13,no=14,missing=13
			13:[f909<-0.219983] yes=27,no=28,missing=27
				27:[f1828<-0.245196] yes=55,no=56,missing=55
					55:[f1669<0.0494393] yes=111,no=112,missing=111
						111:leaf=0.0114928
						112:leaf=-0.00284673
					56:[f1572<0.0278724] yes=113,no=114,missing=113
						113:leaf=0.0192643
						114:leaf=-0.000747117
				28:[f852<1.19974] yes=57,no=58,missing=57
					57:[f1774<-0.0599561] yes=115,no=116,missing=115
						115:leaf=0.00152752
						116:leaf=0.0122238
					58:[f923<-0.203436] yes=117,no=118,missing=117
						117:leaf=-0.0243671
						118:leaf=-0.00358114
			14:[f845<0.792754] yes=29,no=30,missing=29
				29:[f1816<0.668138] yes=59,no=60,missing=59
					59:[f1103<2.4586] yes=119,no=120,missing=119
						119:leaf=0.0279485
						120:leaf=-0.0127216
					60:[f789<-0.366729] yes=121,no=122,missing=121
						121:leaf=-0.0175948
						122:leaf=0.0138788
				30:[f1764<4.1898] yes=61,no=62,missing=61
					61:[f328<0.645326] yes=123,no=124,missing=123
						123:leaf=0.00958713
						124:leaf=-0.0118018
					62:[f606<-0.400244] yes=125,no=126,missing=125
						125:leaf=0.000917426
						126:leaf=0.0296133
booster[18]:
0:[f1840<-0.674229] yes=1,no=2,missing=1
	1:[f945<-0.165975] yes=3,no=4,missing=3
		3:[f946<-0.23156] yes=7,no=8,missing=7
			7:[f1798<-0.406536] yes=15,no=16,missing=15
				15:[f879<-0.823975] yes=31,no=32,missing=31
					31:[f945<-0.220814] yes=63,no=64,missing=63
						63:leaf=-0.0437892
						64:leaf=-0.0103968
					32:[f992<-0.0324013] yes=65,no=66,missing=65
						65:leaf=-0.05
						66:leaf=0.0076351
				16:[f27<-0.0524954] yes=33,no=34,missing=33
					33:[f1500<-0.0895427] yes=67,no=68,missing=67
						67:leaf=-0.0100907
						68:leaf=-0.0291542
					34:[f946<-0.248132] yes=69,no=70,missing=69
						69:leaf=-0.05
						70:leaf=-0.0236309
			8:[f26<-0.199179] yes=17,no=18,missing=17
				17:[f1840<-1.15688] yes=35,no=36,missing=35
					35:[f1463<-0.0532376] yes=71,no=72,missing=71
						71:leaf=-0.0322451
						72:leaf=0.00378979
					36:[f1745<-0.0757978] yes=73,no=74,missing=73
						73:leaf=-0.00324359
						74:leaf=0.0160518
				18:[f514<-0.388436] yes=37,no=38,missing=37
					37:[f79<-0.225703] yes=75,no=76,missing=75
						75:leaf=-0.0257577
						76:leaf=0.0058376
					38:[f1235<0.122328] yes=77,no=78,missing=77
						77:leaf=-0.0371469
						78:leaf=0.00443426
		4:[f1840<-1.09996] yes=9,no=10,missing=9
			9:[f1182<-0.0921442] yes=19,no=20,missing=19
				19:[f1459<-0.134483] yes=39,no=40,missing=39
					39:[f1352<-0.0844001] yes=79,no=80,missing=79
						79:leaf=-0.0337525
						80:leaf=0.00167045
					40:[f880<0.250368] yes=81,no=82,missing=81
						81:leaf=0.00990548
						82:leaf=-0.0141865
				20:[f1342<-0.0214789] yes=41,no=42,missing=41
					41:[f831<1.97481] yes=83,no=84,missing=83
						83:leaf=-0.0410627
						84:leaf=0.00451369
					42:[f1358<0.0774015] yes=85,no=86,missing=85
						85:leaf=0.0206613
						86:leaf=-0.0278791
			10:[f1260<0.589802] yes=21,no=22,missing=21
				21:[f840<-0.810054] yes=43,no=44,missing=43
					43:[f1466<-0.166489] yes=87,no=88,missing=87
						87:leaf=-0.0168985
						88:leaf=0.00525188
					44:[f945<-0.0877156] yes=89,no=90,missing=89
						89:leaf=-0.00161285
						90:leaf=0.0141106
				22:[f1339<-0.0770255] yes=45,no=46,missing=45
					45:[f15<-0.921177] yes=91,no=92,missing=91
						91:leaf=0.00439396
						92:leaf=-0.0360618
					46:[f1474<-0.0425345] yes=93,no=94,missing=93
						93:leaf=-0.0146126
						94:leaf=0.0153924
	2:[f1754<-0.275186] yes=5,no=6,missing=5
		5:[f1465<-0.0510693] yes=11,no=12,missing=11
			11:[f1764<-0.525586] yes=23,no=24,missing=23
				23:[f845<-0.843801] yes=47,no=48,missing=47
					47:[f1787<-0.587717] yes=95,no=96,missing=95
						95:leaf=-0.0167337
						96:leaf=0.00595854
					48:[f992<-0.258427] yes=97,no=98,missing=97
						97:leaf=-0.0333761
						98:leaf=-0.0125828
				24:[f1408<-0.0361095] yes=49,no=50,missing=49
					49:[f845<-0.539746] yes=99,no=100,missing=99
						99:leaf=0.0157201
						100:leaf=0.00493466
					50:[f1219<-0.103841] yes=101,no=102,missing=101
						101:leaf=-0.0145783
						102:leaf=0.00680718
			12:[f1148<-0.154349] yes=25,no=26,missing=25
				25:[f853<2.15775] yes=51,no=52,missing=51
					51:[f1255<-0.208723] yes=103,no=104,missing=103
						103:leaf=-0.0171111
						104:leaf=-0.00435391
					52:[f1747<-0.255151] yes=105,no=106,missing=105
						105:leaf=-0.0459776
						106:leaf=-0.00867213
				26:[f1584<0.288109] yes=53,no=54,missing=53
					53:[f1518<1.04409] yes=107,no=108,missing=107
						107:leaf=0.00371618
						108:leaf=-0.023556
					54:[f1510<2.73214] yes=109,no=110,missing=109
						109:leaf=0.0266954
						110:leaf=-0.0167509
		6:[f1569<-0.0357153] yes=13,no=14,missing=13
			13:[f879<-0.149617] yes=27,no=28,missing=27
				27:[f1787<-0.0963874] yes=55,no=56,missing=55
					55:[f1837<0.238457] yes=111,no=112,missing=111
						111:leaf=0.0110386
						112:leaf=-0.00597083
					56:[f1306<-0.102652] yes=113,no=114,missing=113
						113:leaf=0.0251281
						114:leaf=0.0133392
				28:[f1747<0.179827] yes=57,no=58,missing=57
					57:[f1173<-0.110563] yes=115,no=116,missing=115
						115:leaf=0.000638439
						116:leaf=-0.0108848
					58:[f840<-1.1235] yes=117,no=118,missing=117
						117:leaf=-0.0205073
						118:leaf=0.0114373
			14:[f1054<0.0238984] yes=29,no=30,missing=29
				29:[f1063<0.709305] yes=59,no=60,missing=59
					59:[f1837<-0.298774] yes=119,no=120,missing=119
						119:leaf=0.0268498
						120:leaf=0.016961
					60:[f1365<-0.0569896] yes=121,no=122,missing=121
						121:leaf=-0.0317061
						122:leaf=0.0151225
				30:[f650<0.576383] yes=61,no=62,missing=61
					61:[f1569<0.360454] yes=123,no=124,missing=123
						123:leaf=0.010519
						124:leaf=0.0240855
					62:[f1205<0.282563] yes=125,no=126,missing=125
						125:leaf=0.00497264
						126:leaf=-0.0272328
booster[19]:
0:[f1840<-0.674229] yes=1,no=2,missing=1
	1:[f946<-0.20888] yes=3,no=4,missing=3
		3:[f1798<-0.407082] yes=7,no=8,missing=7
			7:[f879<-0.653165] yes=15,no=16,missing=15
				15:[f1763<-0.211687] yes=31,no=32,missing=31
					31:[f948<-0.248534] yes=63,no=64,missing=63
						63:leaf=-0.0391749
						64:leaf=-0.0154605
					32:[f546<0.0329024] yes=65,no=66,missing=65
						65:leaf=0.0146601
						66:leaf=-0.0191567
				16:[f1400<0.351204] yes=33,no=34,missing=33
					33:[f1499<0.16388] yes=67,no=68,missing=67
						67:leaf=-0.05
						68:leaf=0.00521706
					34:[f359<0.0100498] yes=69,no=70,missing=69
						69:leaf=0.0206307
						70:leaf=-0.00745658
			8:[f27<0.0174045] yes=17,no=18,missing=17
				17:[f923<-0.2411] yes=35,no=36,missing=35
					35:[f945<-0.206944] yes=71,no=72,missing=71
						71:leaf=-0.0274727
						72:leaf=-0.00743515
					36:[f1164<-0.0598639] yes=73,no=74,missing=73
						73:leaf=0.00534975
						74:leaf=-0.0137103
				18:[f1759<-0.495334] yes=37,no=38,missing=37
					37:[f1054<-0.391201] yes=75,no=76,missing=75
						75:leaf=0.00889052
						76:leaf=-0.0283132
					38:[f787<-0.480232] yes=77,no=78,missing=77
						77:leaf=0.00493589
						78:leaf=-0.0496695
		4:[f903<0.220001] yes=9,no=10,missing=9
			9:[f1451<-0.0838362] yes=19,no=20,missing=19
				19:[f1367<0.018058] yes=39,no=40,missing=39
					39:[f1082<-0.0250718] yes=79,no=80,missing=79
						79:leaf=0.00508534
						80:leaf=-0.0229162
					40:[f1632<0.0524351] yes=81,no=82,missing=81
						81:leaf=-0.0302871
						82:leaf=0.00380289
				20:[f1459<0.254707] yes=41,no=42,missing=41
					41:[f1809<-0.349829] yes=83,no=84,missing=83
						83:leaf=0.00390534
						84:leaf=0.0234911
					42:[f1834<-0.125067] yes=85,no=86,missing=85
						85:leaf=0.00733242
						86:leaf=-0.0276757
			10:[f1764<0.841745] yes=21,no=22,missing=21
				21:[f1833<1.47154] yes=43,no=44,missing=43
					43:[f1183<-0.0384506] yes=87,no=88,missing=87
						87:leaf=-0.0127053
						88:leaf=-0.0396039
					44:[f903<2.01876] yes=89,no=90,missing=89
						89:leaf=0.0115234
						90:leaf=-0.0144688
				22:[f946<-0.00538603] yes=45,no=46,missing=45
					45:[f867<0.777587] yes=91,no=92,missing=91
						91:leaf=0.00290534
						92:leaf=-0.024237
					46:[f478<0.920348] yes=93,no=94,missing=93
						93:leaf=0.0286628
						94:leaf=-0.00297524
	2:[f1754<-0.153893] yes=5,no=6,missing=5
		5:[f1809<-0.29456] yes=11,no=12,missing=11
			11:[f890<-0.712523] yes=23,no=24,missing=23
				23:[f1787<-0.511808] yes=47,no=48,missing=47
					47:[f1459<-0.0622995] yes=95,no=96,missing=95
						95:leaf=-0.00738939
						96:leaf=0.014739
					48:[f1408<-0.0595546] yes=97,no=98,missing=97
						97:leaf=0.0132756
						98:leaf=0.000190175
				24:[f845<1.46662] yes=49,no=50,missing=49
					49:[f840<-0.40005] yes=99,no=100,missing=99
						99:leaf=-0.0152913
						100:leaf=-0.00471628
					50:[f834<2.1307] yes=101,no=102,missing=101
						101:leaf=-0.0382094
						102:leaf=-0.00539694
			12:[f890<-0.474572] yes=25,no=26,missing=25
				25:[f967<1.38869] yes=51,no=52,missing=51
					51:[f125<0.310849] yes=103,no=104,missing=103
						103:leaf=0.0202172
						104:leaf=0.00245675
					52:[f390<-0.0448128] yes=105,no=106,missing=105
						105:leaf=-0.0169168
						106:leaf=0.0117182
				26:[f1832<0.748742] yes=53,no=54,missing=53
					53:[f879<0.747932] yes=107,no=108,missing=107
						107:leaf=0.00396218
						108:leaf=-0.010649
					54:[f845<1.53071] yes=109,no=110,missing=109
						109:leaf=0.0168405
						110:leaf=-0.00236987
		6:[f1797<-0.221565] yes=13,no=14,missing=13
			13:[f934<-0.193534] yes=27,no=28,missing=27
				27:[f1840<-0.497809] yes=55,no=56,missing=55
					55:[f931<-0.212445] yes=111,no=112,missing=111
						111:leaf=-0.032378
						112:leaf=0.00638706
					56:[f1818<-0.0044875] yes=113,no=114,missing=113
						113:leaf=0.0193785
						114:leaf=-0.000801418
				28:[f1232<0.008751] yes=57,no=58,missing=57
					57:[f1465<0.0660283] yes=115,no=116,missing=115
						115:leaf=0.0272491
						116:leaf=0.00374738
					58:[f114<0.00634852] yes=117,no=118,missing=117
						117:leaf=0.0186281
						118:leaf=-0.00974648
			14:[f1747<1.12424] yes=29,no=30,missing=29
				29:[f845<1.03639] yes=59,no=60,missing=59
					59:[f1306<-0.0863796] yes=119,no=120,missing=119
						119:leaf=0.0139542
						120:leaf=0.00287498
					60:[f1180<-0.0892098] yes=121,no=122,missing=121
						121:leaf=-0.0242575
						122:leaf=9.9955e-05
				30:[f1669<0.34157] yes=61,no=62,missing=61
					61:[f845<0.712851] yes=123,no=124,missing=123
						123:leaf=0.0279446
						124:leaf=0.0147121
					62:[f63<-0.468416] yes=125,no=126,missing=125
						125:leaf=0.0134343
						126:leaf=-0.0118968
booster[20]:
0:[f1840<-0.947083] yes=1,no=2,missing=1
	1:[f946<-0.225153] yes=3,no=4,missing=3
		3:[f945<-0.188725] yes=7,no=8,missing=7
			7:[f1798<-0.285723] yes=15,no=16,missing=15
				15:[f1763<-0.129895] yes=31,no=32,missing=31
					31:[f1669<-0.17326] yes=63,no=64,missing=63
						63:leaf=-0.0367381
						64:leaf=-0.05
					32:[f1487<-0.117023] yes=65,no=66,missing=65
						65:leaf=-0.0265536
						66:leaf=0.0146734
				16:[f880<0.19419] yes=33,no=34,missing=33
					33:[f1753<-0.422121] yes=67,no=68,missing=67
						67:leaf=0.0171785
						68:leaf=-0.0162168
					34:[f119<-0.851499] yes=69,no=70,missing=69
						69:leaf=0.00711128
						70:leaf=-0.0433506
			8:[f27<-0.287373] yes=17,no=18,missing=17
				17:[f1451<-0.0846501] yes=35,no=36,missing=35
					35:[f1331<-0.121773] yes=71,no=72,missing=71
						71:leaf=-0.019936
						72:leaf=0.00843476
					36:[f1590<-0.0153058] yes=73,no=74,missing=73
						73:leaf=0.0197303
						74:leaf=-0.021297
				18:[f799<-0.384115] yes=37,no=38,missing=37
					37:[f946<-0.242563] yes=75,no=76,missing=75
						75:leaf=-0.0222997
						76:leaf=0.0139027
					38:[f1472<-0.0506806] yes=77,no=78,missing=77
						77:leaf=-0.0433677
						78:leaf=0.0011817
		4:[f1798<-0.38066] yes=9,no=10,missing=9
			9:[f890<-0.640035] yes=19,no=20,missing=19
				19:[f1765<-0.383733] yes=39,no=40,missing=39
					39:[f1025<-0.236709] yes=79,no=80,missing=79
						79:leaf=0.000827761
						80:leaf=-0.0326332
					40:[f772<0.0863414] yes=81,no=82,missing=81
						81:leaf=0.0102083
						82:leaf=-0.0187824
				20:[f1448<-0.100385] yes=41,no=42,missing=41
					41:[f89<-0.724045] yes=83,no=84,missing=83
						83:leaf=0.00401759
						84:leaf=-0.0445574
					42:[f1312<-0.186891] yes=85,no=86,missing=85
						85:leaf=-0.0280411
						86:leaf=0.000904968
			10:[f1827<0.257606] yes=21,no=22,missing=21
				21:[f880<0.152998] yes=43,no=44,missing=43
					43:[f1674<-0.00799195] yes=87,no=88,missing=87
						87:leaf=0.0107348
						88:leaf=-0.0178379
					44:[f1230<-0.18507] yes=89,no=90,missing=89
						89:leaf=-0.0212473
						90:leaf=0.00340427
				22:[f1772<0.735465] yes=45,no=46,missing=45
					45:[f1454<-0.144866] yes=91,no=92,missing=91
						91:leaf=-0.030303
						92:leaf=-0.00726217
					46:[f348<0.0787206] yes=93,no=94,missing=93
						93:leaf=0.0193838
						94:leaf=-0.0168906
	2:[f1764<-0.233296] yes=5,no=6,missing=5
		5:[f845<-0.697301] yes=11,no=12,missing=11
			11:[f1798<-0.427369] yes=23,no=24,missing=23
				23:[f984<-0.281173] yes=47,no=48,missing=47
					47:[f945<-0.227103] yes=95,no=96,missing=95
						95:leaf=-0.030834
						96:leaf=-0.0102156
					48:[f898<-0.336085] yes=97,no=98,missing=97
						97:leaf=0.00473662
						98:leaf=-0.011547
				24:[f1408<-0.0421362] yes=49,no=50,missing=49
					49:[f1768<-0.369089] yes=99,no=100,missing=99
						99:leaf=0.00703561
						100:leaf=0.0177939
					50:[f1666<-0.130255] yes=101,no=102,missing=101
						101:leaf=-0.00816842
						102:leaf=0.00734861
			12:[f918<0.608758] yes=25,no=26,missing=25
				25:[f1764<-0.5714] yes=51,no=52,missing=51
					51:[f1365<0.11331] yes=103,no=104,missing=103
						103:leaf=-0.0308425
						104:leaf=0.0299198
					52:[f1838<-0.358043] yes=105,no=106,missing=105
						105:leaf=-0.00906574
						106:leaf=0.00197046
				26:[f1771<-0.312173] yes=53,no=54,missing=53
					53:[f1798<-0.377169] yes=107,no=108,missing=107
						107:leaf=-0.0466785
						108:leaf=-0.0192714
					54:[f1268<0.0975638] yes=109,no=110,missing=109
						109:leaf=-0.0199966
						110:leaf=0.00895324
		6:[f1837<-0.301172] yes=13,no=14,missing=13
			13:[f1840<-0.562636] yes=27,no=28,missing=27
				27:[f934<-0.21377] yes=55,no=56,missing=55
					55:[f1590<-0.070204] yes=111,no=112,missing=111
						111:leaf=0.00513243
						112:leaf=-0.0387851
					56:[f918<0.0954332] yes=113,no=114,missing=113
						113:leaf=0.01644
						114:leaf=-0.00506968
				28:[f845<-0.432268] yes=57,no=58,missing=57
					57:[f1764<0.159957] yes=115,no=116,missing=115
						115:leaf=0.0210651
						116:leaf=0.0311279
					58:[f1764<0.238518] yes=117,no=118,missing=117
						117:leaf=0.00678591
						118:leaf=0.0199304
			14:[f1747<0.503134] yes=29,no=30,missing=29
				29:[f845<0.577496] yes=59,no=60,missing=59
					59:[f1596<-0.0661771] yes=119,no=120,missing=119
						119:leaf=0.00128756
						120:leaf=0.010757
					60:[f1577<-0.0962922] yes=121,no=122,missing=121
						121:leaf=-0.0118464
						122:leaf=0.00474123
				30:[f845<1.21236] yes=61,no=62,missing=61
					61:[f834<0.320609] yes=123,no=124,missing=123
						123:leaf=0.0116195
						124:leaf=0.0221585
					62:[f229<-0.0681413] yes=125,no=126,missing=125
						125:leaf=-0.0205725
						126:leaf=0.00692443
booster[21]:
0:[f1840<-0.937407] yes=1,no=2,missing=1
	1:[f1798<-0.281206] yes=3,no=4,missing=3
		3:[f879<-0.0855328] yes=7,no=8,missing=7
			7:[f1822<-0.489986] yes=15,no=16,missing=15
				15:[f1839<-0.773952] yes=31,no=32,missing=31
					31:[f682<-0.581728] yes=63,no=64,missing=63
						63:leaf=0.00834959
						64:leaf=-0.05
					32:[f1798<-0.463589] yes=65,no=66,missing=65
						65:leaf=-0.0449911
						66:leaf=-0.0176514
				16:[f873<-0.567391] yes=33,no=34,missing=33
					33:[f934<-0.22199] yes=67,no=68,missing=67
						67:leaf=-0.0127783
						68:leaf=0.00878761
					34:[f1765<0.94763] yes=69,no=70,missing=69
						69:leaf=-0.0231832
						70:leaf=0.00709653
			8:[f1305<-0.00456675] yes=17,no=18,missing=17
				17:[f862<-0.874291] yes=35,no=36,missing=35
					35:[f1774<-0.466011] yes=71,no=72,missing=71
						71:leaf=0.0138327
						72:leaf=-0.00935627
					36:[f1235<2.50344] yes=73,no=74,missing=73
						73:leaf=-0.05
						74:leaf=0.00785373
				18:[f857<0.772215] yes=37,no=38,missing=37
					37:[f121<-0.750944] yes=75,no=76,missing=75
						75:leaf=0.00869562
						76:leaf=-0.0338449
					38:[f777<-0.206015] yes=77,no=78,missing=77
						77:leaf=-0.0107424
						78:leaf=0.0252021
		4:[f879<0.598426] yes=9,no=10,missing=9
			9:[f1633<-0.298137] yes=19,no=20,missing=19
				19:[f1242<-0.149209] yes=39,no=40,missing=39
					39:[f1361<-0.161921] yes=79,no=80,missing=79
						79:leaf=-0.0270765
						80:leaf=0.00960598
					40:[f1839<-0.868134] yes=81,no=82,missing=81
						81:leaf=-0.0065606
						82:leaf=0.0171261
				20:[f1451<-0.0939669] yes=41,no=42,missing=41
					41:[f1839<-0.872797] yes=83,no=84,missing=83
						83:leaf=-0.0334219
						84:leaf=-0.0111614
					42:[f844<-0.285269] yes=85,no=86,missing=85
						85:leaf=-0.0108797
						86:leaf=0.0138264
			10:[f1798<0.399327] yes=21,no=22,missing=21
				21:[f1144<-0.221166] yes=43,no=44,missing=43
					43:[f1774<-0.168793] yes=87,no=88,missing=87
						87:leaf=-0.0253116
						88:leaf=0.000653122
					44:[f1454<1.50513] yes=89,no=90,missing=89
						89:leaf=-0.0424993
						90:leaf=0.00957412
