booster[0]:
0:[f1840<-0.779371] yes=1,no=2,missing=1
	1:[f934<-0.183896] yes=3,no=4,missing=3
		3:[f945<-0.157858] yes=7,no=8,missing=7
			7:[f1798<0.0463469] yes=15,no=16,missing=15
				15:[f946<-0.214118] yes=31,no=32,missing=31
					31:[f1604<2.77286] yes=63,no=64,missing=63
						63:leaf=-0.05
						64:leaf=0.00685689
					32:[f1803<-0.254642] yes=65,no=66,missing=65
						65:leaf=-0.0408496
						66:leaf=-0.0110019
				16:[f26<-0.0709365] yes=33,no=34,missing=33
					33:[f1840<-1.01126] yes=67,no=68,missing=67
						67:leaf=-0.0202598
						68:leaf=0.0113925
					34:[f620<-0.779479] yes=69,no=70,missing=69
						69:leaf=0.00807439
						70:leaf=-0.0447094
			8:[f15<0.744788] yes=17,no=18,missing=17
				17:[f1840<-1.0103] yes=35,no=36,missing=35
					35:[f1471<-0.0890455] yes=71,no=72,missing=71
						71:leaf=-0.00853697
						72:leaf=-0.0302053
					36:[f1798<-0.297707] yes=73,no=74,missing=73
						73:leaf=-0.0090176
						74:leaf=0.0157661
				18:[f28<-0.503194] yes=37,no=38,missing=37
					37:leaf=0.00651235
					38:[f287<-0.780257] yes=77,no=78,missing=77
						77:leaf=0.00111255
						78:leaf=-0.05
		4:[f1840<-1.12463] yes=9,no=10,missing=9
			9:[f1451<-0.0920522] yes=19,no=20,missing=19
				19:[f1120<-0.0681028] yes=39,no=40,missing=39
					39:[f1569<1.26187] yes=79,no=80,missing=79
						79:leaf=-0.05
						80:leaf=0.00595931
					40:[f1270<-0.102969] yes=81,no=82,missing=81
						81:leaf=0.0100475
						82:leaf=-0.0280617
				20:[f1082<-0.0888305] yes=41,no=42,missing=41
					41:[f1422<-0.116342] yes=83,no=84,missing=83
						83:leaf=0.0176109
						84:leaf=-0.0128304
					42:[f1223<0.448594] yes=85,no=86,missing=85
						85:leaf=-0.0357429
						86:leaf=0.00876813
			10:[f1840<-1.00417] yes=21,no=22,missing=21
				21:[f934<-0.0578206] yes=43,no=44,missing=43
					43:[f15<0.633114] yes=87,no=88,missing=87
						87:leaf=-0.00603807
						88:leaf=-0.0379856
					44:[f1577<-0.018135] yes=89,no=90,missing=89
						89:leaf=0.0130888
						90:leaf=-0.0118229
				22:[f903<0.384101] yes=45,no=46,missing=45
					45:[f1039<-0.0222539] yes=91,no=92,missing=91
						91:leaf=0.0224777
						92:leaf=-0.002673
					46:[f1599<-0.0478804] yes=93,no=94,missing=93
						93:leaf=-0.0226771
						94:leaf=0.00530501
	2:[f1772<-0.322403] yes=5,no=6,missing=5
		5:[f1821<-0.34963] yes=11,no=12,missing=11
			11:[f853<-0.0850562] yes=23,no=24,missing=23
				23:[f934<-0.212626] yes=47,no=48,missing=47
					47:[f1794<-0.549255] yes=95,no=96,missing=95
						95:leaf=-0.0263293
						96:leaf=-0.00403963
					48:[f1575<-0.0641131] yes=97,no=98,missing=97
						97:leaf=-0.00103559
						98:leaf=0.0190323
				24:[f1817<-0.446291] yes=49,no=50,missing=49
					49:[f327<0.347333] yes=99,no=100,missing=99
						99:leaf=-0.05
						100:leaf=-0.0168263
					50:[f853<1.27753] yes=101,no=102,missing=101
						101:leaf=-0.0134668
						102:leaf=-0.0366238
			12:[f1465<-0.0297783] yes=25,no=26,missing=25
				25:[f1754<-0.242894] yes=51,no=52,missing=51
					51:[f1660<-0.156605] yes=103,no=104,missing=103
						103:leaf=0.00451765
						104:leaf=0.0211493
					52:[f1671<-0.0832904] yes=105,no=106,missing=105
						105:leaf=0.0321962
						106:leaf=0.0105153
				26:[f1838<-0.118907] yes=53,no=54,missing=53
					53:[f1821<-0.207218] yes=107,no=108,missing=107
						107:leaf=-0.0202202
						108:leaf=0.00132333
					54:[f1308<-0.0990651] yes=109,no=110,missing=109
						109:leaf=0.018391
						110:leaf=-0.00675538
		6:[f1817<0.307326] yes=13,no=14,missing=13
			13:[f853<0.0604761] yes=27,no=28,missing=27
				27:[f1764<-0.0837021] yes=55,no=56,missing=55
					55:[f845<-0.546422] yes=111,no=112,missing=111
						111:leaf=0.0230423
						112:leaf=0.00330966
					56:[f845<-0.115775] yes=113,no=114,missing=113
						113:leaf=0.0388692
						114:leaf=0.0217236
				28:[f853<1.2282] yes=57,no=58,missing=57
					57:[f1809<0.430706] yes=115,no=116,missing=115
						115:leaf=0.005213
						116:leaf=0.0247111
					58:[f1809<0.105371] yes=117,no=118,missing=117
						117:leaf=-0.0229807
						118:leaf=-0.000112932
			14:[f967<0.496683] yes=29,no=30,missing=29
				29:[f879<0.766583] yes=59,no=60,missing=59
					59:[f1821<0.595728] yes=119,no=120,missing=119
						119:leaf=0.0379702
						120:leaf=0.0499339
					60:[f1764<1.62412] yes=121,no=122,missing=121
						121:leaf=0.0124168
						122:leaf=0.0375888
				30:[f297<-0.0349959] yes=61,no=62,missing=61
					61:[f1754<0.448753] yes=123,no=124,missing=123
						123:leaf=-0.000378475
						124:leaf=0.0234107
					62:[f1808<2.39959] yes=125,no=126,missing=125
						125:leaf=0.0326598
						126:leaf=0.000933765
booster[1]:
0:[f1840<-0.827105] yes=1,no=2,missing=1
	1:[f934<-0.197984] yes=3,no=4,missing=3
		3:[f945<-0.157861] yes=7,no=8,missing=7
			7:[f1798<0.0585812] yes=15,no=16,missing=15
				15:[f920<0.0434712] yes=31,no=32,missing=31
					31:[f1838<4.59636] yes=63,no=64,missing=63
						63:leaf=-0.05
						64:leaf=0.00530843
					32:[f1110<-0.153464] yes=65,no=66,missing=65
						65:leaf=0.0106783
						66:leaf=-0.0250972
				16:[f918<0.392981] yes=33,no=34,missing=33
					33:[f1840<-1.09996] yes=67,no=68,missing=67
						67:leaf=-0.032593
						68:leaf=-0.00525355
					34:[f1544<-0.0852546] yes=69,no=70,missing=69
						69:leaf=0.00169302
						70:leaf=-0.05
			8:[f1290<-0.0432297] yes=17,no=18,missing=17
				17:[f1491<-0.182016] yes=35,no=36,missing=35
					35:[f894<-0.70316] yes=71,no=72,missing=71
						71:leaf=-0.00269614
						72:leaf=-0.0356421
					36:[f530<-0.161512] yes=73,no=74,missing=73
						73:leaf=0.0110758
						74:leaf=-0.0196294
				18:[f923<-0.18251] yes=37,no=38,missing=37
					37:[f1480<-0.0293261] yes=75,no=76,missing=75
						75:leaf=-0.05
						76:leaf=-7.15825e-05
					38:[f349<-0.350463] yes=77,no=78,missing=77
						77:leaf=0.0135198
						78:leaf=-0.0270034
		4:[f1840<-1.09996] yes=9,no=10,missing=9
			9:[f1451<-0.0684748] yes=19,no=20,missing=19
				19:[f1838<0.353232] yes=39,no=40,missing=39
					39:[f1462<-0.111199] yes=79,no=80,missing=79
						79:leaf=-0.05
						80:leaf=-0.0274881
					40:[f1774<-0.342555] yes=81,no=82,missing=81
						81:leaf=-0.0290935
						82:leaf=0.00510658
				20:[f1428<-0.0615574] yes=41,no=42,missing=41
					41:[f852<0.130492] yes=83,no=84,missing=83
						83:leaf=0.0252849
						84:leaf=-0.0126476
					42:[f1057<-0.253819] yes=85,no=86,missing=85
						85:leaf=0.00389603
						86:leaf=-0.0301998
			10:[f15<0.931245] yes=21,no=22,missing=21
				21:[f934<-0.0684783] yes=43,no=44,missing=43
					43:[f852<0.614791] yes=87,no=88,missing=87
						87:leaf=0.00138031
						88:leaf=-0.0247044
					44:[f1518<-0.379863] yes=89,no=90,missing=89
						89:leaf=-0.0215242
						90:leaf=0.019767
				22:[f934<0.135211] yes=45,no=46,missing=45
					45:[f174<-0.346984] yes=91,no=92,missing=91
						91:leaf=-0.00410182
						92:leaf=-0.0416084
					46:[f1764<-0.119552] yes=93,no=94,missing=93
						93:leaf=-0.0145517
						94:leaf=0.0165795
	2:[f1772<-0.279568] yes=5,no=6,missing=5
		5:[f1821<-0.333049] yes=11,no=12,missing=11
			11:[f934<-0.178688] yes=23,no=24,missing=23
				23:[f918<0.688593] yes=47,no=48,missing=47
					47:[f1764<-0.478943] yes=95,no=96,missing=95
						95:leaf=-0.0211562
						96:leaf=-0.00133315
					48:[f946<-0.238603] yes=97,no=98,missing=97
						97:leaf=-0.05
						98:leaf=-0.0236135
				24:[f1575<-0.0615699] yes=49,no=50,missing=49
					49:[f1297<-0.128733] yes=99,no=100,missing=99
						99:leaf=0.00899832
						100:leaf=-0.0127266
					50:[f638<0.243552] yes=101,no=102,missing=101
						101:leaf=0.0267215
						102:leaf=-0.0020583
			12:[f853<-0.462249] yes=25,no=26,missing=25
				25:[f1794<-0.384244] yes=51,no=52,missing=51
					51:[f965<0.353935] yes=103,no=104,missing=103
						103:leaf=0.0138005
						104:leaf=-0.0108869
					52:[f1203<-0.0973724] yes=105,no=106,missing=105
						105:leaf=0.0314784
						106:leaf=0.0149243
				26:[f1837<-0.174796] yes=53,no=54,missing=53
					53:[f879<0.87198] yes=107,no=108,missing=107
						107:leaf=0.0130198
						108:leaf=-0.0109383
					54:[f1061<-0.106042] yes=109,no=110,missing=109
						109:leaf=0.00387785
						110:leaf=-0.0174199
		6:[f1817<0.636032] yes=13,no=14,missing=13
			13:[f845<0.251583] yes=27,no=28,missing=27
				27:[f1764<-0.106469] yes=55,no=56,missing=55
					55:[f845<-0.879864] yes=111,no=112,missing=111
						111:leaf=0.026075
						112:leaf=0.0109362
					56:[f845<-0.44365] yes=113,no=114,missing=113
						113:leaf=0.0398534
						114:leaf=0.0269085
				28:[f1764<0.385883] yes=57,no=58,missing=57
					57:[f840<-0.499047] yes=115,no=116,missing=115
						115:leaf=-0.0180396
						116:leaf=0.0026509
					58:[f867<1.11729] yes=117,no=118,missing=117
						117:leaf=0.0219675
						118:leaf=-0.00304916
			14:[f940<0.495806] yes=29,no=30,missing=29
				29:[f1840<-0.585213] yes=59,no=60,missing=59
					59:[f943<-0.214969] yes=119,no=120,missing=119
						119:leaf=-0.0219002
						120:leaf=0.0225784
					60:[f1817<1.27236] yes=121,no=122,missing=121
						121:leaf=0.0347154
						122:leaf=0.0462482
				30:[f820<1.29472] yes=61,no=62,missing=61
					61:[f203<-0.590731] yes=123,no=124,missing=123
						123:leaf=0.00158666
						124:leaf=0.0245506
					62:[f321<2.46766] yes=125,no=126,missing=125
						125:leaf=-0.0224283
						126:leaf=0.01155
booster[2]:
0:[f1840<-0.813559] yes=1,no=2,missing=1
	1:[f934<-0.195036] yes=3,no=4,missing=3
		3:[f945<-0.166844] yes=7,no=8,missing=7
			7:[f1798<-0.0408561] yes=15,no=16,missing=15
				15:[f946<-0.214125] yes=31,no=32,missing=31
					31:[f1047<0.320726] yes=63,no=64,missing=63
						63:leaf=-0.05
						64:leaf=0.00439591
					32:[f1001<-0.207542] yes=65,no=66,missing=65
						65:leaf=-0.0073161
						66:leaf=-0.0414116
				16:[f879<0.232167] yes=33,no=34,missing=33
					33:[f1840<-1.01449] yes=67,no=68,missing=67
						67:leaf=-0.0160625
						68:leaf=0.0172554
					34:[f1<-0.730462] yes=69,no=70,missing=69
						69:leaf=-0.00175601
						70:leaf=-0.041215
			8:[f15<-0.1435] yes=17,no=18,missing=17
				17:[f1840<-0.958049] yes=35,no=36,missing=35
					35:[f1803<-0.290648] yes=71,no=72,missing=71
						71:leaf=-0.0343539
						72:leaf=-0.00830464
					36:[f1709<-0.0650543] yes=73,no=74,missing=73
						73:leaf=0.01641
						74:leaf=-0.0152288
				18:[f1188<-0.104064] yes=37,no=38,missing=37
					37:[f838<1.18593] yes=75,no=76,missing=75
						75:leaf=-0.0172263
						76:leaf=0.0164973
					38:[f620<-0.777828] yes=77,no=78,missing=77
						77:leaf=0.00195667
						78:leaf=-0.05
		4:[f1839<-0.928746] yes=9,no=10,missing=9
			9:[f1182<-0.12481] yes=19,no=20,missing=19
				19:[f122<0.66306] yes=39,no=40,missing=39
					39:[f1457<-0.0861494] yes=79,no=80,missing=79
						79:leaf=-0.0299131
						80:leaf=0.00758738
					40:[f988<-0.265575] yes=81,no=82,missing=81
						81:leaf=0.0213291
						82:leaf=-0.00887262
				20:[f1610<1.12869] yes=41,no=42,missing=41
					41:[f829<-1.21111] yes=83,no=84,missing=83
						83:leaf=0.00281623
						84:leaf=-0.05
					42:leaf=0.00614744
			10:[f1798<-0.117842] yes=21,no=22,missing=21
				21:[f879<-0.618379] yes=43,no=44,missing=43
					43:[f1323<-0.256304] yes=87,no=88,missing=87
						87:leaf=-0.0110515
						88:leaf=0.0112417
					44:[f880<-0.100591] yes=89,no=90,missing=89
						89:leaf=-0.0116496
						90:leaf=-0.0344473
				22:[f934<-0.142568] yes=45,no=46,missing=45
					45:[f15<0.285524] yes=91,no=92,missing=91
						91:leaf=0.00339788
						92:leaf=-0.0269354
					46:[f1059<-0.102711] yes=93,no=94,missing=93
						93:leaf=0.022199
						94:leaf=0.0023252
	2:[f1772<-0.336431] yes=5,no=6,missing=5
		5:[f853<-0.325705] yes=11,no=12,missing=11
			11:[f1754<-0.357203] yes=23,no=24,missing=23
				23:[f1787<-0.441984] yes=47,no=48,missing=47
					47:[f934<-0.231964] yes=95,no=96,missing=95
						95:leaf=-0.0271276
						96:leaf=-0.00508195
					48:[f1408<-0.066192] yes=97,no=98,missing=97
						97:leaf=0.0120341
						98:leaf=-0.0050842
				24:[f1787<-0.0456364] yes=49,no=50,missing=49
					49:[f945<-0.224406] yes=99,no=100,missing=99
						99:leaf=-0.0153673
						100:leaf=0.0124192
					50:[f868<-0.0318734] yes=101,no=102,missing=101
						101:leaf=0.0331647
						102:leaf=0.0154535
			12:[f1764<-0.501837] yes=25,no=26,missing=25
				25:[f918<0.41746] yes=51,no=52,missing=51
					51:[f923<-0.243995] yes=103,no=104,missing=103
						103:leaf=-0.036464
						104:leaf=-0.0103729
					52:[f188<-0.768802] yes=105,no=106,missing=105
						105:leaf=0.00269532
						106:leaf=-0.05
				26:[f880<0.670155] yes=53,no=54,missing=53
					53:[f1747<-0.403541] yes=107,no=108,missing=107
						107:leaf=-0.0172391
						108:leaf=-0.0011188
					54:[f722<0.122843] yes=109,no=110,missing=109
						109:leaf=-0.0366179
						110:leaf=-0.00747265
		6:[f1754<-0.0168246] yes=13,no=14,missing=13
			13:[f845<0.467778] yes=27,no=28,missing=27
				27:[f1809<0.0131764] yes=55,no=56,missing=55
					55:[f845<-0.532504] yes=111,no=112,missing=111
						111:leaf=0.0185922
						112:leaf=0.00491882
					56:[f1764<0.408111] yes=113,no=114,missing=113
						113:leaf=0.0232826
						114:leaf=0.0361987
				28:[f1809<0.401668] yes=57,no=58,missing=57
					57:[f840<-0.698378] yes=115,no=116,missing=115
						115:leaf=-0.0266402
						116:leaf=-0.00428794
					58:[f1131<-0.0507601] yes=117,no=118,missing=117
						117:leaf=0.0179001
						118:leaf=-0.00311438
			14:[f1840<-0.564571] yes=29,no=30,missing=29
				29:[f943<-0.212132] yes=59,no=60,missing=59
					59:[f992<-0.238328] yes=119,no=120,missing=119
						119:leaf=-0.0418017
						120:leaf=0.0118148
					60:[f1828<0.082037] yes=121,no=122,missing=121
						121:leaf=0.0048627
						122:leaf=0.0284899
				30:[f1808<0.295084] yes=61,no=62,missing=61
					61:[f1837<-0.196596] yes=123,no=124,missing=123
						123:leaf=0.0401135
						124:leaf=0.0272521
					62:[f804<1.21041] yes=125,no=126,missing=125
						125:leaf=0.023802
						126:leaf=-0.00171084
booster[3]:
0:[f1840<-0.779371] yes=1,no=2,missing=1
	1:[f934<-0.190953] yes=3,no=4,missing=3
		3:[f945<-0.169699] yes=7,no=8,missing=7
			7:[f1798<-0.230641] yes=15,no=16,missing=15
				15:[f946<-0.23568] yes=31,no=32,missing=31
					31:[f1815<0.734857] yes=63,no=64,missing=63
						63:leaf=-0.05
						64:leaf=0.00538641
					32:[f27<0.0421168] yes=65,no=66,missing=65
						65:leaf=-0.0178746
						66:leaf=-0.0469429
				16:[f880<0.176832] yes=33,no=34,missing=33
					33:[f1590<0.0951572] yes=67,no=68,missing=67
						67:leaf=-0.0141996
						68:leaf=-0.0495323
					34:[f176<1.28112] yes=69,no=70,missing=69
						69:leaf=-0.05
						70:leaf=-0.0132042
			8:[f15<0.575204] yes=17,no=18,missing=17
				17:[f1840<-1.01707] yes=35,no=36,missing=35
					35:[f1519<-0.124944] yes=71,no=72,missing=71
						71:leaf=-0.0378591
						72:leaf=-0.0104379
					36:[f174<-0.261505] yes=73,no=74,missing=73
						73:leaf=0.0165389
						74:leaf=-0.00493999
				18:[f988<-0.297044] yes=37,no=38,missing=37
					37:[f1073<-0.104584] yes=75,no=76,missing=75
						75:leaf=0.0133901
						76:leaf=-0.00984088
					38:[f283<-0.823536] yes=77,no=78,missing=77
						77:leaf=0.00568805
						78:leaf=-0.05
		4:[f1840<-1.10125] yes=9,no=10,missing=9
			9:[f1451<-0.100986] yes=19,no=20,missing=19
				19:[f1097<-0.224043] yes=39,no=40,missing=39
					39:[f751<-0.864534] yes=79,no=80,missing=79
						79:leaf=0.00459785
						80:leaf=-0.05
					40:[f493<-0.592068] yes=81,no=82,missing=81
						81:leaf=-0.00213571
						82:leaf=-0.0334656
				20:[f1084<-0.103113] yes=41,no=42,missing=41
					41:[f878<0.758774] yes=83,no=84,missing=83
						83:leaf=0.0139814
						84:leaf=-0.016983
					42:[f424<-0.546597] yes=85,no=86,missing=85
						85:leaf=0.0120535
						86:leaf=-0.0316008
			10:[f15<0.259493] yes=21,no=22,missing=21
				21:[f940<0.817026] yes=43,no=44,missing=43
					43:[f1840<-1.00643] yes=87,no=88,missing=87
						87:leaf=0.00359147
						88:leaf=0.02319
					44:[f1174<0.215038] yes=89,no=90,missing=89
						89:leaf=-0.0322693
						90:leaf=0.0083307
				22:[f934<0.0523422] yes=45,no=46,missing=45
					45:[f1828<0.12295] yes=91,no=92,missing=91
						91:leaf=-0.027333
						92:leaf=0.000646658
					46:[f1508<-0.142174] yes=93,no=94,missing=93
						93:leaf=-0.0116805
						94:leaf=0.016451
	2:[f1772<-0.303745] yes=5,no=6,missing=5
		5:[f1821<-0.333521] yes=11,no=12,missing=11
			11:[f853<-0.182099] yes=23,no=24,missing=23
				23:[f1817<-0.424852] yes=47,no=48,missing=47
					47:[f934<-0.225155] yes=95,no=96,missing=95
						95:leaf=-0.0207278
						96:leaf=-0.000931441
					48:[f898<-0.575717] yes=97,no=98,missing=97
						97:leaf=0.0140321
						98:leaf=0.000490983
				24:[f1817<-0.460267] yes=49,no=50,missing=49
					49:[f1809<-0.554238] yes=99,no=100,missing=99
						99:leaf=-0.0499104
						100:leaf=-0.0106842
					50:[f880<0.671586] yes=101,no=102,missing=101
						101:leaf=-0.0118639
						102:leaf=-0.0313473
			12:[f890<-0.461128] yes=25,no=26,missing=25
				25:[f1780<-0.430319] yes=51,no=52,missing=51
					51:[f861<-0.627268] yes=103,no=104,missing=103
						103:leaf=0.0161952
						104:leaf=-0.00973469
					52:[f962<1.30452] yes=105,no=106,missing=105
						105:leaf=0.0289258
						106:leaf=-0.0119016
				26:[f1809<0.23959] yes=53,no=54,missing=53
					53:[f1827<-0.205083] yes=107,no=108,missing=107
						107:leaf=0.0109428
						108:leaf=-0.00952861
					54:[f883<-0.225655] yes=109,no=110,missing=109
						109:leaf=0.0286748
						110:leaf=0.00637275
		6:[f1817<0.279362] yes=13,no=14,missing=13
			13:[f898<-0.549096] yes=27,no=28,missing=27
				27:[f1798<-0.19887] yes=55,no=56,missing=55
					55:[f840<-0.953687] yes=111,no=112,missing=111
						111:leaf=0.0017913
						112:leaf=0.0209087
					56:[f845<-0.0498795] yes=113,no=114,missing=113
						113:leaf=0.0354645
						114:leaf=0.019283
				28:[f840<-0.330245] yes=57,no=58,missing=57
					57:[f845<0.347078] yes=115,no=116,missing=115
						115:leaf=0.00547125
						116:leaf=-0.0106708
					58:[f853<0.570867] yes=117,no=118,missing=117
						117:leaf=0.0193433
						118:leaf=0.00272258
			14:[f967<0.498573] yes=29,no=30,missing=29
				29:[f868<0.288914] yes=59,no=60,missing=59
					59:[f1764<1.36082] yes=119,no=120,missing=119
						119:leaf=0.0340145
						120:leaf=0.0472265
					60:[f1832<0.786562] yes=121,no=122,missing=121
						121:leaf=0.00447037
						122:leaf=0.0315424
				30:[f1820<0.200646] yes=61,no=62,missing=61
					61:[f1248<-0.084744] yes=123,no=124,missing=123
						123:leaf=-0.0118791
						124:leaf=0.0249055
					62:[f1798<-0.285395] yes=125,no=126,missing=125
						125:leaf=-0.0185406
						126:leaf=0.0103423
booster[4]:
0:[f1840<-0.779371] yes=1,no=2,missing=1
	1:[f945<-0.166346] yes=3,no=4,missing=3
		3:[f946<-0.226869] yes=7,no=8,missing=7
			7:[f1798<-0.203993] yes=15,no=16,missing=15
				15:[f950<-0.163421] yes=31,no=32,missing=31
					31:[f1472<1.43875] yes=63,no=64,missing=63
						63:leaf=-0.05
						64:leaf=0.00889845
					32:[f1759<-0.265997] yes=65,no=66,missing=65
						65:leaf=-0.00584658
						66:leaf=-0.0367875
				16:[f73<-0.31072] yes=33,no=34,missing=33
					33:[f918<-0.621397] yes=67,no=68,missing=67
						67:leaf=0.00373437
						68:leaf=-0.0225372
					34:[f934<-0.130755] yes=69,no=70,missing=69
						69:leaf=-0.0430669
						70:leaf=0.00288318
			8:[f26<-0.133776] yes=17,no=18,missing=17
				17:[f1583<-0.0629495] yes=35,no=36,missing=35
					35:[f1490<-0.173758] yes=71,no=72,missing=71
						71:leaf=-0.0345413
						72:leaf=-0.00787887
					36:[f1011<-0.0481047] yes=73,no=74,missing=73
						73:leaf=0.0137362
						74:leaf=-0.0125359
				18:[f551<-0.437149] yes=37,no=38,missing=37
					37:[f539<-0.372624] yes=75,no=76,missing=75
						75:leaf=0.0175279
						76:leaf=-0.0176287
					38:[f850<-0.779293] yes=77,no=78,missing=77
						77:leaf=-0.00588729
						78:leaf=-0.0447321
		4:[f1840<-1.09544] yes=9,no=10,missing=9
			9:[f1466<-0.17501] yes=19,no=20,missing=19
				19:[f1182<-0.125527] yes=39,no=40,missing=39
					39:[f845<-0.728052] yes=79,no=80,missing=79
						79:leaf=0.0120902
						80:leaf=-0.0180635
					40:[f630<-0.672691] yes=81,no=82,missing=81
						81:leaf=-0.000600148
						82:leaf=-0.048826
				20:[f1291<-0.0686641] yes=41,no=42,missing=41
					41:[f948<-0.101869] yes=83,no=84,missing=83
						83:leaf=-0.0134268
						84:leaf=0.0119822
					42:[f1491<0.974151] yes=85,no=86,missing=85
						85:leaf=-0.0367273
						86:leaf=0.0108532
			10:[f15<0.996386] yes=21,no=22,missing=21
				21:[f1798<-0.122586] yes=43,no=44,missing=43
					43:[f879<-0.559625] yes=87,no=88,missing=87
						87:leaf=0.00384638
						88:leaf=-0.0147014
					44:[f934<-0.155682] yes=89,no=90,missing=89
						89:leaf=0.00259797
						90:leaf=0.0216534
				22:[f934<0.393977] yes=45,no=46,missing=45
					45:[f13<-0.731075] yes=91,no=92,missing=91
						91:leaf=0.00359801
						92:leaf=-0.0425844
					46:[f1049<-0.0665478] yes=93,no=94,missing=93
						93:leaf=0.0252483
						94:leaf=-0.00992472
	2:[f1821<-0.278125] yes=5,no=6,missing=5
		5:[f934<-0.188153] yes=11,no=12,missing=11
			11:[f1772<-0.380877] yes=23,no=24,missing=23
				23:[f918<0.608797] yes=47,no=48,missing=47
					47:[f1809<-0.590176] yes=95,no=96,missing=95
						95:leaf=-0.0234431
						96:leaf=-0.00696704
					48:[f1596<-0.0502537] yes=97,no=98,missing=97
						97:leaf=-0.0419556
						98:leaf=-0.00672363
				24:[f15<-0.050882] yes=49,no=50,missing=49
					49:[f1787<-0.0055958] yes=99,no=100,missing=99
						99:leaf=0.00394665
						100:leaf=0.0218152
					50:[f1787<0.162698] yes=101,no=102,missing=101
						101:leaf=-0.025751
						102:leaf=0.00366395
			12:[f1575<0.0251934] yes=25,no=26,missing=25
				25:[f1063<0.69783] yes=51,no=52,missing=51
					51:[f1783<-0.251604] yes=103,no=104,missing=103
						103:leaf=0.00227183
						104:leaf=0.0173485
					52:[f875<-0.747734] yes=105,no=106,missing=105
						105:leaf=-0.00502331
						106:leaf=-0.0493124
				26:[f831<2.21838] yes=53,no=54,missing=53
					53:[f1117<0.371] yes=107,no=108,missing=107
						107:leaf=0.0361867
						108:leaf=-0.00127196
					54:[f477<1.29183] yes=109,no=110,missing=109
						109:leaf=-0.0234504
						110:leaf=0.0163201
		6:[f1764<0.725169] yes=13,no=14,missing=13
			13:[f845<-0.143682] yes=27,no=28,missing=27
				27:[f1821<0.340015] yes=55,no=56,missing=55
					55:[f1816<-0.300554] yes=111,no=112,missing=111
						111:leaf=0.0262127
						112:leaf=0.0127952
					56:[f967<0.12111] yes=113,no=114,missing=113
						113:leaf=0.0376926
						114:leaf=0.0190655
				28:[f1809<-0.0582865] yes=57,no=58,missing=57
					57:[f1575<-0.0397073] yes=115,no=116,missing=115
						115:leaf=-0.0142735
						116:leaf=0.00840238
					58:[f879<1.45109] yes=117,no=118,missing=117
						117:leaf=0.0105267
						118:leaf=-0.0104857
			14:[f845<0.417294] yes=29,no=30,missing=29
				29:[f1367<0.056431] yes=59,no=60,missing=59
					59:[f486<2.98129] yes=119,no=120,missing=119
						119:leaf=0.0420116
						120:leaf=-0.01208
					60:[f548<-0.622146] yes=121,no=122,missing=121
						121:leaf=-0.0137772
						122:leaf=0.0251057
				30:[f1764<1.43875] yes=61,no=62,missing=61
					61:[f845<1.18305] yes=123,no=124,missing=123
						123:leaf=0.0213624
						124:leaf=-0.00101227
					62:[f1627<-0.187529] yes=125,no=126,missing=125
						125:leaf=0.0180368
						126:leaf=0.03374
booster[5]:
0:[f1840<-0.813559] yes=1,no=2,missing=1
	1:[f945<-0.172341] yes=3,no=4,missing=3
		3:[f946<-0.230665] yes=7,no=8,missing=7
			7:[f1798<-0.20432] yes=15,no=16,missing=15
				15:[f934<-0.155424] yes=31,no=32,missing=31
					31:[f1815<0.670278] yes=63,no=64,missing=63
						63:leaf=-0.05
						64:leaf=0.00310164
					32:[f807<-0.231356] yes=65,no=66,missing=65
						65:leaf=0.0046429
						66:leaf=-0.0282348
				16:[f880<0.0164327] yes=33,no=34,missing=33
					33:[f1325<0.0380127] yes=67,no=68,missing=67
						67:leaf=-0.00548656
						68:leaf=-0.0329128
					34:[f1095<-0.062768] yes=69,no=70,missing=69
						69:leaf=-0.0477967
						70:leaf=-0.00662838
			8:[f26<-0.747114] yes=17,no=18,missing=17
				17:[f1497<-0.191762] yes=35,no=36,missing=35
					35:[f1787<-0.00161592] yes=71,no=72,missing=71
						71:leaf=-0.0312851
						72:leaf=0.00663353
					36:[f925<-0.185562] yes=73,no=74,missing=73
						73:leaf=-0.0149172
						74:leaf=0.0102143
				18:[f1841<-0.777778] yes=37,no=38,missing=37
					37:[f664<-0.747044] yes=75,no=76,missing=75
						75:leaf=-2.26728e-05
						76:leaf=-0.0482825
					38:[f1838<-0.161829] yes=77,no=78,missing=77
						77:leaf=-0.0305739
						78:leaf=-0.00685213
		4:[f1840<-1.01707] yes=9,no=10,missing=9
			9:[f1798<-0.256529] yes=19,no=20,missing=19
				19:[f879<-0.267301] yes=39,no=40,missing=39
					39:[f1821<-0.359478] yes=79,no=80,missing=79
						79:leaf=-0.0313519
						80:leaf=-0.00753914
					40:[f1099<0.0389815] yes=81,no=82,missing=81
						81:leaf=-0.05
						82:leaf=-8.07005e-05
				20:[f1466<-0.110002] yes=41,no=42,missing=41
					41:[f1669<-0.146707] yes=83,no=84,missing=83
						83:leaf=-0.0027748
						84:leaf=-0.0241285
					42:[f1756<0.0242071] yes=85,no=86,missing=85
						85:leaf=0.0202073
						86:leaf=-0.00288536
			10:[f15<0.571058] yes=21,no=22,missing=21
				21:[f1184<-0.0448384] yes=43,no=44,missing=43
					43:[f1408<-0.0372029] yes=87,no=88,missing=87
						87:leaf=0.0239131
						88:leaf=-0.00699131
					44:[f1364<0.065298] yes=89,no=90,missing=89
						89:leaf=-0.0204997
						90:leaf=0.00965709
				22:[f920<-0.221763] yes=45,no=46,missing=45
					45:[f543<-0.770712] yes=91,no=92,missing=91
						91:leaf=0.00526039
						92:leaf=-0.0451494
					46:[f1052<-0.0868834] yes=93,no=94,missing=93
						93:leaf=0.0103686
						94:leaf=-0.0238526
	2:[f1821<-0.300714] yes=5,no=6,missing=5
		5:[f1817<-0.362597] yes=11,no=12,missing=11
			11:[f875<-0.207174] yes=23,no=24,missing=23
				23:[f934<-0.178688] yes=47,no=48,missing=47
					47:[f1787<-0.500367] yes=95,no=96,missing=95
						95:leaf=-0.0185411
						96:leaf=-0.00259555
					48:[f1575<-0.00232483] yes=97,no=98,missing=97
						97:leaf=0.00319672
						98:leaf=0.0312149
				24:[f1794<-0.575548] yes=49,no=50,missing=49
					49:[f47<-0.783655] yes=99,no=100,missing=99
						99:leaf=0.00214555
						100:leaf=-0.05
					50:[f918<0.482332] yes=101,no=102,missing=101
						101:leaf=-0.0156524
						102:leaf=-0.0339553
			12:[f879<0.0361613] yes=25,no=26,missing=25
				25:[f1798<-0.138916] yes=51,no=52,missing=51
					51:[f1596<-0.0675585] yes=103,no=104,missing=103
						103:leaf=0.00456231
						104:leaf=0.0169993
					52:[f845<-0.175153] yes=105,no=106,missing=105
						105:leaf=0.0324984
						106:leaf=0.0107678
				26:[f1787<0.488755] yes=53,no=54,missing=53
					53:[f922<-0.157901] yes=107,no=108,missing=107
						107:leaf=-0.0192077
						108:leaf=0.00447498
					54:[f896<2.28573] yes=109,no=110,missing=109
						109:leaf=0.0229983
						110:leaf=-0.0224157
		6:[f1764<0.385782] yes=13,no=14,missing=13
			13:[f845<-0.0895608] yes=27,no=28,missing=27
				27:[f1754<-0.258951] yes=55,no=56,missing=55
					55:[f1465<-0.115784] yes=111,no=112,missing=111
						111:leaf=0.0160157
						112:leaf=0.00217686
					56:[f845<-0.642521] yes=113,no=114,missing=113
						113:leaf=0.0289933
						114:leaf=0.0159943
				28:[f879<0.636391] yes=57,no=58,missing=57
					57:[f1809<-0.0165552] yes=115,no=116,missing=115
						115:leaf=-0.00474531
						116:leaf=0.0112312
					58:[f1222<-0.127356] yes=117,no=118,missing=117
						117:leaf=-0.0181316
						118:leaf=0.00395284
			14:[f845<0.814611] yes=29,no=30,missing=29
				29:[f1764<1.39645] yes=59,no=60,missing=59
					59:[f845<-0.0702243] yes=119,no=120,missing=119
						119:leaf=0.0356749
						120:leaf=0.0198653
					60:[f967<4.31779] yes=121,no=122,missing=121
						121:leaf=0.0408811
						122:leaf=-0.00448847
				30:[f1764<2.79756] yes=61,no=62,missing=61
					61:[f901<0.357552] yes=123,no=124,missing=123
						123:leaf=0.0169298
						124:leaf=0.00172138
					62:[f1669<0.428212] yes=125,no=126,missing=125
						125:leaf=0.0341183
						126:leaf=-0.00243169
booster[6]:
0:[f1840<-0.840651] yes=1,no=2,missing=1
	1:[f934<-0.193433] yes=3,no=4,missing=3
		3:[f945<-0.16812] yes=7,no=8,missing=7
			7:[f946<-0.237126] yes=15,no=16,missing=15
				15:[f1798<0.0177725] yes=31,no=32,missing=31
					31:[f1241<-0.0180831] yes=63,no=64,missing=63
						63:leaf=-0.05
						64:leaf=-0.00986743
					32:[f918<-0.328224] yes=65,no=66,missing=65
						65:leaf=-0.00589887
						66:leaf=-0.041138
				16:[f1801<-0.266587] yes=33,no=34,missing=33
					33:[f1652<-0.286151] yes=67,no=68,missing=67
						67:leaf=-0.0138823
						68:leaf=-0.048314
					34:[f15<-0.424197] yes=69,no=70,missing=69
						69:leaf=-0.00236183
						70:leaf=-0.0294505
			8:[f15<-0.747099] yes=17,no=18,missing=17
				17:[f1839<-0.81405] yes=35,no=36,missing=35
					35:[f704<-0.803345] yes=71,no=72,missing=71
						71:leaf=0.0108985
						72:leaf=-0.0356991
					36:[f1182<-0.113878] yes=73,no=74,missing=73
						73:leaf=0.0164561
						74:leaf=-0.00819443
				18:[f1290<-0.0743124] yes=37,no=38,missing=37
					37:[f895<-0.819311] yes=75,no=76,missing=75
						75:leaf=0.0107284
						76:leaf=-0.0199874
					38:[f981<-0.305872] yes=77,no=78,missing=77
						77:leaf=0.00857727
						78:leaf=-0.0451123
		4:[f1840<-1.15688] yes=9,no=10,missing=9
			9:[f1451<-0.0656367] yes=19,no=20,missing=19
				19:[f1348<-0.127217] yes=39,no=40,missing=39
					39:[f1097<0.0980468] yes=79,no=80,missing=79
						79:leaf=-0.0497172
						80:leaf=-0.00432342
					40:[f1838<0.383891] yes=81,no=82,missing=81
						81:leaf=-0.0211309
						82:leaf=0.00904194
				20:[f1434<-0.0714065] yes=41,no=42,missing=41
					41:[f868<0.504104] yes=83,no=84,missing=83
						83:leaf=0.023453
						84:leaf=-0.0119939
					42:[f924<1.81389] yes=85,no=86,missing=85
						85:leaf=-0.031579
						86:leaf=0.0117195
			10:[f15<0.931245] yes=21,no=22,missing=21
				21:[f840<-0.216678] yes=43,no=44,missing=43
					43:[f1787<0.626761] yes=87,no=88,missing=87
						87:leaf=-0.0087832
						88:leaf=0.0157115
					44:[f1840<-0.959016] yes=89,no=90,missing=89
						89:leaf=0.00713232
						90:leaf=0.0270795
				22:[f934<0.161428] yes=45,no=46,missing=45
					45:[f1759<-0.471718] yes=91,no=92,missing=91
						91:leaf=-0.00849228
						92:leaf=-0.0467967
					46:[f1097<-0.167517] yes=93,no=94,missing=93
						93:leaf=-0.0223361
						94:leaf=0.0196807
	2:[f1772<-0.30518] yes=5,no=6,missing=5
		5:[f1821<-0.356295] yes=11,no=12,missing=11
			11:[f875<0.00485023] yes=23,no=24,missing=23
				23:[f1780<-0.564436] yes=47,no=48,missing=47
					47:[f934<-0.231157] yes=95,no=96,missing=95
						95:leaf=-0.0275069
						96:leaf=-0.00664901
					48:[f934<-0.234768] yes=97,no=98,missing=97
						97:leaf=-0.0085061
						98:leaf=0.00853092
				24:[f1794<-0.570402] yes=49,no=50,missing=49
					49:[f1409<1.65847] yes=99,no=100,missing=99
						99:leaf=-0.05
						100:leaf=0.00718091
					50:[f918<0.323213] yes=101,no=102,missing=101
						101:leaf=-0.0133937
						102:leaf=-0.0289392
			12:[f1408<-0.0427093] yes=25,no=26,missing=25
				25:[f868<-0.20717] yes=51,no=52,missing=51
					51:[f1780<-0.429874] yes=103,no=104,missing=103
						103:leaf=0.00937691
						104:leaf=0.0249281
					52:[f1809<0.320821] yes=105,no=106,missing=105
						105:leaf=-0.00256606
						106:leaf=0.0211094
				26:[f1780<-0.205646] yes=53,no=54,missing=53
					53:[f1569<-0.123794] yes=107,no=108,missing=107
						107:leaf=-0.0170508
						108:leaf=0.00056573
					54:[f909<0.630471] yes=109,no=110,missing=109
						109:leaf=0.0128975
						110:leaf=-0.0127955
		6:[f1764<0.382621] yes=13,no=14,missing=13
			13:[f845<-0.432732] yes=27,no=28,missing=27
				27:[f1764<-0.351818] yes=55,no=56,missing=55
					55:[f845<-0.941402] yes=111,no=112,missing=111
						111:leaf=0.0207257
						112:leaf=0.00611109
					56:[f845<-0.815689] yes=113,no=114,missing=113
						113:leaf=0.0371267
						114:leaf=0.0218992
				28:[f845<0.865167] yes=57,no=58,missing=57
					57:[f1764<-0.264742] yes=115,no=116,missing=115
						115:leaf=-0.00338347
						116:leaf=0.0107403
					58:[f887<0.74807] yes=117,no=118,missing=117
						117:leaf=-0.000983867
						118:leaf=-0.0287505
			14:[f845<1.04708] yes=29,no=30,missing=29
				29:[f1764<2.25798] yes=59,no=60,missing=59
					59:[f845<-0.125209] yes=119,no=120,missing=119
						119:leaf=0.0358213
						120:leaf=0.0231582
					60:[f1772<-0.138961] yes=121,no=122,missing=121
						121:leaf=0.00625571
						122:leaf=0.0412094
				30:[f1787<1.60623] yes=61,no=62,missing=61
					61:[f1837<-0.0557742] yes=123,no=124,missing=123
						123:leaf=0.00753965
						124:leaf=-0.0137433
					62:[f1764<4.0122] yes=125,no=126,missing=125
						125:leaf=0.0162422
						126:leaf=0.0366375
booster[7]:
0:[f1840<-0.780661] yes=1,no=2,missing=1
	1:[f934<-0.19486] yes=3,no=4,missing=3
		3:[f946<-0.238303] yes=7,no=8,missing=7
			7:[f1798<0.0586229] yes=15,no=16,missing=15
				15:[f945<-0.16839] yes=31,no=32,missing=31
					31:[f920<-0.138944] yes=63,no=64,missing=63
						63:leaf=-0.05
						64:leaf=0.00131236
					32:[f879<-0.447713] yes=65,no=66,missing=65
						65:leaf=-0.00997282
						66:leaf=-0.0409948
				16:[f27<-0.15617] yes=33,no=34,missing=33
					33:[f287<0.228732] yes=67,no=68,missing=67
						67:leaf=0.00117122
						68:leaf=-0.0255896
					34:[f441<-0.707489] yes=69,no=70,missing=69
						69:leaf=0.00713314
						70:leaf=-0.0450047
			8:[f15<-0.330245] yes=17,no=18,missing=17
				17:[f1814<-0.372364] yes=35,no=36,missing=35
					35:[f1459<-0.115499] yes=71,no=72,missing=71
						71:leaf=-0.034397
						72:leaf=0.0120205
					36:[f565<0.527717] yes=73,no=74,missing=73
						73:leaf=0.0031716
						74:leaf=-0.0214902
				18:[f1744<-0.176196] yes=37,no=38,missing=37
					37:[f934<-0.220027] yes=75,no=76,missing=75
						75:leaf=-0.0365236
						76:leaf=-0.00988149
					38:[f177<-0.560939] yes=77,no=78,missing=77
						77:leaf=-0.000989875
						78:leaf=-0.05
		4:[f1840<-1.09996] yes=9,no=10,missing=9
			9:[f1787<-0.142534] yes=19,no=20,missing=19
				19:[f1631<-0.27568] yes=39,no=40,missing=39
					39:[f1222<-0.0872952] yes=79,no=80,missing=79
						79:leaf=-0.05
						80:leaf=-0.0143882
					40:[f472<-0.483789] yes=81,no=82,missing=81
						81:leaf=0.00667819
						82:leaf=-0.0244773
				20:[f1059<-0.10296] yes=41,no=42,missing=41
					41:[f492<0.123593] yes=83,no=84,missing=83
						83:leaf=-0.00592138
						84:leaf=0.020625
					42:[f1491<1.11213] yes=85,no=86,missing=85
						85:leaf=-0.0280555
						86:leaf=0.0181544
			10:[f15<0.708956] yes=21,no=22,missing=21
				21:[f1840<-1.00643] yes=43,no=44,missing=43
					43:[f992<-0.226808] yes=87,no=88,missing=87
						87:leaf=-0.00908654
						88:leaf=0.00894821
					44:[f1182<0.0109385] yes=89,no=90,missing=89
						89:leaf=0.0197335
						90:leaf=-0.006711
				22:[f934<0.093615] yes=45,no=46,missing=45
					45:[f1673<-0.102068] yes=91,no=92,missing=91
						91:leaf=-0.00901754
						92:leaf=-0.0420511
					46:[f1672<-0.0955995] yes=93,no=94,missing=93
						93:leaf=0.0195238
						94:leaf=-0.0146261
	2:[f1772<-0.301247] yes=5,no=6,missing=5
		5:[f853<-0.594943] yes=11,no=12,missing=11
			11:[f1754<-0.331486] yes=23,no=24,missing=23
				23:[f934<-0.233224] yes=47,no=48,missing=47
					47:[f1832<-0.571415] yes=95,no=96,missing=95
						95:leaf=-0.0271654
						96:leaf=-0.00171882
					48:[f1575<-0.0590095] yes=97,no=98,missing=97
						97:leaf=0.000742281
						98:leaf=0.0179318
				24:[f1306<-0.102423] yes=49,no=50,missing=49
					49:[f1840<-0.674229] yes=99,no=100,missing=99
						99:leaf=-0.013428
						100:leaf=0.0253907
					50:[f1599<-0.023196] yes=101,no=102,missing=101
						101:leaf=0.013297
						102:leaf=-0.00522694
			12:[f1772<-0.396565] yes=25,no=26,missing=25
				25:[f1809<-0.575554] yes=51,no=52,missing=51
					51:[f890<-0.90593] yes=103,no=104,missing=103
						103:leaf=-0.00479026
						104:leaf=-0.0382763
					52:[f852<0.888536] yes=105,no=106,missing=105
						105:leaf=-0.010667
						106:leaf=-0.0320494
				26:[f880<0.245284] yes=53,no=54,missing=53
					53:[f1306<-0.102261] yes=107,no=108,missing=107
						107:leaf=0.00679644
						108:leaf=-0.00882047
					54:[f1809<-0.0427271] yes=109,no=110,missing=109
						109:leaf=-0.0194921
						110:leaf=0.00330721
		6:[f1764<0.410294] yes=13,no=14,missing=13
			13:[f845<-0.504753] yes=27,no=28,missing=27
				27:[f1764<-0.300857] yes=55,no=56,missing=55
					55:[f1039<-0.0282409] yes=111,no=112,missing=111
						111:leaf=0.0200725
						112:leaf=0.00266038
					56:[f845<-0.817112] yes=113,no=114,missing=113
						113:leaf=0.0364241
						114:leaf=0.0228814
				28:[f1764<-0.251422] yes=57,no=58,missing=57
					57:[f1359<0.155207] yes=115,no=116,missing=115
						115:leaf=-0.0132508
						116:leaf=0.0177135
					58:[f868<0.909535] yes=117,no=118,missing=117
						117:leaf=0.0109558
						118:leaf=-0.00883553
			14:[f845<0.591863] yes=29,no=30,missing=29
				29:[f1764<1.52563] yes=59,no=60,missing=59
					59:[f845<-0.317818] yes=119,no=120,missing=119
						119:leaf=0.0362445
						120:leaf=0.0233134
					60:[f1639<1.22259] yes=121,no=122,missing=121
						121:leaf=0.0395945
						122:leaf=-0.00972951
				30:[f1764<2.80414] yes=61,no=62,missing=61
					61:[f878<1.29026] yes=123,no=124,missing=123
						123:leaf=0.0152434
						124:leaf=-0.00433118
					62:[f878<1.40368] yes=125,no=126,missing=125
						125:leaf=0.0328611
						126:leaf=0.00840051
booster[8]:
0:[f1840<-0.780661] yes=1,no=2,missing=1
	1:[f934<-0.189724] yes=3,no=4,missing=3
		3:[f1798<-0.322732] yes=7,no=8,missing=7
			7:[f945<-0.17234] yes=15,no=16,missing=15
				15:[f946<-0.245179] yes=31,no=32,missing=31
					31:[f1155<-0.0283278] yes=63,no=64,missing=63
						63:leaf=-0.05
						64:leaf=-0.00235597
					32:[f1581<-0.0679824] yes=65,no=66,missing=65
						65:leaf=-0.0412395
						66:leaf=-0.0135456
				16:[f1453<-0.262269] yes=33,no=34,missing=33
					33:[f952<-0.00617776] yes=67,no=68,missing=67
						67:leaf=-0.0464199
						68:leaf=0.00609029
					34:[f614<0.0200548] yes=69,no=70,missing=69
						69:leaf=0.00353974
						70:leaf=-0.031565
			8:[f15<-0.359522] yes=17,no=18,missing=17
				17:[f1803<-0.277852] yes=35,no=36,missing=35
					35:[f900<0.0345091] yes=71,no=72,missing=71
						71:leaf=-0.0130647
						72:leaf=-0.0436142
					36:[f948<-0.260237] yes=73,no=74,missing=73
						73:leaf=-0.0222876
						74:leaf=0.00736233
				18:[f1669<-0.144115] yes=37,no=38,missing=37
					37:[f1840<-1.01707] yes=75,no=76,missing=75
						75:leaf=-0.0325225
						76:leaf=-0.00889785
					38:[f868<-0.813341] yes=77,no=78,missing=77
						77:leaf=0.000928144
						78:leaf=-0.05
		4:[f1840<-1.10125] yes=9,no=10,missing=9
			9:[f1097<-0.21531] yes=19,no=20,missing=19
				19:[f1631<-0.279464] yes=39,no=40,missing=39
					39:[f1815<1.29884] yes=79,no=80,missing=79
						79:leaf=-0.0483997
						80:leaf=-0.00476623
					40:[f48<-0.836763] yes=81,no=82,missing=81
						81:leaf=0.0194606
						82:leaf=-0.0258565
				20:[f1459<-0.118616] yes=41,no=42,missing=41
					41:[f805<-0.244223] yes=83,no=84,missing=83
						83:leaf=-0.0009924
						84:leaf=-0.0332203
					42:[f1829<-0.281353] yes=85,no=86,missing=85
						85:leaf=0.0187739
						86:leaf=-0.00458007
			10:[f1782<0.430465] yes=21,no=22,missing=21
				21:[f840<-0.0643168] yes=43,no=44,missing=43
					43:[f1798<-0.389272] yes=87,no=88,missing=87
						87:leaf=-0.0161157
						88:leaf=0.00577745
					44:[f912<0.929082] yes=89,no=90,missing=89
						89:leaf=0.0207863
						90:leaf=-0.00855342
				22:[f1451<-0.106826] yes=45,no=46,missing=45
					45:[f1351<0.166653] yes=91,no=92,missing=91
						91:leaf=-0.0356957
						92:leaf=0.00624973
					46:[f1389<-0.0919507] yes=93,no=94,missing=93
						93:leaf=0.0115036
						94:leaf=-0.0152179
	2:[f1817<-0.281281] yes=5,no=6,missing=5
		5:[f898<-0.682133] yes=11,no=12,missing=11
			11:[f1754<-0.328004] yes=23,no=24,missing=23
				23:[f1817<-0.418917] yes=47,no=48,missing=47
					47:[f1764<-0.514945] yes=95,no=96,missing=95
						95:leaf=-0.0105508
						96:leaf=0.00309318
					48:[f1117<-0.0804451] yes=97,no=98,missing=97
						97:leaf=0.0184187
						98:leaf=-0.00137968
				24:[f1837<-0.0636732] yes=49,no=50,missing=49
					49:[f1080<0.668714] yes=99,no=100,missing=99
						99:leaf=0.0220031
						100:leaf=-0.0102369
					50:[f1838<-0.149566] yes=101,no=102,missing=101
						101:leaf=0.000200018
						102:leaf=0.0204987
			12:[f1817<-0.387782] yes=25,no=26,missing=25
				25:[f875<0.368754] yes=51,no=52,missing=51
					51:[f1817<-0.459124] yes=103,no=104,missing=103
						103:leaf=-0.0295075
						104:leaf=-0.00968005
					52:[f1817<-0.446818] yes=105,no=106,missing=105
						105:leaf=-0.0428925
						106:leaf=-0.0228004
				26:[f918<0.921467] yes=53,no=54,missing=53
					53:[f1575<-0.0470101] yes=107,no=108,missing=107
						107:leaf=-0.00235362
						108:leaf=0.0128267
					54:[f923<-0.215984] yes=109,no=110,missing=109
						109:leaf=-0.0341704
						110:leaf=-0.00221991
		6:[f1747<0.58026] yes=13,no=14,missing=13
			13:[f845<0.250719] yes=27,no=28,missing=27
				27:[f1828<0.183026] yes=55,no=56,missing=55
					55:[f1838<-0.407097] yes=111,no=112,missing=111
						111:leaf=0.0104099
						112:leaf=0.0200188
					56:[f412<2.39131] yes=113,no=114,missing=113
						113:leaf=0.0272736
						114:leaf=-0.0115891
				28:[f878<1.07358] yes=57,no=58,missing=57
					57:[f1764<-0.347808] yes=115,no=116,missing=115
						115:leaf=-0.0187762
						116:leaf=0.00706784
					58:[f1438<-0.0861906] yes=117,no=118,missing=117
						117:leaf=-0.0269205
						118:leaf=-0.00273985
			14:[f879<0.95284] yes=29,no=30,missing=29
				29:[f967<1.2198] yes=59,no=60,missing=59
					59:[f1367<-0.0190102] yes=119,no=120,missing=119
						119:leaf=0.0348789
						120:leaf=0.0217567
					60:[f1244<-0.0642192] yes=121,no=122,missing=121
						121:leaf=-0.0147608
						122:leaf=0.0200307
				30:[f1764<3.40885] yes=61,no=62,missing=61
					61:[f1798<0.049244] yes=123,no=124,missing=123
						123:leaf=-0.0216671
						124:leaf=0.0108737
					62:[f450<-0.638525] yes=125,no=126,missing=125
						125:leaf=-0.00354531
						126:leaf=0.0308319
booster[9]:
0:[f1840<-0.779371] yes=1,no=2,missing=1
	1:[f934<-0.179316] yes=3,no=4,missing=3
		3:[f1798<-0.308536] yes=7,no=8,missing=7
			7:[f946<-0.231559] yes=15,no=16,missing=15
				15:[f1838<1.23006] yes=31,no=32,missing=31
					31:[f919<-0.0459549] yes=63,no=64,missing=63
						63:leaf=-0.05
						64:leaf=-0.00541075
					32:[f15<-0.76123] yes=65,no=66,missing=65
						65:leaf=0.00195056
						66:leaf=-0.03682
				16:[f879<-0.529977] yes=33,no=34,missing=33
					33:[f803<-0.116756] yes=67,no=68,missing=67
						67:leaf=-0.00258584
						68:leaf=-0.0281113
					34:[f1757<-0.476396] yes=69,no=70,missing=69
						69:leaf=-0.0109657
						70:leaf=-0.0442636
			8:[f15<-0.333106] yes=17,no=18,missing=17
				17:[f1841<-0.779039] yes=35,no=36,missing=35
					35:[f1466<-0.154589] yes=71,no=72,missing=71
						71:leaf=-0.0333884
						72:leaf=-0.00148915
					36:[f1669<-0.145639] yes=73,no=74,missing=73
						73:leaf=0.00588888
						74:leaf=-0.020316
				18:[f29<0.125125] yes=37,no=38,missing=37
					37:[f1840<-1.00739] yes=75,no=76,missing=75
						75:leaf=-0.0300526
						76:leaf=-0.00677555
					38:[f946<-0.130689] yes=77,no=78,missing=77
						77:leaf=-0.05
						78:leaf=-0.0111688
		4:[f1839<-0.893312] yes=9,no=10,missing=9
			9:[f1084<-0.110838] yes=19,no=20,missing=19
				19:[f1575<-0.068222] yes=39,no=40,missing=39
					39:[f450<1.03239] yes=79,no=80,missing=79
						79:leaf=-0.0314988
						80:leaf=0.00895762
					40:[f836<-0.434927] yes=81,no=82,missing=81
						81:leaf=-0.0122827
						82:leaf=0.021467
				20:[f493<-0.640457] yes=41,no=42,missing=41
					41:[f1101<-0.132678] yes=83,no=84,missing=83
						83:leaf=-0.0201375
						84:leaf=0.0128737
					42:[f406<3.89056] yes=85,no=86,missing=85
						85:leaf=-0.05
						86:leaf=0.0073766
			10:[f1764<-0.275898] yes=21,no=22,missing=21
				21:[f868<0.203448] yes=43,no=44,missing=43
					43:[f840<-0.78201] yes=87,no=88,missing=87
						87:leaf=-0.0201964
						88:leaf=0.000697685
					44:[f1799<1.27957] yes=89,no=90,missing=89
						89:leaf=-0.0464576
						90:leaf=0.00208741
				22:[f1782<0.436292] yes=45,no=46,missing=45
					45:[f879<0.709305] yes=91,no=92,missing=91
						91:leaf=0.0152142
						92:leaf=-0.00669843
					46:[f1459<-0.130643] yes=93,no=94,missing=93
						93:leaf=-0.0238705
						94:leaf=-0.000136492
	2:[f1817<-0.0697004] yes=5,no=6,missing=5
		5:[f934<-0.142674] yes=11,no=12,missing=11
			11:[f875<-0.0777999] yes=23,no=24,missing=23
				23:[f1817<-0.436588] yes=47,no=48,missing=47
					47:[f1780<-0.375675] yes=95,no=96,missing=95
						95:leaf=-0.0137177
						96:leaf=0.0117933
					48:[f898<-0.703987] yes=97,no=98,missing=97
						97:leaf=0.0155563
						98:leaf=0.00142501
				24:[f1817<-0.447541] yes=49,no=50,missing=49
					49:[f663<0.521399] yes=99,no=100,missing=99
						99:leaf=-0.0416289
						100:leaf=-0.00869389
					50:[f1838<-0.161829] yes=101,no=102,missing=101
						101:leaf=-0.0153198
						102:leaf=0.0028331
			12:[f1575<-0.0503119] yes=25,no=26,missing=25
				25:[f1063<0.339795] yes=51,no=52,missing=51
					51:[f898<-0.83121] yes=103,no=104,missing=103
						103:leaf=0.0164237
						104:leaf=0.00431428
					52:[f1765<-0.0138824] yes=105,no=106,missing=105
						105:leaf=-0.0432311
						106:leaf=0.00181027
				26:[f1054<-0.100121] yes=53,no=54,missing=53
					53:[f1082<1.14841] yes=107,no=108,missing=107
						107:leaf=0.0297608
						108:leaf=-0.00299387
					54:[f114<0.77084] yes=109,no=110,missing=109
						109:leaf=0.0156387
						110:leaf=-0.00807622
		6:[f940<0.386478] yes=13,no=14,missing=13
			13:[f1821<0.739107] yes=27,no=28,missing=27
				27:[f868<0.269195] yes=55,no=56,missing=55
					55:[f1838<-0.394833] yes=111,no=112,missing=111
						111:leaf=0.0181213
						112:leaf=0.0276886
					56:[f1787<1.43837] yes=113,no=114,missing=113
						113:leaf=0.00598466
						114:leaf=0.0228767
				28:[f1816<0.476022] yes=57,no=58,missing=57
					57:[f879<0.709121] yes=115,no=116,missing=115
						115:leaf=0.0377368
						116:leaf=0.0241001
					58:[f792<0.203811] yes=117,no=118,missing=117
						117:leaf=0.0189195
						118:leaf=-0.00664501
			14:[f1764<-0.06268] yes=29,no=30,missing=29
				29:[f845<-0.506928] yes=59,no=60,missing=59
					59:[f1045<-0.0554176] yes=119,no=120,missing=119
						119:leaf=0.0195097
						120:leaf=-0.0039774
					60:[f1344<0.791897] yes=121,no=122,missing=121
						121:leaf=-0.0270282
						122:leaf=0.00965559
				30:[f817<0.270323] yes=61,no=62,missing=61
					61:[f1838<0.279652] yes=123,no=124,missing=123
						123:leaf=0.0211915
						124:leaf=-0.00554055
					62:[f1764<1.82786] yes=125,no=126,missing=125
						125:leaf=-0.00982391
						126:leaf=0.014343
booster[10]:
0:[f1840<-0.962241] yes=1,no=2,missing=1
	1:[f945<-0.168574] yes=3,no=4,missing=3
		3:[f946<-0.240278] yes=7,no=8,missing=7
			7:[f1798<-0.283161] yes=15,no=16,missing=15
				15:[f992<-0.0774667] yes=31,no=32,missing=31
					31:[f1804<3.95993] yes=63,no=64,missing=63
						63:leaf=-0.05
						64:leaf=0.00895532
					32:[f1231<-0.201296] yes=65,no=66,missing=65
						65:leaf=0.0136207
						66:leaf=-0.0246004
				16:[f868<-0.105895] yes=33,no=34,missing=33
					33:[f1325<0.0517147] yes=67,no=68,missing=67
						67:leaf=-0.00175665
						68:leaf=-0.0333972
					34:[f918<-0.413209] yes=69,no=70,missing=69
						69:leaf=-0.0189117
						70:leaf=-0.0462522
			8:[f1814<-0.359338] yes=17,no=18,missing=17
				17:[f1451<-0.104912] yes=35,no=36,missing=35
					35:[f1827<-0.208409] yes=71,no=72,missing=71
						71:leaf=-0.00372611
						72:leaf=-0.0484733
					36:[f1118<-0.299363] yes=73,no=74,missing=73
						73:leaf=0.0176112
						74:leaf=-0.0191728
				18:[f26<-0.739574] yes=37,no=38,missing=37
					37:[f1295<-0.116934] yes=75,no=76,missing=75
						75:leaf=0.0106327
						76:leaf=-0.014436
					38:[f142<0.042083] yes=77,no=78,missing=77
						77:leaf=-0.0114238
						78:leaf=-0.0354367
		4:[f1798<-0.207669] yes=9,no=10,missing=9
			9:[f879<-0.0443305] yes=19,no=20,missing=19
				19:[f1756<-0.249506] yes=39,no=40,missing=39
					39:[f1453<-0.269647] yes=79,no=80,missing=79
						79:leaf=-0.0216553
						80:leaf=0.00563006
					40:[f1369<-0.188877] yes=81,no=82,missing=81
						81:leaf=-0.0312303
						82:leaf=-0.00867021
				20:[f1455<-0.0618194] yes=41,no=42,missing=41
					41:[f1136<0.504958] yes=83,no=84,missing=83
						83:leaf=-0.05
						84:leaf=0.00359546
					42:[f488<-0.2552] yes=85,no=86,missing=85
						85:leaf=0.0165177
						86:leaf=-0.0197563
			10:[f879<0.605637] yes=21,no=22,missing=21
				21:[f1827<0.117127] yes=43,no=44,missing=43
					43:[f1839<-0.868134] yes=87,no=88,missing=87
						87:leaf=-0.00914208
						88:leaf=0.0179946
					44:[f1807<-0.254579] yes=89,no=90,missing=89
						89:leaf=-0.0193467
						90:leaf=0.00879287
				22:[f1438<-0.0729774] yes=45,no=46,missing=45
					45:[f1743<-0.377682] yes=91,no=92,missing=91
						91:leaf=0.0118678
						92:leaf=-0.0306439
					46:[f629<-0.122877] yes=93,no=94,missing=93
						93:leaf=0.0194611
						94:leaf=-0.0103407
	2:[f1821<-0.113114] yes=5,no=6,missing=5
		5:[f945<-0.124694] yes=11,no=12,missing=11
			11:[f1590<0.00676569] yes=23,no=24,missing=23
				23:[f1817<-0.386089] yes=47,no=48,missing=47
					47:[f875<0.23843] yes=95,no=96,missing=95
						95:leaf=-0.00781788
						96:leaf=-0.0306306
					48:[f918<0.820231] yes=97,no=98,missing=97
						97:leaf=0.00576338
						98:leaf=-0.0137725
				24:[f1840<-0.278494] yes=49,no=50,missing=49
					49:[f1741<-0.20282] yes=99,no=100,missing=99
						99:leaf=-0.05
						100:leaf=-0.00205534
					50:[f1413<-0.137842] yes=101,no=102,missing=101
						101:leaf=-0.0146661
						102:leaf=0.0184969
			12:[f1039<-0.0460244] yes=25,no=26,missing=25
				25:[f1768<-0.175705] yes=51,no=52,missing=51
					51:[f872<-0.401548] yes=103,no=104,missing=103
						103:leaf=0.0139799
						104:leaf=-0.00216565
					52:[f851<1.73193] yes=105,no=106,missing=105
						105:leaf=0.0246982
						106:leaf=-0.00758335
				26:[f1575<-0.0124336] yes=53,no=54,missing=53
					53:[f1764<-0.604951] yes=107,no=108,missing=107
						107:leaf=-0.0397464
						108:leaf=-0.00276093
					54:[f1054<0.320883] yes=109,no=110,missing=109
						109:leaf=0.0252565
						110:leaf=-0.00991857
		6:[f868<0.296078] yes=13,no=14,missing=13
			13:[f1809<0.308095] yes=27,no=28,missing=27
				27:[f890<-0.684883] yes=55,no=56,missing=55
					55:[f967<0.512194] yes=111,no=112,missing=111
						111:leaf=0.027294
						112:leaf=0.00578269
					56:[f913<-0.23361] yes=113,no=114,missing=113
						113:leaf=0.0140425
						114:leaf=-0.00016082
				28:[f1054<0.252594] yes=57,no=58,missing=57
					57:[f967<3.42424] yes=115,no=116,missing=115
						115:leaf=0.0310992
						116:leaf=-0.00422787
					58:[f1241<-0.00385805] yes=117,no=118,missing=117
						117:leaf=0.0205786
						118:leaf=0.00103221
			14:[f1787<1.37186] yes=29,no=30,missing=29
				29:[f1798<-0.304251] yes=59,no=60,missing=59
					59:[f1170<0.410371] yes=119,no=120,missing=119
						119:leaf=-0.0412683
						120:leaf=0.00817572
					60:[f1596<-0.0562717] yes=121,no=122,missing=121
						121:leaf=-0.00396572
						122:leaf=0.0118391
				30:[f845<2.00426] yes=61,no=62,missing=61
					61:[f1764<3.74543] yes=123,no=124,missing=123
						123:leaf=0.0200573
						124:leaf=0.0343751
					62:[f912<-0.0575381] yes=125,no=126,missing=125
						125:leaf=0.0223177
						126:leaf=-0.00364019
booster[11]:
0:[f1840<-0.808398] yes=1,no=2,missing=1
	1:[f1798<-0.37571] yes=3,no=4,missing=3
		3:[f934<-0.218532] yes=7,no=8,missing=7
			7:[f950<-0.173732] yes=15,no=16,missing=15
				15:[f979<-0.182151] yes=31,no=32,missing=31
					31:[f278<-0.910428] yes=63,no=64,missing=63
						63:leaf=0.000903194
						64:leaf=-0.05
					32:[f887<-0.556036] yes=65,no=66,missing=65
						65:leaf=0.00287597
						66:leaf=-0.0341886
				16:[f1182<-0.123194] yes=33,no=34,missing=33
					33:[f1005<-0.20449] yes=67,no=68,missing=67
						67:leaf=0.0147598
						68:leaf=-0.0186451
					34:[f638<-0.634973] yes=69,no=70,missing=69
						69:leaf=0.00577044
						70:leaf=-0.040829
			8:[f879<-0.559617] yes=17,no=18,missing=17
				17:[f1840<-1.09996] yes=35,no=36,missing=35
					35:[f1182<-0.117126] yes=71,no=72,missing=71
						71:leaf=-0.0063172
						72:leaf=-0.0354751
					36:[f15<-0.135562] yes=73,no=74,missing=73
						73:leaf=0.00912521
						74:leaf=-0.0106775
				18:[f1799<-0.133571] yes=37,no=38,missing=37
					37:[f1453<-0.224961] yes=75,no=76,missing=75
						75:leaf=-0.05
						76:leaf=-0.0108349
					38:[f1331<0.285677] yes=77,no=78,missing=77
						77:leaf=-0.0211101
						78:leaf=0.0181153
		4:[f934<-0.20423] yes=9,no=10,missing=9
			9:[f15<0.0908405] yes=19,no=20,missing=19
				19:[f923<-0.240018] yes=39,no=40,missing=39
					39:[f1438<-0.0817404] yes=79,no=80,missing=79
						79:leaf=-0.0312371
						80:leaf=-0.00427326
					40:[f903<-0.117024] yes=81,no=82,missing=81
						81:leaf=0.00756187
						82:leaf=-0.0150781
				20:[f1667<-0.137243] yes=41,no=42,missing=41
					41:[f1094<-0.0813014] yes=83,no=84,missing=83
						83:leaf=-0.0281832
						84:leaf=0.00475545
					42:[f1119<-0.270813] yes=85,no=86,missing=85
						85:leaf=0.00307545
						86:leaf=-0.05
			10:[f15<0.813818] yes=21,no=22,missing=21
				21:[f1840<-1.15688] yes=43,no=44,missing=43
					43:[f1059<-0.0913284] yes=87,no=88,missing=87
						87:leaf=0.000937827
						88:leaf=-0.0279708
					44:[f1837<-0.13285] yes=89,no=90,missing=89
						89:leaf=0.0148168
						90:leaf=-0.000172781
				22:[f934<-0.120218] yes=45,no=46,missing=45
					45:[f1412<-0.316451] yes=91,no=92,missing=91
						91:leaf=-0.00388444
						92:leaf=-0.0419764
					46:[f1080<-0.0836179] yes=93,no=94,missing=93
						93:leaf=0.00554423
						94:leaf=-0.0280158
	2:[f1821<-0.292277] yes=5,no=6,missing=5
		5:[f984<-0.254719] yes=11,no=12,missing=11
			11:[f918<0.607968] yes=23,no=24,missing=23
				23:[f1817<-0.428068] yes=47,no=48,missing=47
					47:[f898<-0.69006] yes=95,no=96,missing=95
						95:leaf=-0.0071517
						96:leaf=-0.0235695
					48:[f1837<-0.236929] yes=97,no=98,missing=97
						97:leaf=0.00669307
						98:leaf=-0.0103952
				24:[f934<-0.225089] yes=49,no=50,missing=49
					49:[f956<-0.225672] yes=99,no=100,missing=99
						99:leaf=-0.0394836
						100:leaf=0.00229301
					50:[f903<0.794089] yes=101,no=102,missing=101
						101:leaf=0.000278363
						102:leaf=-0.0301712
			12:[f1569<0.0936214] yes=25,no=26,missing=25
				25:[f1063<0.68816] yes=51,no=52,missing=51
					51:[f1465<0.0154296] yes=103,no=104,missing=103
						103:leaf=0.00648381
						104:leaf=-0.00858004
					52:[f1518<-0.337471] yes=105,no=106,missing=105
						105:leaf=-0.0478564
						106:leaf=-0.00058011
				26:[f1365<-0.101882] yes=53,no=54,missing=53
					53:[f1063<-0.0545433] yes=107,no=108,missing=107
						107:leaf=0.016671
						108:leaf=-0.0258264
					54:[f341<1.57209] yes=109,no=110,missing=109
						109:leaf=0.0299977
						110:leaf=-0.00171767
		6:[f1747<0.4601] yes=13,no=14,missing=13
			13:[f845<0.159474] yes=27,no=28,missing=27
				27:[f1837<-0.259059] yes=55,no=56,missing=55
					55:[f1764<-0.141405] yes=111,no=112,missing=111
						111:leaf=0.0146485
						112:leaf=0.0263397
					56:[f1569<-0.102792] yes=113,no=114,missing=113
						113:leaf=0.00377638
						114:leaf=0.0162873
				28:[f879<0.958726] yes=57,no=58,missing=57
					57:[f1837<-0.113499] yes=115,no=116,missing=115
						115:leaf=0.00963984
						116:leaf=-0.00469563
					58:[f1245<-0.0535323] yes=117,no=118,missing=117
						117:leaf=-0.017638
						118:leaf=0.00486181
			14:[f879<0.670972] yes=29,no=30,missing=29
				29:[f1673<-0.0832669] yes=59,no=60,missing=59
					59:[f1821<1.46948] yes=119,no=120,missing=119
						119:leaf=0.028042
						120:leaf=0.0379838
					60:[f967<4.38488] yes=121,no=122,missing=121
						121:leaf=0.0207308
						122:leaf=-0.0106733
				30:[f1798<0.0486604] yes=61,no=62,missing=61
					61:[f1041<0.241903] yes=123,no=124,missing=123
						123:leaf=-0.038168
						124:leaf=0.00345883
					62:[f1764<3.04734] yes=125,no=126,missing=125
						125:leaf=0.0115187
						126:leaf=0.0262954
booster[12]:
0:[f1840<-0.896769] yes=1,no=2,missing=1
	1:[f1798<-0.383132] yes=3,no=4,missing=3
		3:[f934<-0.222656] yes=7,no=8,missing=7
			7:[f992<-0.237699] yes=15,no=16,missing=15
				15:[f1454<1.91717] yes=31,no=32,missing=31
					31:[f1301<-0.0344224] yes=63,no=64,missing=63
						63:leaf=-0.05
						64:leaf=-0.00175924
					32:leaf=0.010937
				16:[f5<-0.601432] yes=33,no=34,missing=33
					33:[f114<-0.548936] yes=65,no=66,missing=65
						65:leaf=0.00776067
						66:leaf=-0.0236598
					34:[f1636<-0.126998] yes=67,no=68,missing=67
						67:leaf=-0.042627
						68:leaf=-0.00419487
			8:[f879<-0.523698] yes=17,no=18,missing=17
				17:[f1087<-0.0694456] yes=35,no=36,missing=35
					35:[f1821<-0.347916] yes=69,no=70,missing=69
						69:leaf=-0.01849
						70:leaf=0.00575638
					36:[f1020<0.0680879] yes=71,no=72,missing=71
						71:leaf=-0.0488073
						72:leaf=9.94229e-05
				18:[f1504<-0.0201921] yes=37,no=38,missing=37
					37:[f493<-0.822101] yes=73,no=74,missing=73
						73:leaf=-0.00178594
						74:leaf=-0.05
					38:[f1808<0.758601] yes=75,no=76,missing=75
						75:leaf=0.0109091
						76:leaf=-0.0215767
		4:[f945<-0.152472] yes=9,no=10,missing=9
			9:[f946<-0.252772] yes=19,no=20,missing=19
				19:[f27<-0.507215] yes=39,no=40,missing=39
					39:[f1438<-0.0784137] yes=77,no=78,missing=77
						77:leaf=-0.0294533
						78:leaf=0.00131914
					40:[f1778<-0.372365] yes=79,no=80,missing=79
						79:leaf=-0.00745932
						80:leaf=-0.05
				20:[f1827<-0.180159] yes=41,no=42,missing=41
					41:[f26<-0.177624] yes=81,no=82,missing=81
						81:leaf=0.011792
						82:leaf=-0.0159789
					42:[f1840<-1.15688] yes=83,no=84,missing=83
						83:leaf=-0.0361991
						84:leaf=-0.0129221
			10:[f1577<0.286159] yes=21,no=22,missing=21
				21:[f840<-0.225075] yes=43,no=44,missing=43
					43:[f879<-0.0298729] yes=85,no=86,missing=85
						85:leaf=0.00446645
						86:leaf=-0.0196695
					44:[f26<-0.187348] yes=87,no=88,missing=87
						87:leaf=0.0249499
						88:leaf=0.00402374
				22:[f1660<1.93077] yes=45,no=46,missing=45
					45:[f493<-0.347035] yes=89,no=90,missing=89
						89:leaf=-0.00554121
						90:leaf=-0.0374042
					46:[f834<-0.0910163] yes=91,no=92,missing=91
						91:leaf=0.0204989
						92:leaf=-0.00735787
	2:[f1817<-0.153184] yes=5,no=6,missing=5
		5:[f875<-0.151326] yes=11,no=12,missing=11
			11:[f1569<-0.184192] yes=23,no=24,missing=23
				23:[f1787<-0.579327] yes=47,no=48,missing=47
					47:[f1764<-0.572046] yes=93,no=94,missing=93
						93:leaf=-0.0309935
						94:leaf=-0.00366399
					48:[f1838<-0.413228] yes=95,no=96,missing=95
						95:leaf=-0.00497427
						96:leaf=0.00654368
				24:[f945<-0.1918] yes=49,no=50,missing=49
					49:[f1590<-0.0410029] yes=97,no=98,missing=97
						97:leaf=0.00552076
						98:leaf=-0.0233565
					50:[f1299<-0.175353] yes=99,no=100,missing=99
						99:leaf=0.0208032
						100:leaf=0.00964325
			12:[f1764<-0.488343] yes=25,no=26,missing=25
				25:[f1365<0.15399] yes=51,no=52,missing=51
					51:[f918<0.57113] yes=101,no=102,missing=101
						101:leaf=-0.020754
						102:leaf=-0.0443281
					52:[f1747<-0.520902] yes=103,no=104,missing=103
						103:leaf=0.0269425
						104:leaf=-0.0133452
				26:[f1408<-0.0275426] yes=53,no=54,missing=53
					53:[f945<-0.200542] yes=105,no=106,missing=105
						105:leaf=-0.013481
						106:leaf=0.00411858
					54:[f1837<-0.326143] yes=107,no=108,missing=107
						107:leaf=-0.00285892
						108:leaf=-0.0224022
		6:[f1840<-0.606499] yes=13,no=14,missing=13
			13:[f1590<-0.0172397] yes=27,no=28,missing=27
				27:[f878<0.0756801] yes=55,no=56,missing=55
					55:[f277<1.33819] yes=109,no=110,missing=109
						109:leaf=0.0157848
						110:leaf=-0.0145773
					56:[f921<-0.20463] yes=111,no=112,missing=111
						111:leaf=-0.0250557
						112:leaf=0.00473031
				28:[f943<-0.170235] yes=57,no=58,missing=57
					57:[f927<-0.117361] yes=113,no=114,missing=113
						113:leaf=-0.047819
						114:leaf=0.00521209
					58:[f144<-0.257483] yes=115,no=116,missing=115
						115:leaf=-0.0140504
						116:leaf=0.0176065
			14:[f1817<1.27903] yes=29,no=30,missing=29
				29:[f898<0.809961] yes=59,no=60,missing=59
					59:[f940<0.642485] yes=117,no=118,missing=117
						117:leaf=0.0205494
						118:leaf=0.00216113
					60:[f1045<-0.102751] yes=119,no=120,missing=119
						119:leaf=0.0155208
						120:leaf=-0.00235055
				30:[f967<0.0161717] yes=61,no=62,missing=61
					61:[f853<2.80969] yes=121,no=122,missing=121
						121:leaf=0.0325525
						122:leaf=0.00752305
					62:[f845<0.569466] yes=123,no=124,missing=123
						123:leaf=0.021965
						124:leaf=0.00369783
booster[13]:
0:[f1840<-0.780661] yes=1,no=2,missing=1
	1:[f945<-0.168585] yes=3,no=4,missing=3
		3:[f946<-0.233526] yes=7,no=8,missing=7
			7:[f918<-0.0386132] yes=15,no=16,missing=15
				15:[f1798<-0.432759] yes=31,no=32,missing=31
					31:[f950<-0.162359] yes=63,no=64,missing=63
						63:leaf=-0.0480923
						64:leaf=0.00521531
					32:[f1796<-0.366211] yes=65,no=66,missing=65
						65:leaf=-0.0297435
						66:leaf=-0.0086352
				16:[f1804<3.42656] yes=33,no=34,missing=33
					33:[f629<-0.740925] yes=67,no=68,missing=67
						67:leaf=0.00123366
						68:leaf=-0.05
					34:[f43<-0.431026] yes=69,no=70,missing=69
						69:leaf=0.0151908
						70:leaf=-0.0252228
			8:[f1840<-0.954178] yes=17,no=18,missing=17
				17:[f1583<-0.0630188] yes=35,no=36,missing=35
					35:[f643<-0.332738] yes=71,no=72,missing=71
						71:leaf=-0.0144645
						72:leaf=-0.0349105
					36:[f1481<-0.133094] yes=73,no=74,missing=73
						73:leaf=-0.0138643
						74:leaf=0.0117208
				18:[f852<0.153554] yes=37,no=38,missing=37
					37:[f1786<-0.360555] yes=75,no=76,missing=75
						75:leaf=-0.00376082
						76:leaf=0.0207346
					38:[f17<-0.28054] yes=77,no=78,missing=77
						77:leaf=0.00863307
						78:leaf=-0.0284148
		4:[f1260<0.138107] yes=9,no=10,missing=9
			9:[f840<-0.71239] yes=19,no=20,missing=19
				19:[f868<-0.389491] yes=39,no=40,missing=39
					39:[f1764<-0.249778] yes=79,no=80,missing=79
						79:leaf=-0.0141364
						80:leaf=0.019154
					40:[f1787<0.499698] yes=81,no=82,missing=81
						81:leaf=-0.0333547
						82:leaf=-0.000685118
				20:[f1840<-1.00772] yes=41,no=42,missing=41
					41:[f1462<-0.115408] yes=83,no=84,missing=83
						83:leaf=-0.010003
						84:leaf=0.009601
					42:[f26<0.132854] yes=85,no=86,missing=85
						85:leaf=0.0245302
						86:leaf=0.0086735
			10:[f1383<-0.0667231] yes=21,no=22,missing=21
				21:[f1783<0.131359] yes=43,no=44,missing=43
					43:[f676<-0.715655] yes=87,no=88,missing=87
						87:leaf=0.000353316
						88:leaf=-0.0438262
					44:[f879<-0.235921] yes=89,no=90,missing=89
						89:leaf=0.00739431
						90:leaf=-0.0269722
				22:[f1515<0.033128] yes=45,no=46,missing=45
					45:[f522<-0.206173] yes=91,no=92,missing=91
						91:leaf=0.00531579
						92:leaf=-0.0262391
					46:[f1396<0.1396] yes=93,no=94,missing=93
						93:leaf=0.0224537
						94:leaf=-0.00729537
	2:[f1772<-0.276391] yes=5,no=6,missing=5
		5:[f1465<-0.0337898] yes=11,no=12,missing=11
			11:[f1821<-0.358974] yes=23,no=24,missing=23
				23:[f845<-0.323616] yes=47,no=48,missing=47
					47:[f840<-0.84857] yes=95,no=96,missing=95
						95:leaf=-0.0139988
						96:leaf=0.00576214
					48:[f1798<-0.428618] yes=97,no=98,missing=97
						97:leaf=-0.0336669
						98:leaf=-0.00773593
				24:[f1837<-0.108549] yes=49,no=50,missing=49
					49:[f906<-0.361526] yes=99,no=100,missing=99
						99:leaf=0.0178831
						100:leaf=0.00520867
					50:[f1552<-0.260623] yes=101,no=102,missing=101
						101:leaf=-0.00775634
						102:leaf=0.00716837
			12:[f1569<0.410083] yes=25,no=26,missing=25
				25:[f840<-0.491763] yes=51,no=52,missing=51
					51:[f978<-0.0520798] yes=103,no=104,missing=103
						103:leaf=-0.0296417
						104:leaf=-0.00379242
					52:[f1805<-0.509168] yes=105,no=106,missing=105
						105:leaf=-0.0201572
						106:leaf=-0.00596943
				26:[f1365<-0.0926682] yes=53,no=54,missing=53
					53:[f1445<-0.148727] yes=107,no=108,missing=107
						107:leaf=-0.0232023
						108:leaf=0.00900699
					54:[f595<1.106] yes=109,no=110,missing=109
						109:leaf=0.0346234
						110:leaf=-0.00723514
		6:[f1817<0.325326] yes=13,no=14,missing=13
			13:[f898<-0.496073] yes=27,no=28,missing=27
				27:[f840<-0.599547] yes=55,no=56,missing=55
					55:[f1569<0.0389095] yes=111,no=112,missing=111
						111:leaf=0.0052036
						112:leaf=0.0208797
					56:[f1837<0.152875] yes=113,no=114,missing=113
						113:leaf=0.0250991
						114:leaf=0.0103276
				28:[f840<-0.827737] yes=57,no=58,missing=57
					57:[f472<-0.00583721] yes=115,no=116,missing=115
						115:leaf=-0.00330754
						116:leaf=-0.02563
					58:[f878<1.29404] yes=117,no=118,missing=117
						117:leaf=0.0102115
						118:leaf=-0.010223
			14:[f1673<-0.0802865] yes=29,no=30,missing=29
				29:[f845<1.42643] yes=59,no=60,missing=59
					59:[f1797<0.0488766] yes=119,no=120,missing=119
						119:leaf=0.0281237
						120:leaf=0.0188245
					60:[f1832<1.12217] yes=121,no=122,missing=121
						121:leaf=-0.00946968
						122:leaf=0.018092
				30:[f654<0.468437] yes=61,no=62,missing=61
					61:[f1650<-0.0669963] yes=123,no=124,missing=123
						123:leaf=0.00362832
						124:leaf=0.0199892
					62:[f1666<-0.0492915] yes=125,no=126,missing=125
						125:leaf=-0.013169
						126:leaf=0.00749829
booster[14]:
0:[f1840<-0.896124] yes=1,no=2,missing=1
	1:[f934<-0.189269] yes=3,no=4,missing=3
		3:[f1798<-0.332938] yes=7,no=8,missing=7
			7:[f992<-0.248179] yes=15,no=16,missing=15
				15:[f924<-0.226235] yes=31,no=32,missing=31
					31:[f931<0.0296258] yes=63,no=64,missing=63
						63:leaf=-0.05
						64:leaf=0.000644687
					32:[f497<-0.569152] yes=65,no=66,missing=65
						65:leaf=0.0103005
						66:leaf=-0.0261248
				16:[f1803<-0.289389] yes=33,no=34,missing=33
					33:[f1392<-0.126455] yes=67,no=68,missing=67
						67:leaf=-0.0412722
						68:leaf=0.00561186
					34:[f881<0.267888] yes=69,no=70,missing=69
						69:leaf=-0.00650025
						70:leaf=-0.0317746
			8:[f15<0.168932] yes=17,no=18,missing=17
				17:[f1803<-0.280713] yes=35,no=36,missing=35
					35:[f1827<-0.07588] yes=71,no=72,missing=71
						71:leaf=-0.00921363
						72:leaf=-0.0345291
					36:[f921<-0.212397] yes=73,no=74,missing=73
						73:leaf=-0.0161356
						74:leaf=0.00391447
				18:[f1668<-0.129442] yes=37,no=38,missing=37
					37:[f142<-0.344083] yes=75,no=76,missing=75
						75:leaf=-0.00447656
						76:leaf=-0.0326005
					38:[f707<-0.629147] yes=77,no=78,missing=77
						77:leaf=0.00737812
						78:leaf=-0.05
		4:[f1577<0.147327] yes=9,no=10,missing=9
			9:[f1798<-0.382409] yes=19,no=20,missing=19
				19:[f1615<-0.325934] yes=39,no=40,missing=39
					39:[f892<-0.649008] yes=79,no=80,missing=79
						79:leaf=-0.00418463
						80:leaf=-0.0416141
					40:[f1248<-0.0686335] yes=81,no=82,missing=81
						81:leaf=0.00589052
						82:leaf=-0.0213556
				20:[f934<-0.0571995] yes=41,no=42,missing=41
					41:[f15<0.68961] yes=83,no=84,missing=83
						83:leaf=0.00124874
						84:leaf=-0.0249093
					42:[f650<-0.58196] yes=85,no=86,missing=85
						85:leaf=-0.00632252
						86:leaf=0.0161943
			10:[f1149<0.225909] yes=21,no=22,missing=21
				21:[f140<-0.558834] yes=43,no=44,missing=43
					43:[f1794<-0.151521] yes=87,no=88,missing=87
						87:leaf=-0.0207161
						88:leaf=0.00986721
					44:[f1502<-0.075534] yes=89,no=90,missing=89
						89:leaf=-0.0468054
						90:leaf=-0.00653676
				22:[f1576<-0.105876] yes=45,no=46,missing=45
					45:[f189<-0.702795] yes=91,no=92,missing=91
						91:leaf=0.0140725
						92:leaf=-0.029523
					46:[f1232<-0.024356] yes=93,no=94,missing=93
						93:leaf=-0.0106087
						94:leaf=0.0223658
	2:[f1772<-0.331288] yes=5,no=6,missing=5
		5:[f934<-0.189377] yes=11,no=12,missing=11
			11:[f918<0.696411] yes=23,no=24,missing=23
				23:[f1798<-0.436075] yes=47,no=48,missing=47
					47:[f945<-0.22126] yes=95,no=96,missing=95
						95:leaf=-0.0340658
						96:leaf=-0.00906243
					48:[f1572<0.011053] yes=97,no=98,missing=97
						97:leaf=0.00182662
						98:leaf=-0.0138781
				24:[f1798<-0.439203] yes=49,no=50,missing=49
					49:[f1045<-0.0529443] yes=99,no=100,missing=99
						99:leaf=-0.05
						100:leaf=-0.000502054
					50:[f360<0.441291] yes=101,no=102,missing=101
						101:leaf=-0.0290983
						102:leaf=-0.00371455
			12:[f1411<-0.160319] yes=25,no=26,missing=25
				25:[f1670<-0.103835] yes=51,no=52,missing=51
					51:[f1465<-0.0323543] yes=103,no=104,missing=103
						103:leaf=0.0198261
						104:leaf=0.00022086
					52:[f1764<-0.569475] yes=105,no=106,missing=105
						105:leaf=-0.0234242
						106:leaf=0.00493654
				26:[f1575<0.0851233] yes=53,no=54,missing=53
					53:[f1045<-0.0696974] yes=107,no=108,missing=107
						107:leaf=0.00247956
						108:leaf=-0.0141042
					54:[f1660<-0.196842] yes=109,no=110,missing=109
						109:leaf=-0.0141951
						110:leaf=0.030825
		6:[f1764<0.234434] yes=13,no=14,missing=13
			13:[f868<-0.346774] yes=27,no=28,missing=27
				27:[f1787<-0.0898483] yes=55,no=56,missing=55
					55:[f1569<-0.115279] yes=111,no=112,missing=111
						111:leaf=0.00809938
						112:leaf=0.0176222
					56:[f1367<0.0375241] yes=113,no=114,missing=113
						113:leaf=0.0264057
						114:leaf=0.00209392
				28:[f946<-0.26223] yes=57,no=58,missing=57
					57:[f1840<-0.497809] yes=115,no=116,missing=115
						115:leaf=-0.0426633
						116:leaf=-0.00698839
					58:[f840<-0.443107] yes=117,no=118,missing=117
						117:leaf=-0.00730681
						118:leaf=0.00657961
			14:[f845<0.83564] yes=29,no=30,missing=29
				29:[f1837<-0.148054] yes=59,no=60,missing=59
					59:[f879<-0.133798] yes=119,no=120,missing=119
						119:leaf=0.0298515
						120:leaf=0.0213576
					60:[f1747<0.788834] yes=121,no=122,missing=121
						121:leaf=0.00961284
						122:leaf=0.0232986
				30:[f878<0.627087] yes=61,no=62,missing=61
					61:[f840<-0.326445] yes=123,no=124,missing=123
						123:leaf=0.00332657
						124:leaf=0.0194853
					62:[f146<-0.0954307] yes=125,no=126,missing=125
						125:leaf=-0.0134521
						126:leaf=0.00686284
booster[15]:
0:[f1840<-0.674229] yes=1,no=2,missing=1
	1:[f1798<-0.35822] yes=3,no=4,missing=3
		3:[f879<-0.455729] yes=7,no=8,missing=7
			7:[f1822<-0.464239] yes=15,no=16,missing=15
				15:[f945<-0.19934] yes=31,no=32,missing=31
					31:[f1241<-0.0123301] yes=63,no=64,missing=63
						63:leaf=-0.0449577
						64:leaf=0.0135446
					32:[f1451<-0.109455] yes=65,no=66,missing=65
						65:leaf=-0.0295485
						66:leaf=-0.000181781
				16:[f1590<-0.0021626] yes=33,no=34,missing=33
					33:[f1367<-0.101035] yes=67,no=68,missing=67
						67:leaf=0.00295368
						68:leaf=-0.014749
					34:[f1740<0.193343] yes=69,no=70,missing=69
						69:leaf=-0.036782
						70:leaf=0.00155457
			8:[f992<-0.222551] yes=17,no=18,missing=17
				17:[f396<-0.813278] yes=35,no=36,missing=35
					35:leaf=0.0060306
					36:[f1200<0.189381] yes=73,no=74,missing=73
						73:leaf=-0.05
						74:leaf=-0.0158261
				18:[f1509<-0.14899] yes=37,no=38,missing=37
					37:[f579<-0.588803] yes=75,no=76,missing=75
						75:leaf=-0.00724111
						76:leaf=-0.0435082
					38:[f73<0.329819] yes=77,no=78,missing=77
						77:leaf=0.00506023
						78:leaf=-0.0271539
		4:[f918<0.816441] yes=9,no=10,missing=9
			9:[f923<-0.240277] yes=19,no=20,missing=19
				19:[f29<-0.277946] yes=39,no=40,missing=39
					39:[f1459<-0.129461] yes=79,no=80,missing=79
						79:leaf=-0.0167064
						80:leaf=0.00356825
					40:[f1652<-0.282547] yes=81,no=82,missing=81
						81:leaf=-0.00812084
						82:leaf=-0.0381769
				20:[f1827<0.041381] yes=41,no=42,missing=41
					41:[f912<1.01175] yes=83,no=84,missing=83
						83:leaf=0.0104456
						84:leaf=-0.0149729
					42:[f1367<0.137092] yes=85,no=86,missing=85
						85:leaf=-0.00241728
						86:leaf=-0.0293823
			10:[f934<-0.223957] yes=21,no=22,missing=21
				21:[f1596<0.16241] yes=43,no=44,missing=43
					43:[f1828<0.97765] yes=87,no=88,missing=87
						87:leaf=-0.0492595
						88:leaf=0.00486745
					44:[f809<-0.284934] yes=89,no=90,missing=89
						89:leaf=0.0160365
						90:leaf=-0.0123909
				22:[f912<1.30792] yes=45,no=46,missing=45
					45:[f1667<-0.115971] yes=91,no=92,missing=91
						91:leaf=0.00313411
						92:leaf=-0.0219858
					46:[f1508<0.00370764] yes=93,no=94,missing=93
						93:leaf=-0.0481059
						94:leaf=0.00123833
	2:[f1817<-0.232287] yes=5,no=6,missing=5
		5:[f875<-0.172578] yes=11,no=12,missing=11
			11:[f1780<-0.199135] yes=23,no=24,missing=23
				23:[f1465<-0.0879647] yes=47,no=48,missing=47
					47:[f840<-0.866298] yes=95,no=96,missing=95
						95:leaf=-0.00577676
						96:leaf=0.00751468
					48:[f1569<-0.262187] yes=97,no=98,missing=97
						97:leaf=-0.0198301
						98:leaf=-0.00239566
				24:[f1808<0.926699] yes=49,no=50,missing=49
					49:[f1837<-0.04846] yes=99,no=100,missing=99
						99:leaf=0.0221418
						100:leaf=0.00400358
					50:[f1459<-0.0974475] yes=101,no=102,missing=101
						101:leaf=-0.0137809
						102:leaf=0.0123747
			12:[f1809<-0.448984] yes=25,no=26,missing=25
				25:[f1581<0.11949] yes=51,no=52,missing=51
					51:[f1787<-0.539338] yes=103,no=104,missing=103
						103:leaf=-0.0404699
						104:leaf=-0.0185802
					52:[f1764<-0.604838] yes=105,no=106,missing=105
						105:leaf=-0.0192995
						106:leaf=0.0194372
				26:[f1061<-0.0998608] yes=53,no=54,missing=53
					53:[f1809<-0.214733] yes=107,no=108,missing=107
						107:leaf=-0.00421779
						108:leaf=0.0110564
					54:[f1059<-0.113716] yes=109,no=110,missing=109
						109:leaf=-0.000126126
						110:leaf=-0.0172421
		6:[f1754<0.14088] yes=13,no=14,missing=13
			13:[f898<-0.286836] yes=27,no=28,missing=27
				27:[f967<0.182256] yes=55,no=56,missing=55
					55:[f1570<-0.191302] yes=111,no=112,missing=111
						111:leaf=0.0138461
						112:leaf=0.0247595
					56:[f1774<0.442791] yes=113,no=114,missing=113
						113:leaf=0.000745015
						114:leaf=0.0205158
				28:[f1674<-0.0755982] yes=57,no=58,missing=57
					57:[f1817<0.176972] yes=115,no=116,missing=115
						115:leaf=0.0048903
						116:leaf=0.0159952
					58:[f1764<0.0896183] yes=117,no=118,missing=117
						117:leaf=-0.0171325
						118:leaf=0.0071366
			14:[f1054<0.0250573] yes=29,no=30,missing=29
				29:[f1816<0.511599] yes=59,no=60,missing=59
					59:[f940<3.98572] yes=119,no=120,missing=119
						119:leaf=0.0264407
						120:leaf=-0.0145647
					60:[f1581<-0.0692643] yes=121,no=122,missing=121
						121:leaf=-0.0074091
						122:leaf=0.0126379
				30:[f1817<1.06286] yes=61,no=62,missing=61
					61:[f909<0.400383] yes=123,no=124,missing=123
						123:leaf=0.0116877
						124:leaf=-0.00765901
					62:[f119<3.05902] yes=125,no=126,missing=125
						125:leaf=0.0219396
						126:leaf=-0.00882089
booster[16]:
0:[f1840<-0.938052] yes=1,no=2,missing=1
	1:[f945<-0.171894] yes=3,no=4,missing=3
		3:[f1798<-0.306085] yes=7,no=8,missing=7
			7:[f992<-0.251034] yes=15,no=16,missing=15
				15:[f946<-0.255999] yes=31,no=32,missing=31
					31:[f1405<-0.00164668] yes=63,no=64,missing=63
						63:leaf=-0.05
						64:leaf=-0.0183936
					32:[f868<-0.902537] yes=65,no=66,missing=65
						65:leaf=-0.00127048
						66:leaf=-0.0341277
				16:[f1803<-0.243205] yes=33,no=34,missing=33
					33:[f1462<-0.133948] yes=67,no=68,missing=67
						67:leaf=-0.0390941
						68:leaf=-0.0168083
					34:[f1291<-0.123226] yes=69,no=70,missing=69
						69:leaf=0.0105997
						70:leaf=-0.022631
			8:[f868<-0.105319] yes=17,no=18,missing=17
				17:[f1756<-0.425077] yes=35,no=36,missing=35
					35:[f1003<-0.237793] yes=71,no=72,missing=71
						71:leaf=-0.00987492
						72:leaf=0.0267747
					36:[f1517<-0.062037] yes=73,no=74,missing=73
						73:leaf=0.00517937
						74:leaf=-0.0192569
				18:[f1448<-0.0862685] yes=37,no=38,missing=37
					37:[f918<0.310223] yes=75,no=76,missing=75
						75:leaf=-0.0240508
						76:leaf=-0.0451068
					38:[f852<0.240904] yes=77,no=78,missing=77
						77:leaf=0.00385453
						78:leaf=-0.0236251
		4:[f1523<-0.0591887] yes=9,no=10,missing=9
			9:[f992<-0.23435] yes=19,no=20,missing=19
				19:[f73<0.0921505] yes=39,no=40,missing=39
					39:[f1509<-0.149993] yes=79,no=80,missing=79
						79:leaf=-0.0184767
						80:leaf=0.00161422
					40:[f48<1.02713] yes=81,no=82,missing=81
						81:leaf=-0.0423185
						82:leaf=0.00160673
				20:[f1059<-0.102065] yes=41,no=42,missing=41
					41:[f1569<-0.225145] yes=83,no=84,missing=83
						83:leaf=-0.00185605
						84:leaf=0.0215198
					42:[f1736<-0.174185] yes=85,no=86,missing=85
						85:leaf=-0.0237454
						86:leaf=0.00192306
			10:[f1174<0.489845] yes=21,no=22,missing=21
				21:[f1466<-0.156801] yes=43,no=44,missing=43
					43:[f1840<-1.00739] yes=87,no=88,missing=87
						87:leaf=-0.0386966
						88:leaf=0.00841048
					44:[f1039<-0.224123] yes=89,no=90,missing=89
						89:leaf=0.0097862
						90:leaf=-0.0185083
				22:[f3<-0.398878] yes=45,no=46,missing=45
					45:[f475<-0.447924] yes=91,no=92,missing=91
						91:leaf=-0.0105456
						92:leaf=0.0281759
					46:[f305<1.14316] yes=93,no=94,missing=93
						93:leaf=-0.0200722
						94:leaf=0.0190473
	2:[f1821<-0.226636] yes=5,no=6,missing=5
		5:[f934<-0.163395] yes=11,no=12,missing=11
			11:[f918<0.592649] yes=23,no=24,missing=23
				23:[f1798<-0.436381] yes=47,no=48,missing=47
					47:[f923<-0.260593] yes=95,no=96,missing=95
						95:leaf=-0.0290595
						96:leaf=-0.00609682
					48:[f1838<-0.358043] yes=97,no=98,missing=97
						97:leaf=-0.00517834
						98:leaf=0.00846887
				24:[f945<-0.202444] yes=49,no=50,missing=49
					49:[f1590<-0.0698392] yes=99,no=100,missing=99
						99:leaf=-0.0267086
						100:leaf=-0.05
					50:[f15<0.379427] yes=101,no=102,missing=101
						101:leaf=-0.00216265
						102:leaf=-0.0211014
			12:[f1575<0.0604952] yes=25,no=26,missing=25
				25:[f967<1.34671] yes=51,no=52,missing=51
					51:[f1465<-0.044621] yes=103,no=104,missing=103
						103:leaf=0.00960439
						104:leaf=-0.00334824
					52:[f1365<0.0482396] yes=105,no=106,missing=105
						105:leaf=-0.0260607
						106:leaf=0.0166882
				26:[f1054<1.05462] yes=53,no=54,missing=53
					53:[f1792<4.02668] yes=107,no=108,missing=107
						107:leaf=0.0310534
						108:leaf=-0.00742921
					54:[f1805<0.171817] yes=109,no=110,missing=109
						109:leaf=-0.021874
						110:leaf=0.0086223
		6:[f1828<0.748993] yes=13,no=14,missing=13
			13:[f868<-0.495999] yes=27,no=28,missing=27
				27:[f1821<0.546196] yes=55,no=56,missing=55
					55:[f1669<-0.0316206] yes=111,no=112,missing=111
						111:leaf=0.0174744
						112:leaf=0.00236165
					56:[f967<1.21378] yes=113,no=114,missing=113
						113:leaf=0.0305635
						114:leaf=0.00519829
				28:[f1787<0.576414] yes=57,no=58,missing=57
					57:[f879<0.661848] yes=115,no=116,missing=115
						115:leaf=0.00382344
						116:leaf=-0.00960117
					58:[f879<1.43274] yes=117,no=118,missing=117
						117:leaf=0.0171357
						118:leaf=-0.000165284
			14:[f878<0.820485] yes=29,no=30,missing=29
				29:[f1465<-0.034055] yes=59,no=60,missing=59
					59:[f1838<5.07463] yes=119,no=120,missing=119
						119:leaf=0.0283705
						120:leaf=-0.00301875
					60:[f1810<0.0014131] yes=121,no=122,missing=121
						121:leaf=-0.000381674
						122:leaf=0.0193527
				30:[f13<0.778462] yes=61,no=62,missing=61
					61:[f1148<-0.0589815] yes=123,no=124,missing=123
						123:leaf=0.00191509
						124:leaf=0.0241248
					62:[f268<0.672031] yes=125,no=126,missing=125
						125:leaf=-0.0211825
						126:leaf=0.00839502
booster[17]:
0:[f1840<-0.964499] yes=1,no=2,missing=1
	1:[f945<-0.16805] yes=3,no=4,missing=3
		3:[f1798<-0.330602] yes=7,no=8,missing=7
			7:[f992<-0.249917] yes=15,no=16,missing=15
				15:[f931<-0.193646] yes=31,no=32,missing=31
					31:[f1596<0.0899573] yes=63,no=64,missing=63
						63:leaf=-0.05
						64:leaf=0.000620239
					32:[f557<-0.605183] yes=65,no=66,missing=65
						65:leaf=0.00820314
						66:leaf=-0.0315076
				16:[f1199<-0.0901104] yes=33,no=34,missing=33
					33:[f1821<-0.285421] yes=67,no=68,missing=67
						67:leaf=-0.0348065
						68:leaf=0.00389267
					34:[f845<-0.891098] yes=69,no=70,missing=69
						69:leaf=0.0137242
						70:leaf=-0.0180274
			8:[f26<-0.556169] yes=17,no=18,missing=17
				17:[f1827<-0.0822733] yes=35,no=36,missing=35
					35:[f1590<-0.000940663] yes=71,no=72,missing=71
						71:leaf=0.0112133
						72:leaf=-0.0242884
					36:[f1823<-0.363696] yes=73,no=74,missing=73
						73:leaf=-0.0334678
						74:leaf=-0.00385522
				18:[f1438<-0.0755937] yes=37,no=38,missing=37
					37:[f892<-0.487746] yes=75,no=76,missing=75
						75:leaf=-0.0145293
						76:leaf=-0.0387417
					38:[f614<0.0753363] yes=77,no=78,missing=77
						77:leaf=0.00258073
						78:leaf=-0.0299103
		4:[f1097<-0.216632] yes=9,no=10,missing=9
			9:[f880<0.491155] yes=19,no=20,missing=19
				19:[f821<-0.262456] yes=39,no=40,missing=39
					39:[f1772<1.32427] yes=79,no=80,missing=79
						79:leaf=-0.0224726
						80:leaf=0.0144826
					40:[f1575<-0.0774437] yes=81,no=82,missing=81
						81:leaf=-0.018439
						82:leaf=0.0119129
				20:[f111<1.47408] yes=41,no=42,missing=41
					41:[f1808<-0.483134] yes=83,no=84,missing=83
						83:leaf=0.0040746
						84:leaf=-0.0466673
					42:[f897<0.220492] yes=85,no=86,missing=85
						85:leaf=0.0175413
						86:leaf=-0.0176035
			10:[f26<0.615808] yes=21,no=22,missing=21
				21:[f1182<-0.0674303] yes=43,no=44,missing=43
					43:[f1073<0.0526186] yes=87,no=88,missing=87
						87:leaf=0.0169831
						88:leaf=-0.00877259
					44:[f1581<0.339611] yes=89,no=90,missing=89
						89:leaf=-0.0164903
						90:leaf=0.016251
				22:[f945<-0.0635643] yes=45,no=46,missing=45
					45:[f583<-0.48633] yes=91,no=92,missing=91
						91:leaf=0.00396858
						92:leaf=-0.0297165
					46:[f1045<-0.0724858] yes=93,no=94,missing=93
						93:leaf=0.00985842
						94:leaf=-0.0189828
	2:[f1764<-0.262422] yes=5,no=6,missing=5
		5:[f845<-0.651714] yes=11,no=12,missing=11
			11:[f934<-0.205746] yes=23,no=24,missing=23
				23:[f1798<-0.441904] yes=47,no=48,missing=47
					47:[f945<-0.216319] yes=95,no=96,missing=95
						95:leaf=-0.0271982
						96:leaf=-0.00321133
					48:[f1408<-0.0445853] yes=97,no=98,missing=97
						97:leaf=0.0083389
						98:leaf=-0.00744632
				24:[f1569<-0.138228] yes=49,no=50,missing=49
					49:[f1039<-0.0234348] yes=99,no=100,missing=99
						99:leaf=0.0098274
						100:leaf=-0.00478501
					50:[f1775<-0.175464] yes=101,no=102,missing=101
						101:leaf=0.0238971
						102:leaf=0.0122361
			12:[f918<1.41659] yes=25,no=26,missing=25
				25:[f1051<0.104781] yes=51,no=52,missing=51
					51:[f1764<-0.564404] yes=103,no=104,missing=103
						103:leaf=-0.0342875
						104:leaf=-0.00887623
					52:[f1365<-0.0619049] yes=105,no=106,missing=105
						105:leaf=-0.00365342
						106:leaf=0.0329351
				26:[f1596<-0.046231] yes=53,no=54,missing=53
					53:[f767<-0.489833] yes=107,no=108,missing=107
						107:leaf=0.00197143
						108:leaf=-0.0456292
					54:[f1141<0.244526] yes=109,no=110,missing=109
						109:leaf=-0.0207135
						110:leaf=0.0104671
		6:[f1837<-0.17304] yes=13,no=14,missing=13
			13:[f879<0.725418] yes=27,no=28,missing=27
				27:[f1764<1.10057] yes=55,no=56,missing=55
					55:[f845<-0.573914] yes=111,no=112,missing=111
						111:leaf=0.0248651
						112:leaf=0.0127751
					56:[f1367<-0.0653961] yes=113,no=114,missing=113
						113:leaf=0.0296375
						114:leaf=0.0123433
				28:[f934<-0.228981] yes=57,no=58,missing=57
					57:[f256<0.795859] yes=115,no=116,missing=115
						115:leaf=-0.0284732
						116:leaf=0.0128242
					58:[f1764<1.29449] yes=117,no=118,missing=117
						117:leaf=0.00308836
						118:leaf=0.0194941
			14:[f1465<-0.0416273] yes=29,no=30,missing=29
				29:[f1747<0.188298] yes=59,no=60,missing=59
					59:[f845<0.177514] yes=119,no=120,missing=119
						119:leaf=0.00765181
						120:leaf=-0.00689628
					60:[f1669<0.165184] yes=121,no=122,missing=121
						121:leaf=0.0171156
						122:leaf=-0.00269811
				30:[f1148<-0.139308] yes=61,no=62,missing=61
					61:[f1838<-0.327385] yes=123,no=124,missing=123
						123:leaf=-0.022281
						124:leaf=-0.00420499
					62:[f808<0.984823] yes=125,no=126,missing=125
						125:leaf=0.00610281
						126:leaf=-0.014407
booster[18]:
0:[f1840<-0.964499] yes=1,no=2,missing=1
	1:[f934<-0.191802] yes=3,no=4,missing=3
		3:[f1798<-0.340498] yes=7,no=8,missing=7
			7:[f946<-0.242521] yes=15,no=16,missing=15
				15:[f945<-0.20523] yes=31,no=32,missing=31
					31:[f1453<0.565866] yes=63,no=64,missing=63
						63:leaf=-0.05
						64:leaf=-0.00505539
					32:[f903<-0.218263] yes=65,no=66,missing=65
						65:leaf=-0.0166274
						66:leaf=-0.0449952
				16:[f1744<-0.180924] yes=33,no=34,missing=33
					33:[f1743<-0.318812] yes=67,no=68,missing=67
						67:leaf=-0.0231524
						68:leaf=0.00976303
					34:[f290<-0.774452] yes=69,no=70,missing=69
						69:leaf=0.00727077
						70:leaf=-0.0391339
			8:[f879<-0.225842] yes=17,no=18,missing=17
				17:[f945<-0.216819] yes=35,no=36,missing=35
					35:[f1450<-0.11993] yes=71,no=72,missing=71
						71:leaf=-0.0307178
						72:leaf=0.00397943
					36:[f838<-0.344993] yes=73,no=74,missing=73
						73:leaf=-0.00937034
						74:leaf=0.0151119
				18:[f1798<0.291616] yes=37,no=38,missing=37
					37:[f1669<-0.176674] yes=75,no=76,missing=75
						75:leaf=-0.0243964
						76:leaf=-0.0447906
					38:[f27<-0.130992] yes=77,no=78,missing=77
						77:leaf=0.00423543
						78:leaf=-0.022829
		4:[f1097<-0.216444] yes=9,no=10,missing=9
			9:[f736<-0.396282] yes=19,no=20,missing=19
				19:[f1569<-0.146181] yes=39,no=40,missing=39
					39:[f860<-0.651152] yes=79,no=80,missing=79
						79:leaf=0.00716354
						80:leaf=-0.0255789
					40:[f103<-0.257936] yes=81,no=82,missing=81
						81:leaf=0.0190195
						82:leaf=-0.0136336
				20:[f1136<-0.165744] yes=41,no=42,missing=41
					41:[f1838<1.19941] yes=83,no=84,missing=83
						83:leaf=-0.0422922
						84:leaf=0.00445119
					42:[f546<-0.734385] yes=85,no=86,missing=85
						85:leaf=0.0102069
						86:leaf=-0.0206755
			10:[f934<-0.0574148] yes=21,no=22,missing=21
				21:[f15<0.199398] yes=43,no=44,missing=43
					43:[f1622<-0.0829742] yes=87,no=88,missing=87
						87:leaf=0.00685909
						88:leaf=-0.0181914
					44:[f1759<-0.506342] yes=89,no=90,missing=89
						89:leaf=1.5169e-05
						90:leaf=-0.0353112
				22:[f1816<0.0628896] yes=45,no=46,missing=45
					45:[f1552<-0.309941] yes=91,no=92,missing=91
						91:leaf=-0.00476259
						92:leaf=0.0178344
					46:[f1575<0.0435378] yes=93,no=94,missing=93
						93:leaf=-0.0140824
						94:leaf=0.017793
	2:[f1764<-0.0994161] yes=5,no=6,missing=5
		5:[f845<-0.55488] yes=11,no=12,missing=11
			11:[f934<-0.178562] yes=23,no=24,missing=23
				23:[f945<-0.188028] yes=47,no=48,missing=47
					47:[f1590<-0.0326867] yes=95,no=96,missing=95
						95:leaf=-0.00536423
						96:leaf=-0.0442071
					48:[f1306<-0.0807695] yes=97,no=98,missing=97
						97:leaf=0.0109366
						98:leaf=-0.00388598
				24:[f1775<-0.107655] yes=49,no=50,missing=49
					49:[f1569<-0.137041] yes=99,no=100,missing=99
						99:leaf=0.0133508
						100:leaf=0.0241156
					50:[f1753<-0.0211235] yes=101,no=102,missing=101
						101:leaf=0.00270587
						102:leaf=0.0157325
			12:[f1764<-0.522417] yes=25,no=26,missing=25
				25:[f1365<0.0075158] yes=51,no=52,missing=51
					51:[f1798<-0.455152] yes=103,no=104,missing=103
						103:leaf=-0.0434408
						104:leaf=-0.0211877
					52:[f276<0.122133] yes=105,no=106,missing=105
						105:leaf=0.0325431
						106:leaf=-0.00951208
				26:[f918<0.605599] yes=53,no=54,missing=53
					53:[f1838<-0.259936] yes=107,no=108,missing=107
						107:leaf=-0.00661781
						108:leaf=0.00400223
					54:[f945<-0.207518] yes=109,no=110,missing=109
						109:leaf=-0.0309495
						110:leaf=-0.00997116
		6:[f845<0.535474] yes=13,no=14,missing=13
			13:[f1837<-0.247787] yes=27,no=28,missing=27
				27:[f967<0.363429] yes=55,no=56,missing=55
					55:[f945<-0.172446] yes=111,no=112,missing=111
						111:leaf=0.0146628
						112:leaf=0.0247559
					56:[f549<-0.425759] yes=113,no=114,missing=113
						113:leaf=-0.00251658
						114:leaf=0.0144847
				28:[f1747<0.142012] yes=57,no=58,missing=57
					57:[f1838<-0.174093] yes=115,no=116,missing=115
						115:leaf=0.00105612
						116:leaf=0.016291
					58:[f1408<-0.0599131] yes=117,no=118,missing=117
						117:leaf=0.0205665
						118:leaf=0.00905981
			14:[f1787<1.56553] yes=29,no=30,missing=29
				29:[f946<-0.237443] yes=59,no=60,missing=59
					59:[f1828<0.645378] yes=119,no=120,missing=119
						119:leaf=-0.0185248
						120:leaf=0.00949518
					60:[f1299<-0.184098] yes=121,no=122,missing=121
						121:leaf=0.0111595
						122:leaf=-0.00189468
				30:[f878<1.42943] yes=61,no=62,missing=61
					61:[f840<-0.968695] yes=123,no=124,missing=123
						123:leaf=-0.00295198
						124:leaf=0.01991
					62:[f1514<-0.00578369] yes=125,no=126,missing=125
						125:leaf=-0.0130309
						126:leaf=0.011314
booster[19]:
0:[f1840<-0.945148] yes=1,no=2,missing=1
	1:[f1798<-0.283443] yes=3,no=4,missing=3
		3:[f923<-0.241217] yes=7,no=8,missing=7
			7:[f879<-0.635875] yes=15,no=16,missing=15
				15:[f945<-0.211769] yes=31,no=32,missing=31
					31:[f1453<-0.111714] yes=63,no=64,missing=63
						63:leaf=-0.0437201
						64:leaf=-0.0139298
					32:[f592<-0.411286] yes=65,no=66,missing=65
						65:leaf=0.00710169
						66:leaf=-0.0199315
				16:[f992<-0.0358577] yes=33,no=34,missing=33
					33:[f972<1.3775] yes=67,no=68,missing=67
						67:leaf=-0.05
						68:leaf=0.00844476
					34:[f1841<-0.708373] yes=69,no=70,missing=69
						69:leaf=-0.00979646
						70:leaf=0.0205286
			8:[f879<-0.226577] yes=17,no=18,missing=17
				17:[f1451<-0.107124] yes=35,no=36,missing=35
					35:[f1744<-0.192264] yes=71,no=72,missing=71
						71:leaf=-0.00729809
						72:leaf=-0.0299871
					36:[f29<-0.0756755] yes=73,no=74,missing=73
						73:leaf=0.0134782
						74:leaf=-0.0116241
				18:[f1669<-0.185017] yes=37,no=38,missing=37
					37:[f1607<-0.163626] yes=75,no=76,missing=75
						75:leaf=-0.0319693
						76:leaf=-0.00140818
					38:[f615<-0.61668] yes=77,no=78,missing=77
						77:leaf=-0.00571927
						78:leaf=-0.05
		4:[f921<-0.178175] yes=9,no=10,missing=9
			9:[f1669<-0.0852137] yes=19,no=20,missing=19
				19:[f1575<-0.0642429] yes=39,no=40,missing=39
					39:[f1827<-0.125333] yes=79,no=80,missing=79
						79:leaf=0.000116708
						80:leaf=-0.0279907
					40:[f908<1.0899] yes=81,no=82,missing=81
						81:leaf=0.00900426
						82:leaf=-0.0230484
				20:[f644<-0.634869] yes=41,no=42,missing=41
					41:[f64<-0.360002] yes=83,no=84,missing=83
						83:leaf=0.0210693
						84:leaf=-0.0144457
					42:[f531<-0.501188] yes=85,no=86,missing=85
						85:leaf=-0.0118226
						86:leaf=-0.0472783
			10:[f1059<-0.101886] yes=21,no=22,missing=21
				21:[f912<1.14438] yes=43,no=44,missing=43
					43:[f1451<-0.116074] yes=87,no=88,missing=87
						87:leaf=-0.0124172
						88:leaf=0.0171503
					44:[f1481<-0.0132683] yes=89,no=90,missing=89
						89:leaf=-0.0304254
						90:leaf=0.0146819
				22:[f1841<-0.779039] yes=45,no=46,missing=45
					45:[f1570<0.932192] yes=91,no=92,missing=91
						91:leaf=-0.0268991
						92:leaf=0.00632072
					46:[f1452<-0.027595] yes=93,no=94,missing=93
						93:leaf=0.00583314
						94:leaf=-0.0215784
	2:[f1817<-0.127878] yes=5,no=6,missing=5
		5:[f875<0.0124537] yes=11,no=12,missing=11
			11:[f1787<-0.346777] yes=23,no=24,missing=23
				23:[f1596<-0.0429806] yes=47,no=48,missing=47
					47:[f868<-0.531503] yes=95,no=96,missing=95
						95:leaf=-0.0026689
						96:leaf=-0.0194001
					48:[f1518<-0.367883] yes=97,no=98,missing=97
						97:leaf=-0.00753672
						98:leaf=0.0117554
				24:[f868<-0.477621] yes=49,no=50,missing=49
					49:[f1408<-0.0429672] yes=99,no=100,missing=99
						99:leaf=0.0227228
						100:leaf=0.00199249
					50:[f1306<-0.0863729] yes=101,no=102,missing=101
						101:leaf=0.00746829
						102:leaf=-0.0031278
			12:[f1787<-0.244137] yes=25,no=26,missing=25
				25:[f946<-0.260499] yes=51,no=52,missing=51
					51:[f880<-0.0831958] yes=103,no=104,missing=103
						103:leaf=-0.0198995
						104:leaf=-0.0436623
					52:[f1055<0.663174] yes=105,no=106,missing=105
						105:leaf=-0.0149054
						106:leaf=0.0148123
				26:[f1408<-0.0108603] yes=53,no=54,missing=53
					53:[f1838<-0.437755] yes=107,no=108,missing=107
						107:leaf=-0.0125571
						108:leaf=0.00712967
					54:[f1199<-0.0882557] yes=109,no=110,missing=109
						109:leaf=-0.0215676
						110:leaf=0.0027733
		6:[f879<0.961596] yes=13,no=14,missing=13
			13:[f1764<1.39371] yes=27,no=28,missing=27
				27:[f840<-0.321033] yes=55,no=56,missing=55
					55:[f868<-0.0825111] yes=111,no=112,missing=111
						111:leaf=0.0122187
						112:leaf=-0.00179444
					56:[f1367<0.0296867] yes=113,no=114,missing=113
						113:leaf=0.0187106
						114:leaf=0.00266862
				28:[f845<0.211614] yes=57,no=58,missing=57
					57:[f919<-0.188372] yes=115,no=116,missing=115
						115:leaf=-0.00102994
						116:leaf=0.0308456
					58:[f1837<0.24872] yes=117,no=118,missing=117
						117:leaf=0.0214066
						118:leaf=0.00468172
			14:[f1798<0.282466] yes=29,no=30,missing=29
				29:[f933<-0.147283] yes=59,no=60,missing=59
					59:[f946<-0.159701] yes=119,no=120,missing=119
						119:leaf=-0.0426059
						120:leaf=-0.00310595
					60:[f1448<0.338039] yes=121,no=122,missing=121
						121:leaf=-0.0115523
						122:leaf=0.0163897
				30:[f1798<3.60677] yes=61,no=62,missing=61
					61:[f978<-0.261541] yes=123,no=124,missing=123
						123:leaf=-0.00909088
						124:leaf=0.00724658
					62:[f1669<0.418838] yes=125,no=126,missing=125
						125:leaf=0.0225764
						126:leaf=-0.00629025
booster[20]:
0:[f1840<-0.780661] yes=1,no=2,missing=1
	1:[f945<-0.165042] yes=3,no=4,missing=3
		3:[f1798<-0.382417] yes=7,no=8,missing=7
			7:[f879<-0.517429] yes=15,no=16,missing=15
				15:[f948<-0.243022] yes=31,no=32,missing=31
					31:[f1453<-0.125867] yes=63,no=64,missing=63
						63:leaf=-0.0391827
						64:leaf=-0.0121816
					32:[f122<-0.71197] yes=65,no=66,missing=65
						65:leaf=0.0069929
						66:leaf=-0.0153796
				16:[f1196<-0.0389485] yes=33,no=34,missing=33
					33:[f1481<0.837824] yes=67,no=68,missing=67
						67:leaf=-0.05
						68:leaf=-0.00104431
					34:[f791<-0.355231] yes=69,no=70,missing=69
						69:leaf=0.0141884
						70:leaf=-0.0302394
			8:[f880<0.53182] yes=17,no=18,missing=17
				17:[f1667<-0.129344] yes=35,no=36,missing=35
					35:[f1810<-0.401714] yes=71,no=72,missing=71
						71:leaf=-0.0142532
						72:leaf=0.00670991
					36:[f1583<-0.0633773] yes=73,no=74,missing=73
						73:leaf=-0.0260144
						74:leaf=-0.000112318
				18:[f1803<-0.203092] yes=37,no=38,missing=37
					37:[f1283<0.152943] yes=75,no=76,missing=75
						75:leaf=-0.0426106
						76:leaf=0.00375837
					38:[f1259<-0.142752] yes=77,no=78,missing=77
						77:leaf=0.00655755
						78:leaf=-0.0284902
		4:[f903<1.17711] yes=9,no=10,missing=9
			9:[f840<-0.303758] yes=19,no=20,missing=19
				19:[f1480<-0.127425] yes=39,no=40,missing=39
					39:[f868<-0.623639] yes=79,no=80,missing=79
						79:leaf=-0.00471531
						80:leaf=-0.0220256
					40:[f556<-0.644502] yes=81,no=82,missing=81
						81:leaf=0.0154264
						82:leaf=-0.00375919
				20:[f1451<-0.0878651] yes=41,no=42,missing=41
					41:[f1822<-0.493604] yes=83,no=84,missing=83
						83:leaf=-0.0299161
						84:leaf=0.00206462
					42:[f1389<-0.0826937] yes=85,no=86,missing=85
						85:leaf=0.0213029
						86:leaf=-0.000716576
			10:[f1472<-0.0457235] yes=21,no=22,missing=21
				21:[f1828<0.305726] yes=43,no=44,missing=43
					43:[f1833<2.05354] yes=87,no=88,missing=87
						87:leaf=-0.0473636
						88:leaf=0.00137587
					44:[f1463<-0.0310026] yes=89,no=90,missing=89
						89:leaf=-0.0170489
						90:leaf=0.0161265
				22:[f1402<-0.0683258] yes=45,no=46,missing=45
					45:[f1663<-0.0843206] yes=91,no=92,missing=91
						91:leaf=-0.0107333
						92:leaf=0.0203541
					46:[f1821<2.93653] yes=93,no=94,missing=93
						93:leaf=-0.0274001
						94:leaf=0.00902213
	2:[f1764<0.026552] yes=5,no=6,missing=5
		5:[f1569<-0.12223] yes=11,no=12,missing=11
			11:[f1465<0.00643845] yes=23,no=24,missing=23
				23:[f840<-0.820693] yes=47,no=48,missing=47
					47:[f845<-0.552302] yes=95,no=96,missing=95
						95:leaf=-0.00405215
						96:leaf=-0.0192172
					48:[f868<-0.132572] yes=97,no=98,missing=97
						97:leaf=0.00566554
						98:leaf=-0.00613289
				24:[f1838<-0.425492] yes=49,no=50,missing=49
					49:[f840<0.443592] yes=99,no=100,missing=99
						99:leaf=-0.0302276
						100:leaf=-0.0114772
					50:[f1780<-0.400943] yes=101,no=102,missing=101
						101:leaf=-0.0141048
						102:leaf=0.00219708
			12:[f868<-0.232283] yes=25,no=26,missing=25
				25:[f948<-0.242853] yes=51,no=52,missing=51
					51:[f934<-0.239289] yes=103,no=104,missing=103
						103:leaf=-0.0157563
						104:leaf=0.00842049
					52:[f495<0.299752] yes=105,no=106,missing=105
						105:leaf=0.0194751
						106:leaf=0.00450816
				26:[f1365<0.0383451] yes=53,no=54,missing=53
					53:[f1669<0.0224811] yes=107,no=108,missing=107
						107:leaf=0.00127081
						108:leaf=-0.0213027
					54:[f1660<0.046324] yes=109,no=110,missing=109
						109:leaf=-0.00125138
						110:leaf=0.0300638
		6:[f845<-0.0747254] yes=13,no=14,missing=13
			13:[f1837<-0.300122] yes=27,no=28,missing=27
				27:[f1232<0.0370841] yes=55,no=56,missing=55
					55:[f1838<4.79257] yes=111,no=112,missing=111
						111:leaf=0.0269856
						112:leaf=-0.00595565
					56:[f21<-0.783045] yes=113,no=114,missing=113
						113:leaf=-0.0151508
						114:leaf=0.0141387
				28:[f1596<-0.0768084] yes=57,no=58,missing=57
					57:[f874<-0.283907] yes=115,no=116,missing=115
						115:leaf=-0.00478408
						116:leaf=0.0136515
					58:[f1757<1.42482] yes=117,no=118,missing=117
						117:leaf=0.0152718
						118:leaf=0.0281311
			14:[f1764<1.62028] yes=29,no=30,missing=29
				29:[f840<-0.427927] yes=59,no=60,missing=59
					59:[f1596<-0.044711] yes=119,no=120,missing=119
						119:leaf=-0.00867756
						120:leaf=0.0080106
					60:[f845<2.10062] yes=121,no=122,missing=121
						121:leaf=0.0100002
						122:leaf=-0.0152905
				30:[f1827<0.00838088] yes=61,no=62,missing=61
					61:[f450<-0.714837] yes=123,no=124,missing=123
						123:leaf=-0.0045413
						124:leaf=0.0221324
					62:[f861<3.2436] yes=125,no=126,missing=125
						125:leaf=0.0112218
						126:leaf=-0.0178778
booster[21]:
0:[f1840<-0.97353] yes=1,no=2,missing=1
	1:[f1815<-0.387994] yes=3,no=4,missing=3
		3:[f1798<-0.42616] yes=7,no=8,missing=7
			7:[f992<-0.263163] yes=15,no=16,missing=15
				15:[f901<-1.02449] yes=31,no=32,missing=31
					31:[f1763<-0.480189] yes=63,no=64,missing=63
						63:leaf=-0.00984935
						64:leaf=0.0169138
					32:[f1454<0.0991899] yes=65,no=66,missing=65
						65:leaf=-0.05
						66:leaf=0.00147609
				16:[f67<-0.911135] yes=33,no=34,missing=33
					33:[f1629<-0.137946] yes=67,no=68,missing=67
						67:leaf=-0.0190652
						68:leaf=0.0198246
					34:[f278<-0.785631] yes=69,no=70,missing=69
						69:leaf=-0.00336264
						70:leaf=-0.0349707
			8:[f945<-0.178425] yes=17,no=18,missing=17
				17:[f1757<-0.473622] yes=35,no=36,missing=35
					35:[f1837<0.135357] yes=71,no=72,missing=71
						71:leaf=-0.00309023
						72:leaf=-0.0275192
					36:[f1094<-0.0740551] yes=73,no=74,missing=73
						73:leaf=-0.0403513
						74:leaf=-0.00084825
				18:[f397<-0.54448] yes=37,no=38,missing=37
					37:[f340<-0.716965] yes=75,no=76,missing=75
						75:leaf=0.00878721
						76:leaf=-0.0347142
					38:[f539<-0.11442] yes=77,no=78,missing=77
						77:leaf=0.0123215
						78:leaf=-0.0137142
		4:[f880<-0.219953] yes=9,no=10,missing=9
			9:[f1669<-0.0564157] yes=19,no=20,missing=19
				19:[f1744<-0.104176] yes=39,no=40,missing=39
					39:[f879<-0.798341] yes=79,no=80,missing=79
						79:leaf=0.0227154
						80:leaf=0.00259802
					40:[f1768<-0.122791] yes=81,no=82,missing=81
						81:leaf=-0.0205958
						82:leaf=0.00582333
				20:[f154<-0.130059] yes=41,no=42,missing=41
					41:[f794<-0.211836] yes=83,no=84,missing=83
						83:leaf=-0.017632
						84:leaf=0.00948793
					42:[f1794<1.89731] yes=85,no=86,missing=85
						85:leaf=-0.0334767
						86:leaf=0.0079072
			10:[f955<-0.201074] yes=21,no=22,missing=21
				21:[f934<-0.223538] yes=43,no=44,missing=43
					43:[f1097<-0.181081] yes=87,no=88,missing=87
						87:leaf=-0.0441436
						88:leaf=-0.0110723
					44:[f1491<-0.125416] yes=89,no=90,missing=89
						89:leaf=-0.0291778
